512 1
  -0.0368727
   0.0470227
  -0.0385532
  -0.0148348
  -0.0409998
   -0.010879
  -0.0165587
  0.00548734
   0.0280897
 -0.00616553
  0.00189531
  -0.0436853
  -0.0039409
  -0.0106048
 -0.00191001
   0.0190653
  0.00747105
   0.0287154
  -0.0048701
   0.0204613
  -0.0508233
  0.00693765
  -0.0420408
  -0.0421506
  -0.0208249
  -0.0109867
  0.00668314
  -0.0110966
  -0.0527255
  -0.0247831
   -0.018831
  -0.0140123
  0.00489237
   0.0283753
  -0.0176858
  -0.0575196
    0.010607
   0.0196271
  0.00183905
  -0.0230292
  0.00942965
   -0.005866
 -0.00847008
 -0.00449698
 -0.00174232
   0.0156311
  -0.0158905
  -0.0394382
   0.0230359
 -0.00739984
  -0.0199004
  -0.0335285
   -0.040882
  -0.0585149
   0.0381019
   0.0052554
   0.0146105
  0.00892291
   0.0565172
 -0.00502283
    0.017651
-0.000654448
  -0.0194972
  -0.0049494
 -0.00821918
  0.00506281
  -0.0497549
  -0.0106987
  0.00700574
  0.00315353
  -0.0179036
  -0.0270711
   -0.010331
-0.000652995
 -0.00553675
   -0.024526
  -0.0524192
  -0.0535856
 -0.00827692
 -0.00790829
  -0.0174352
   0.0414248
  -0.0132308
  -0.0383438
 -0.00142757
  -0.0248526
  -0.0350947
  -0.0219941
  -0.0407911
  -0.0203746
   0.0207754
   0.0131834
 0.000385698
  -0.0156062
  -0.0488071
  -0.0200378
   0.0312737
 -0.00976933
  0.00992713
  -0.0327541
  0.00816293
 -0.00874464
  -0.0110567
  -0.0409904
    0.039188
   0.0409687
   -0.022848
  -0.0275267
 -0.00453683
  -0.0213188
   0.0662623
  -0.0211635
  -0.0420846
  -0.0130012
   -0.015356
  -0.0424218
 -0.00636613
  -0.0491589
  -0.0275762
   0.0482026
  -0.0215003
   0.0156375
 -0.00424132
 -0.00231659
  -0.0191538
  0.00400147
   0.0192393
  -0.0496701
  -0.0246248
  -0.0402319
   0.0115419
  -0.0441581
   -0.037158
   0.0181511
  -0.0060119
   0.0116992
  -0.0389959
  -0.0188059
 -0.00862769
  -0.0152392
  -0.0367605
  -0.0258199
 0.000335115
    0.013059
 -0.00596471
  -0.0020009
  -0.0157616
  0.00947946
 -0.00910895
  -0.0267454
  -0.0150944
  -0.0158953
  -0.0128922
   0.0112464
   0.0186904
 -0.00170704
  -0.0312952
   0.0108903
   -0.040284
  -0.0406317
  -0.0309939
   0.0208648
  0.00402554
   0.0339537
  -0.0610159
  -0.0378093
  -0.0155498
  -0.0583348
   0.0163074
  -0.0450512
  0.00431715
 -0.00567241
  -0.0246286
  -0.0172148
 -0.00308989
   0.0187713
  -0.0228903
   0.0290973
 -0.00403963
  0.00834577
  -0.0347377
   0.0065443
 -0.00572374
  -0.0284488
 -0.00234791
  0.00595817
  -0.0402612
  -0.0344168
  -0.0145578
 -0.00348409
  -0.0343155
  -0.0273363
   0.0330658
 -0.00246671
  0.00248935
  -0.0493373
 -0.00249727
  -0.0103656
  0.00405881
 -0.00212978
  0.00642304
  0.00871295
 -0.00560856
  -0.0607006
  -0.0190837
  -0.0431044
  -0.0372757
  0.00678851
   0.0019562
  -0.0265116
  -0.0480875
  0.00998235
   0.0371526
 -0.00979963
  -0.0369043
  -0.0547163
  -0.0408529
  -0.0142265
  -0.0319825
  -0.0363091
  -0.0258889
   0.0177108
  -0.0441764
   0.0130191
  0.00219821
  -0.0132346
  -0.0196036
  -0.0153083
  -0.0373854
   -0.014544
    0.017959
  -0.0151037
   0.0246866
   0.0411876
  -0.0287557
  0.00401638
   0.0251852
  -0.0176573
   0.0305017
 -0.00868351
  0.00638656
  -0.0215469
  -0.0458261
   0.0320866
  -0.0285428
  0.00108414
    0.026291
  -0.0151427
  -0.0160643
 -0.00965751
-0.000332722
  -0.0106148
  0.00907099
  -0.0410636
   0.0201124
   0.0150533
  -0.0261058
 -0.00241659
  -0.0605937
  -0.0374942
  0.00216675
   0.0280697
   -0.025958
   0.0349082
  -0.0628944
  -0.0254778
  -0.0133522
    0.031563
  -0.0265504
  -0.0461436
  -0.0158081
  -0.0482931
  0.00561603
  0.00486377
  -0.0364113
  -0.0378779
  -0.0293747
 -0.00491902
  -0.0209201
  0.00272093
   0.0242774
    0.025028
   0.0150197
  -0.0274649
   0.0298996
  -0.0485273
  -0.0347176
 -0.00931222
  -0.0570332
  -0.0344652
 -0.00238544
  -0.0346948
  -0.0152654
  -0.0443306
  -0.0005814
   0.0206713
  -0.0122701
 -0.00331177
   -0.027877
  0.00145604
 -0.00875485
  -0.0102721
   0.0205984
  -0.0361113
   0.0235674
  -0.0256402
   0.0115494
  -0.0269574
  0.00513608
  0.00750376
  -0.0207179
   0.0156406
   -0.058353
  -0.0305092
  -0.0120452
 -0.00520816
   0.0280448
  0.00201546
  -0.0342443
  0.00262756
   -0.017608
  -0.0177676
   0.0167271
   -0.025428
 0.000562981
  -0.0219837
  -0.0214539
  -0.0266329
   0.0109081
  0.00788213
  -0.0140269
  -0.0374248
  -0.0599336
-0.000900996
  -0.0446187
   -0.025246
   0.0217458
 -0.00706736
  -0.0620804
  -0.0107308
 -0.00485294
   0.0235917
 0.000441723
  -0.0323483
  -0.0418051
  -0.0436326
   0.0170785
   0.0211826
 -0.00475984
   0.0152582
  -0.0334394
  -0.0487398
  0.00245894
  -0.0332432
   -0.025435
   0.0119866
  0.00572031
 -0.00562912
   0.0143451
 0.000285359
  -0.0381968
 -0.00048173
 0.000163752
   0.0119718
  -0.0396721
  -0.0453909
   0.0213132
  -0.0213485
  -0.0120261
   -0.014216
  -0.0243025
 -0.00503625
  -0.0354775
 -0.00492607
  -0.0173326
  -0.0429162
   0.0102325
  -0.0796409
 0.000504147
  -0.0188053
   0.0101772
 0.000316262
 -0.00280995
   0.0634004
  -0.0470421
 -0.00418732
  0.00904138
 -0.00266841
  0.00744602
   0.0243518
  0.00566934
 -0.00316124
  -0.0206209
  -0.0456131
   0.0252855
  -0.0157843
  -0.0201462
   0.0283909
   -0.014301
  -0.0262751
  -0.0482699
 0.000170082
  -0.0261811
  0.00852272
  -0.0487907
  0.00197154
   -0.013497
  0.00283521
 -0.00779702
   -0.052949
 -0.00987321
  -0.0288551
   0.0250717
  -0.0202439
   0.0399352
  -0.0243341
  -0.0210073
  -0.0200689
  0.00401555
 -0.00831122
  -0.0477673
   0.0167602
  -0.0148091
    0.042475
  -0.0167218
  0.00224138
  0.00339424
   0.0487703
   0.0479513
  -0.0153545
  -0.0314711
  -0.0116816
 -0.00452003
  0.00275459
   0.0130013
 -0.00756423
  -0.0070358
  -0.0322048
  -0.0192334
  -0.0155678
 -0.00583817
  -0.0590687
   0.0270598
  -0.0142605
   0.0137991
  -0.0233832
  -0.0728869
  -0.0327364
 -0.00416668
  -0.0309553
  -0.0602908
  -0.0169645
  0.00860673
   -0.013481
  0.00897008
   0.0386317
   0.0110552
  -0.0272542
   0.0332638
    -0.03276
  -0.0235015
   0.0180432
  -0.0113535
  0.00467531
   0.0176073
  -0.0335136
  -0.0367963
  -0.0211243
  -0.0165252
  -0.0061599
  -0.0274413
  -0.0188046
 -0.00297767
   -0.025164
  -0.0221114
   0.0134406
   0.0305461
   -0.023818
  -0.0314565
  0.00350267
  -0.0351782
   0.0260157
  -0.0227222
   0.0241857
  -0.0376495
  -0.0168139
   0.0229369
  -0.0219021
  -0.0477046
    0.052509
  -0.0129039
 -0.00136539
  -0.0446729
 -0.00591846
 -0.00707581
  0.00385687
  -0.0134473
 -0.00715498
  -0.0427006
  -0.0282304
  -0.0338685
  -0.0105265
  -0.0248685
   -0.032036
   0.0145629
   0.0398705
  0.00744796
  -0.0160664
  -0.0430272
  -0.0377061
  -0.0188985
  0.00663379
