3072 1
   0.0574451
    0.027528
  -0.0875519
  -0.0198418
   0.0317551
   0.0507403
   0.0234227
   0.0558126
   0.0591008
  -0.0120269
    0.112035
    0.066517
    0.163862
  -0.0079037
  -0.0871174
    0.022702
   0.0594561
   0.0190126
  -0.0350906
   0.0420581
 -0.00765021
   0.0817818
   0.0723559
   0.0278928
   0.0339899
  -0.0379519
  -0.0466504
  -0.0178055
   0.0748874
   0.0265456
   0.0855923
  -0.0471596
   -0.029335
    0.138165
  -0.0879548
   0.0171533
  -0.0753381
   0.0743337
  -0.0131096
     0.02325
  -0.0836889
    0.069108
   0.0405297
    0.154455
    0.107832
   0.0144147
   -0.016667
 0.000482422
   0.0900588
  -0.0347531
    0.147836
  -0.0411443
    0.070396
   -0.040097
   0.0593247
   0.0227139
    0.107384
   -0.021258
  -0.0798514
  -0.0285498
   0.0216811
  -0.0673569
   0.0362158
  -0.0208931
    0.142666
  -0.0123524
 -0.00849333
   0.0146139
  -0.0355118
  -0.0220857
   0.0780003
   0.0709028
   0.0322679
   0.0370617
   0.0942573
  -0.0816859
  -0.0806107
   0.0325076
    0.108522
  -0.0471529
  -0.0800173
   0.0158968
 -0.00696558
  -0.0808307
   0.0287021
   0.0610566
  -0.0305675
 -0.00795801
  -0.0843551
  -0.0748932
  -0.0323569
 -0.00912793
    0.106162
    0.185004
  -0.0052864
   -0.038077
  -0.0105686
   0.0345021
  -0.0558956
   0.0482743
    0.058025
   0.0650341
  -0.0466917
   0.0788496
  -0.0101423
  -0.0516701
  -0.0121635
   0.0400365
  -0.0259253
   0.0673356
  -0.0110744
  -0.0240001
   0.0446488
   0.0739672
   0.0345106
   0.0425443
 -0.00955917
   0.0318314
    0.102418
   0.0916703
  0.00303109
    -0.03836
    0.129897
   -0.026962
   0.0198232
  -0.0286082
   -0.019471
  -0.0482831
   0.0810826
  0.00533271
  0.00224937
  -0.0711913
   0.0610246
  -0.0145861
   0.0255986
   0.0906949
   0.0678007
  -0.0639717
  -0.0808853
   0.0453029
   0.0343843
  -0.0488989
   0.0419872
   0.0724545
   0.0116644
   0.0523238
  -0.0459332
   0.0565553
   0.0568416
    0.110739
  -0.0434138
    0.058215
  -0.0114237
   -0.064807
    0.083882
   0.0266065
   0.0340231
  -0.0260252
    0.147889
  -0.0643525
   0.0561495
   0.0241339
   0.0241895
    0.107525
  -0.0280117
  0.00826251
   0.0282707
  -0.0149987
   0.0541921
   0.0491634
  -0.0173385
   0.0226329
   -0.047987
  -0.0175832
    0.030189
  -0.0416153
    0.150457
  -0.0257796
 -0.00254937
  -0.0572667
 -0.00462127
   0.0463866
    0.148975
    0.130507
   0.0107398
   0.0842749
    0.109534
  -0.0564429
  -0.0648579
  -0.0191897
     0.06235
  -0.0942094
  -0.0332656
  -0.0608679
    0.160136
  -0.0459315
  -0.0153791
    0.108064
  -0.0374939
  0.00162383
   -0.105686
  -0.0923093
  -0.0667222
  0.00972131
  -0.0580479
  -0.0574943
   0.0478233
   0.0868535
   -0.026874
   0.0127803
 -0.00713342
  -0.0127265
  -0.0393724
  -0.0374642
  -0.0184869
   0.0535156
   0.0443385
   0.0486299
  -0.0533863
  0.00219613
  -0.0357655
   0.0237048
   0.0351026
   0.0428008
  -0.0814689
  -0.0917778
    0.141183
   0.0541173
    0.036968
  -0.0757531
   0.0750864
 -0.00168024
   0.0645574
   0.0076779
   0.0930636
  0.00071563
   0.0247949
   0.0616463
  -0.0142943
   0.0313393
  -0.0925176
    0.101783
  0.00685382
   0.0464082
   0.0234624
 -0.00182858
    0.104319
   -0.112784
  -0.0778697
    0.115986
   0.0142902
  -0.0676272
 -0.00588463
  -0.0981955
  -0.0731946
 -0.00664168
   0.0785384
   0.0217648
   -0.109898
   -0.141561
   0.0558666
  -0.0216864
  -0.0561263
   0.0317192
   0.0697057
  -0.0719267
   0.0252715
   0.0228071
   -0.067136
    0.118269
    0.138232
   0.0376447
  -0.0149779
   0.0461871
   -0.081918
   0.0161032
  -0.0424198
  -0.0471875
   0.0929181
   0.0115549
    0.181993
   0.0964797
   0.0436756
 -0.00500109
   0.0291707
   0.0666349
  -0.0362344
  -0.0109727
   0.0292506
   0.0174906
  -0.0342177
  0.00521577
  -0.0595519
    0.100995
  -0.0300862
   -0.021151
   0.0420013
   0.0627258
   0.0701395
   0.0381965
  -0.0257786
   0.0556656
   0.0668545
  -0.0609348
   0.0931642
  -0.0977979
    0.014678
  -0.0231698
   0.0549066
   0.0212821
    0.032169
 0.000764624
  -0.0220605
  -0.0489679
  -0.0764866
   0.0975727
   0.0303514
  -0.0409372
  -0.0102876
   -0.138846
  -0.0642838
  -0.0367688
   0.0813282
  -0.0535832
 -0.00605622
   0.0221074
   -0.106429
  -0.0185725
   0.0132183
  0.00754166
   0.0124614
   0.0315081
   -0.135217
    0.125213
   0.0173794
   0.0954659
   -0.105303
   0.0817014
   0.0666774
    0.120805
  -0.0756377
  -0.0199238
    0.109579
    0.115324
   -0.076315
   0.0246698
   0.0272112
  -0.0370265
  -0.0683967
  -0.0652076
   0.0112273
   0.0246857
   0.0175309
   0.0514057
  -0.0520759
   -0.042096
  -0.0409922
   0.0163821
    -0.11926
   0.0327598
   0.0310957
  -0.0648196
  -0.0755148
  0.00763763
  -0.0110146
   0.0305973
   0.0114507
  -0.0257063
   0.0653869
  -0.0601615
   0.0635403
  -0.0412394
   0.0551285
   0.0763465
   0.0115992
    0.117372
   0.0631414
   0.0326561
   0.0296479
     0.11872
  -0.0457561
   0.0373439
  -0.0246795
   0.0499544
   0.0152587
    0.018918
   0.0490835
   0.0907506
   0.0374634
   0.0822645
  -0.0622691
   -0.109694
    0.117384
   0.0113425
  -0.0787119
  -0.0117047
  -0.0320658
  -0.0144706
   -0.100139
  -0.0131816
  -0.0485791
   0.0346918
  -0.0638891
   0.0352054
  -0.0145456
   0.0207534
  0.00958006
  -0.0455402
 -0.00376465
   0.0539334
   0.0121563
   -0.122015
  -0.0650582
  -0.0589927
   -0.125176
   -0.113266
  -0.0260133
  -0.0623928
  -0.0139681
   -0.127506
  -0.0519256
  -0.0944578
  -0.0191237
   0.0254895
  -0.0884593
   -0.116202
  -0.0307551
  -0.0483602
  -0.0503576
   0.0180557
   0.0198072
    0.148279
   0.0552211
   0.0405879
   0.0388446
    0.148835
   0.0282451
  -0.0179451
   0.0179085
  -0.0390216
    0.053095
  -0.0092084
    0.026304
   -0.016925
  -0.0127131
  0.00154763
 -0.00427774
  -0.0611212
  -0.0585959
  -0.0308125
   -0.017022
  -0.0665439
   0.0719033
  -0.0741438
  -0.0884785
   0.0920696
   0.0648503
 -0.00851006
  -0.0470367
 -0.00940259
   0.0111756
   0.0403868
   0.0305331
  -0.0278895
  -0.0671367
  0.00242342
 -0.00915769
  -0.0487998
  -0.0352488
  -0.0871676
 -0.00942833
  -0.0694843
   0.0770515
   0.0710406
   0.0610589
   0.0522337
  -0.0189673
  -0.0954858
  0.00536345
   0.0637928
  -0.0271041
  -0.0711173
     0.15125
  -0.0250321
  -0.0113048
   0.0270376
  -0.0655492
   -0.129473
  -0.0223272
  -0.0589692
   -0.034199
  -0.0687633
  -0.0493845
   0.0305931
    0.165226
  -0.0545998
  -0.0724993
    0.057752
   0.0346583
 -0.00794323
   0.0885705
  -0.0224855
   0.0622996
   0.0337659
    0.111456
    0.117608
  -0.0484371
  0.00193413
   0.0747273
  -0.0645904
  -0.0104825
 -0.00390133
    -0.05238
   0.0470825
   0.0347136
   0.0549946
   0.0456865
  -0.0101049
 0.000851594
   0.0354334
   0.0127576
   -0.045836
   0.0208941
  0.00581585
     0.14825
   0.0793312
  -0.0141089
   0.0698406
   -0.061793
   0.0216479
  0.00618479
   0.0627092
  -0.0119355
   0.0853258
   0.0178252
    0.038964
     0.11269
   0.0100994
   0.0544518
  -0.0137282
   0.0954981
   0.0342413
    0.020241
  -0.0573991
  -0.0868177
   0.0411213
   0.0552182
  -0.0260732
  -0.0516322
  -0.0510831
  -0.0156729
  -0.0913227
   0.0246835
  -0.0654217
  -0.0247691
  0.00800053
   0.0321501
   -0.118523
   -0.091973
  -0.0610822
  -0.0120172
   0.0814038
   0.0964879
    -0.06296
  -0.0441451
  -0.0373501
  -0.0210492
  -0.0373987
   0.0197728
  -0.0236203
   0.0194509
  -0.0295822
 -0.00814455
  -0.0841133
  -0.0216585
   0.0291069
 -0.00349959
   0.0359395
  -0.0138399
  -0.0157933
   0.0189364
   -0.118255
  -0.0846724
   0.0401303
  -0.0110924
  -0.0848875
  -0.0366368
   -0.033981
   0.0722422
   0.0743442
   0.0413848
   0.0413036
  -0.0568536
   0.0154012
   0.0356093
  -0.0177333
  -0.0103222
  -0.0564126
  -0.0315737
   0.0590777
   0.0252672
   0.0150829
   0.0977584
  -0.0562566
  -0.0367356
  -0.0166836
 -0.00679456
 -0.00662267
   -0.056168
  -0.0195867
   0.0406127
   0.0158126
  -0.0136385
  -0.0171385
   0.0573834
   0.0359526
 0.000602708
    0.011508
  -0.0266803
   -0.141902
  -0.0107217
   0.0423827
   0.0351907
  -0.0502726
  -0.0257493
  -0.0340466
 -0.00146793
   -0.104025
  -0.0686667
  0.00568181
   0.0143923
   -0.108392
   0.0446576
   0.0171999
   -0.014973
   0.0219455
   0.0555335
  0.00979922
   0.0239256
  -0.0728034
  -0.0587414
  -0.0106263
   -0.145562
  -0.0936532
   -0.106045
   0.0372942
   0.0461581
   0.0265802
   0.0760463
-0.000348437
  -0.0554936
   -0.045794
  -0.0199502
   0.0935882
  -0.0639962
   0.0125489
  -0.0121506
   -0.011199
   0.0742543
 -0.00594704
   0.0835293
   0.0189356
  -0.0828514
   -0.072323
-8.53681e-05
   0.0071472
  -0.0166845
   0.0248056
   -0.048175
  -0.0631804
  -0.0110548
     0.12124
  -0.0323123
 0.000718283
    0.119783
  -0.0114715
  -0.0040671
 -0.00629427
   0.0264457
    0.176201
  -0.0806611
   0.0208418
  -0.0236084
  -0.0581091
  -0.0842127
  -0.0341251
  -0.0110253
   0.0629339
   0.0564794
   -0.067742
 -0.00943714
  -0.0140486
   0.0329678
  -0.0842353
  -0.0876423
  -0.0177474
    -0.06206
  -0.0558058
  0.00759745
  -0.0980286
   0.0188656
  -0.0220779
    0.054063
 -0.00473303
   0.0503417
  -0.0513284
   -0.014987
   0.0531411
   -0.111342
  0.00335862
  -0.0504317
   0.0827724
   -0.101348
  -0.0798378
  -0.0426776
  -0.0777203
   0.0266332
 -0.00920048
   0.0759573
  -0.0152014
  -0.0513997
   -0.051942
  -0.0415916
 -0.00819111
    0.034887
   -0.128594
 -0.00926798
 -0.00493087
  -0.0156144
    0.100969
  -0.0707445
  -0.0891029
 0.000663457
  0.00228669
   0.0614899
  -0.0462616
   0.0164178
  -0.0367838
  -0.0207629
  -0.0555814
  -0.0620609
   0.0120121
  -0.0366072
  -0.0418691
   -0.091502
    0.103591
   0.0157943
  -0.0848274
    0.101103
   -0.123695
   0.0218196
   0.0497242
     -0.0353
  -0.0757466
  -0.0219693
  -0.0430371
   0.0150381
   0.0139974
   0.0174789
   0.0152586
   0.0227411
    0.029859
  -0.0291919
   0.0269975
   0.0311479
   -0.100818
  -0.0147634
 -0.00664844
   -0.078127
  -0.0574347
   0.0844011
  -0.0717035
  -0.0409482
  -0.0377763
   -0.140559
   -0.104369
   -0.121424
  -0.0183781
  -0.0164204
  -0.0105556
   0.0742339
  -0.0988153
  -0.0526877
   0.0525683
  -0.0154698
    -0.10342
   0.0231497
  -0.0292252
   0.0722096
   0.0173032
   0.0752226
  -0.0585711
  -0.0366025
  -0.0901123
  -0.0136017
  0.00665089
  -0.0444454
   -0.102968
  -0.0423396
  -0.0929914
  -0.0173786
   0.0672663
   -0.245992
    -0.11061
  0.00123917
     -0.0277
  0.00775271
  0.00439105
   0.0233061
    0.118319
  -0.0419399
  -0.0465919
  0.00153085
   0.0136095
   0.0206616
  -0.0810353
    0.105881
  -0.0180651
 -0.00918571
  -0.0532934
   0.0611508
 0.000979686
   0.0758965
  -0.0697995
   0.0314086
   0.0245618
    0.015727
   -0.121939
  -0.0578666
   0.0510131
   0.0296827
   0.0171201
    0.150692
    0.061927
   -0.033538
   0.0485436
  -0.0163355
 -0.00584985
 -0.00933843
   -0.101433
   0.0244909
   -0.022686
    0.027069
   0.0342129
    0.115942
   0.0348159
   0.0745736
  -0.0631989
  -0.0576372
  -0.0093375
   0.0881833
  -0.0411375
  -0.0462058
   0.0301181
  -0.0460455
   0.0180237
   0.0264202
   0.0285575
   0.0149977
  -0.0646675
  -0.0953933
   0.0059552
    0.041188
  -0.0149241
   0.0766422
   0.0363117
  -0.0304089
 -0.00645992
  -0.0572698
  -0.0200848
   0.0408241
    0.021405
  0.00835873
   0.0562564
  -0.0335413
  -0.0463722
  -0.0424639
  0.00421649
  -0.0296727
   0.0858616
   0.0536468
  -0.0302431
  -0.0744855
 -0.00916068
   0.0356408
    0.135597
  -0.0415964
   0.0133031
  -0.0541375
   0.0142186
  -0.0974337
  -0.0648139
 -0.00528462
   0.0723535
  -0.0510949
    0.079156
 -0.00871214
  0.00605605
   0.0348383
  0.00220223
   0.0382376
   0.0236317
  -0.0204141
  -0.0133432
  -0.0285256
  -0.0228716
  -0.0623213
   0.0264743
  -0.0479533
 -0.00815023
   0.0742545
  -0.0775124
  -0.0653809
   0.0310146
  -0.0332413
   0.0117857
  0.00292806
  -0.0774464
  -0.0590132
  -0.0290596
  0.00950196
  -0.0316316
  -0.0154772
   0.0868291
   0.0431156
    0.041563
  -0.0339155
    -0.10265
   -0.084603
   0.0726221
 -0.00380811
  -0.0515571
  -0.0734448
   0.0181472
  -0.0217539
  -0.0130623
 -0.00598638
   0.0263957
  -0.0570661
   0.0332947
   0.0193022
  -0.0567455
  6.1285e-06
   0.0301681
  0.00227305
   0.0761622
   0.0743169
  -0.0462421
   0.0590139
   0.0119414
 -0.00510573
  0.00843602
  -0.0944891
   0.0355561
   0.0296854
   -0.139801
   0.0571387
   0.0246836
   0.0517893
  -0.0611808
   0.0411839
  -0.0166861
    0.039961
   0.0338325
   0.0334097
 -0.00857373
  -0.0528486
    0.019295
  -0.0329021
   0.0726497
  -0.0903937
  -0.0222675
 -0.00390735
   0.0373235
 0.000459993
    0.160452
    0.109386
  -0.0424236
   -0.112865
  -0.0349975
 -0.00177611
  -0.0834296
  -0.0168673
   0.0866545
   -0.072633
  -0.0914884
  0.00538861
  -0.0443373
    0.125914
  -0.0148134
  -0.0325404
 -0.00366031
   -0.131868
  0.00186411
  0.00740629
  -0.0271361
     0.01383
  -0.0376845
  -0.0182206
   -0.106057
  0.00327365
   0.0244636
  -0.0966552
   -0.108948
    0.015754
   0.0251047
-0.000581961
   0.0876493
  0.00261593
   0.0659041
   0.0485528
   0.0607238
  -0.0446065
  -0.0143834
  -0.0216354
  -0.0421384
   -0.011021
  -0.0656512
  -0.0469249
  -0.0557921
   0.0077407
  -0.0556949
  0.00430793
  -0.0137864
 -0.00876634
  -0.0635714
  -0.0284989
  -0.0681386
  -0.0375375
 -0.00474884
  -0.0354364
  0.00119394
    0.069638
  -0.0183655
  -0.0571475
   -0.029539
  0.00226691
   0.0175453
 -0.00128726
   0.0254546
   0.0139988
   0.0636248
   0.0674142
  -0.0015328
  0.00220702
  0.00101896
   0.0422148
   0.0115363
    0.041986
  -0.0540407
   -0.106848
   0.0628933
   0.0614913
   -0.102694
    0.125331
   0.0553376
  -0.0465254
  0.00482147
  -0.0034036
 -0.00217186
  -0.0585998
 -0.00709319
   0.0897942
   0.0431844
  -0.0525158
  -0.0400766
  -0.0190587
    0.074253
   0.0110613
  -0.0280062
   -0.073844
   0.0127531
    0.112932
   0.0382994
   0.0225105
  -0.0381715
    0.108361
   0.0215622
  -0.0055374
    0.033017
 -0.00117876
  -0.0925037
   0.0304338
   0.0926931
    0.130242
   0.0514638
  -0.0286308
  -0.0152153
  0.00546969
   0.0255686
    0.020399
  0.00218437
    0.022002
  -0.0174629
 -0.00928249
   0.0663389
  -0.0739904
    0.046372
  0.00394994
   0.0183671
    0.045851
  -0.0163265
  -0.0639813
   0.0697207
    0.150706
    0.118922
  -0.0264232
    0.115013
  -0.0226891
    0.076311
   -0.042175
   0.0163085
  -0.0407661
   -0.101707
  -0.0270519
  0.00524761
  -0.0137002
   0.0410023
  -0.0663103
   -0.027629
 -0.00617071
  -0.0117836
   0.0415161
    0.031783
   0.0759269
   0.0102585
   0.0654335
  -0.0209593
   -0.115907
 -0.00617791
  -0.0169526
   0.0665848
   0.0394816
     0.16968
  -0.0773214
  -0.0427175
  -0.0159226
   0.0270174
  -0.0712384
  -0.0105558
  -0.0741781
   0.0144203
 -0.00214299
  0.00751433
  -0.0307411
  -0.0862081
   -0.031406
  -0.0407171
   0.0242785
   0.0135551
  -0.0181974
   0.0487557
    0.105348
  0.00796749
  -0.0719346
   0.0143177
   0.0583837
  -0.0528929
    0.137518
   -0.105339
  -0.0215492
  -0.0661494
   0.0493772
   0.0855505
 -0.00512703
  0.00110379
  -0.0434367
  -0.0520173
    0.178678
   -0.111341
   0.0763071
   0.0928197
   0.0446882
  -0.0290264
 -0.00085295
   0.0850367
   0.0553539
   0.0607279
  0.00446931
  -0.0833416
   0.0724707
  -0.0293051
   -0.094493
   0.0316849
  -0.0690721
   0.0121384
  -0.0760441
 -0.00790198
    0.100143
   0.0799093
  -0.0680738
   0.0215199
   0.0290268
     0.17368
   0.0110639
  -0.0140883
   0.0425521
  -0.0368633
   0.0466623
  -0.0340991
    0.102396
    0.100598
   0.0361628
   -0.108707
  0.00243311
  -0.0343563
    0.112896
   0.0675393
    0.101747
   0.0456359
  0.00494687
   0.0451811
  -0.0496272
  -0.0347717
-0.000937246
   0.0247298
   0.0202376
 0.000839075
  -0.0935136
    0.117713
  0.00492496
  -0.0854448
  0.00842464
   0.0319339
   0.0474576
  -0.0681873
 3.43426e-05
   0.0209958
    0.101635
   0.0408656
   0.0244219
    0.112702
   0.0386958
    0.042435
   0.0160737
   0.0339002
   0.0652245
   0.0423759
   0.0336797
   0.0355123
   0.0558486
    0.114559
  -0.0615355
  -0.0115132
   0.0549168
   0.0917712
  -0.0196455
   0.0475617
  -0.0596217
  -0.0599816
    0.115382
   0.0620897
   0.0699695
    0.107269
   0.0730765
  -0.0420606
   0.0053969
   0.0725647
   0.0347507
  -0.0225192
  -0.0223182
  -0.0235475
  -0.0312002
    0.116525
   0.0623557
   0.0177568
  0.00922624
 -0.00957265
  -0.0823954
   0.0127753
  -0.0467682
   0.0156291
   0.0053314
    0.026505
  -0.0534398
   0.0783485
   0.0481809
  -0.0614783
   0.0984007
  -0.0616605
   0.0957856
   0.0240468
  -0.0199909
  0.00304407
  -0.0222865
  -0.0413495
   -0.096333
   0.0713559
   0.0291894
  -0.0312842
   0.0586271
   -0.012514
   0.0261689
 -0.00767539
    0.104128
    0.116991
  -0.0874546
 -0.00519917
   0.0447363
  0.00913857
   0.0726852
   0.0690649
   -0.022861
   0.0630768
 -0.00204972
   0.0906622
  -0.0123978
   0.0353725
  -0.0225057
   0.0517149
   0.0455052
   0.0217149
    -0.13631
   0.0236837
 -0.00988097
     0.03691
   0.0468814
   0.0011419
   0.0331468
    0.007003
  0.00604437
 -0.00780358
  -0.0769148
  0.00439379
  0.00132552
  -0.0069183
   0.0926617
   0.0242769
  -0.0142149
  -0.0104512
  -0.0491195
   -0.111056
   0.0654436
   -0.165894
  -0.0249407
    0.038806
   0.0135335
  -0.0922722
  -0.0674394
  -0.0293805
   0.0112493
  -0.0938005
  -0.0728041
   0.0667063
   0.0572079
   0.0397892
  -0.0747954
  -0.0381395
   -0.042516
  -0.0105306
  -0.0396206
   0.0225567
  -0.0417935
-0.000144556
  -0.0817235
  -0.0178695
  -0.0374161
  -0.0317574
   -0.111311
   0.0101068
   -0.046263
  0.00265631
   0.0041029
 -0.00300855
  -0.0880722
 -0.00900967
   0.0191506
  -0.0330261
   0.0101118
-0.000329846
   0.0706926
   0.0687286
    0.045077
    0.040842
  -0.0295491
  -0.0584298
  -0.0182225
  -0.0437114
  -0.0858027
  -0.0158584
   0.0528825
  -0.0411606
  -0.0754865
   0.0862507
   0.0092995
   0.0741168
   0.0502555
  -0.0722758
 -0.00925303
  -0.0117163
   -0.011446
 -0.00747293
  -0.0827162
     0.06825
  -0.0702982
    0.101583
  -0.0597267
 -0.00629511
  -0.0144028
  0.00781078
   0.0122643
  -0.0381366
   0.0402138
  -0.0185073
   0.0636069
  -0.0656041
  -0.0463395
  -0.0588325
  0.00611464
   0.0207156
  -0.0254707
  -0.0218433
   0.0436689
 -0.00637749
  -0.0874436
   -0.100741
  -0.0375409
 -0.00364267
  -0.0145713
   -0.128978
   -0.024187
  -0.0384802
 -0.00522248
   0.0677131
  -0.0334446
  -0.0487874
   0.0864718
  -0.0328873
  -0.0122236
 -0.00857801
    0.106541
    0.025288
  -0.0325581
    0.018791
 -0.00629416
  -0.0358183
  -0.0577064
   0.0797289
  -0.0884417
    0.123172
   -0.019623
-0.000945548
  0.00563692
  -0.0161396
   0.0211425
  -0.0025977
   0.0747043
   0.0227821
   0.0455692
  -0.0280851
  -0.0186928
   0.0709358
   0.0772203
    -0.06008
   -0.100543
   0.0692387
    0.096294
  -0.0593781
   -0.193006
   0.0105182
   -0.109936
  -0.0370935
   -0.113174
  -0.0226908
  -0.0298423
  -0.0316342
 -0.00819196
  -0.0205628
   0.0170443
   0.0305237
  -0.0712472
  0.00483502
   0.0113583
  -0.0256905
    0.110943
  -0.0454535
 -0.00484872
  -0.0216595
   -0.103297
   0.0584341
   -0.011463
   0.0132839
    0.049139
   0.0146556
  -0.0391089
   0.0355424
   0.0375196
   -0.105806
  -0.0220259
  -0.0194777
 -0.00148775
  -0.0544894
   0.0492334
   0.0126057
   0.0112601
   0.0240676
   0.0850632
   0.0642235
    -0.02562
  -0.0486631
-0.000165914
  0.00519735
  -0.0208589
 -0.00109487
   0.0406499
   0.0790407
  -0.0653988
   0.0198107
  -0.0706741
   0.0425029
   0.0394192
   0.0553754
  -0.0258625
   0.0764458
   0.0516884
 -0.00493879
   0.0736108
   -0.100098
   0.0738876
  -0.0829553
   0.0333289
  -0.0383402
    0.032231
  -0.0727242
   0.0564062
  -0.0357492
  -0.0142468
    0.076489
   -0.106556
    0.050468
  -0.0319982
   0.0307207
  -0.0825578
   0.0375975
  0.00893891
   0.0640084
    0.172346
  -0.0679504
  -0.0908182
  -0.0423693
   -0.117466
   0.0191572
  -0.0398597
   0.0230497
   0.0203572
   0.0919596
  -0.0814769
   0.0248406
 -0.00545509
  -0.0653632
 -0.00409347
   0.0162731
    0.141047
   -0.034522
   -0.115652
  -0.0505836
 -0.00827401
  -0.0412958
   0.0705682
  -0.0293963
  -0.0329571
   -0.015496
   0.0703306
 -0.00944036
  0.00914413
  -0.0912474
 -0.00415121
  -0.0402372
  -0.0413007
   0.0240105
  -0.0193032
  -0.0132172
    0.058816
  -0.0122866
   -0.066606
  -0.0114837
   0.0407673
  -0.0174647
  -0.0392205
  -0.0683667
  -0.0101368
   0.0386066
   0.0647904
   0.0560995
  -0.0770268
   0.0317248
  -0.0227806
   -0.147478
  -0.0461553
   0.0583158
 -0.00619055
   -0.113107
  -0.0216938
  0.00453758
   0.0526309
  -0.0457431
   0.0651535
 -0.00723205
   0.0380521
   0.0187125
  0.00518462
  -0.0425272
  0.00266371
   0.0955225
   -0.095166
   -0.115483
  -0.0725122
  -0.0237286
   0.0071519
  -0.0342695
  -0.0742716
    0.013335
   0.0651007
   0.0230601
   0.0417912
  -0.0878818
   0.0074693
   0.0115211
   0.0206808
  -0.0959723
   0.0323133
   0.0515277
  -0.0841797
  -0.0930393
   0.0292809
  -0.0413767
  -0.0715973
   0.0304758
  -0.0157507
  -0.0341929
   0.0393154
    0.099628
   0.0153851
  0.00940677
  -0.0693434
   -0.058495
   0.0496603
   -0.075828
  0.00121705
 -0.00556757
   0.0263728
    -0.11547
   0.0577739
 -0.00659006
   -0.022693
   -0.116654
  -0.0199917
  -0.0674274
   0.0027651
  -0.0198266
   -0.184656
  -0.0130077
   -0.063271
  -0.0260012
   0.0685564
   0.0476401
   0.0471191
   0.0190164
-0.000981668
  -0.0504371
   0.0265105
  -0.0334197
   0.0599527
   0.0218925
  -0.0519361
   0.0305413
  -0.0342017
  -0.0279877
   0.0491267
  -0.0462627
  -0.0206008
   0.0553396
  -0.0276082
  -0.0335824
  -0.0210824
  -0.0418584
  0.00171519
   0.0503358
   0.0116703
   -0.101622
  -0.0500955
   0.0230036
  -0.0191727
   0.0535652
   0.0823266
   -0.158352
  -0.0588714
  -0.0348495
    0.046864
   0.0358327
   -0.051218
  -0.0106145
   0.0551444
  -0.0125321
  -0.0469396
   -0.019352
   0.0262709
 -0.00870812
   -0.103319
  -0.0643759
  -0.0021158
   -0.106426
   -0.026128
   0.0640982
   0.0734198
  0.00294886
   0.0569353
     0.07836
   0.0770259
   0.0348262
  -0.0905601
   -0.134822
   -0.024516
   -0.143755
 0.000222425
   0.0665271
  -0.0398258
   0.0398063
   0.0396418
   0.0437762
  -0.0422046
 -0.00363945
   0.0316151
 -0.00351396
   0.0200458
  -0.0546578
   0.0252731
    0.039429
   0.0454897
   0.0531938
    -0.04568
 -0.00476602
  -0.0395999
    0.063464
  -0.0430471
  -0.0225588
  -0.0150816
 -0.00586734
  -0.0132948
   0.0712992
    0.034948
   0.0549503
   0.0357134
  -0.0925373
   0.0777691
  -0.0875832
  0.00756782
  -0.0282117
   0.0161991
   0.0462125
  -0.0275271
    0.025277
   0.0312164
   0.0388122
  -0.0442074
    -0.01653
   0.0155884
   0.0406092
  -0.0229923
   0.0566667
 -0.00629564
   0.0728005
  0.00474691
   0.0923162
   0.0952251
  -0.0209553
 -0.00479592
   0.0165252
  -0.0357132
   0.0200717
  -0.0958515
    0.128273
   -0.014564
   0.0322756
  -0.0560555
   0.0177949
  -0.0489321
  -0.0330872
  -0.0759898
 -0.00146061
   0.0106511
 -0.00693405
  0.00595769
   0.0202878
  -0.0270982
  0.00643435
   0.0878579
   0.0425488
   0.0118752
   0.0249575
   0.0196368
  -0.0687807
   0.0970597
   0.0934138
  -0.0588833
   0.0184843
  -0.0692867
 -0.00730381
   0.0684732
  -0.0776476
  0.00234525
   0.0200034
   0.0167997
  -0.0892767
  -0.0650522
  -0.0352954
  -0.0317591
  -0.0267253
   -0.135477
  -0.0368174
    0.120302
  -0.0890394
    0.149793
  -0.0653567
  -0.0620452
   0.0719374
 -0.00432986
   -0.105712
   0.0602117
  -0.0243978
    0.041504
   0.0663895
   0.0872671
    0.039801
  -0.0444745
   0.0226351
 -0.00123349
  -0.0204399
    0.012793
  -0.0874334
 -0.00516051
  -0.0102548
  -0.0722519
 -0.00167961
   -0.019806
  -0.0127852
  -0.0563038
 -0.00208302
   0.0899263
  -0.0802474
  -0.0476339
  -0.0710938
  -0.0116296
  0.00861607
  -0.0586164
   0.0891808
  -0.0573791
  -0.0469734
   0.0181418
   0.0282508
    0.029537
   0.0191612
   0.0237079
  -0.0125895
     0.03853
   0.0896697
  -0.0326436
   0.0448177
   0.0809452
  -0.0215006
  -0.0511497
   0.0128125
   -0.104701
   0.0211896
  -0.0441128
   0.0812118
     0.01855
  -0.0524688
  -0.0259117
  -0.0198791
   0.0216415
   0.0718067
  -0.0344506
  -0.0559524
 -0.00969945
   0.0153413
  -0.0698909
  -0.0747614
   0.0557437
  -0.0426091
 -0.00301404
   0.0871149
   0.0814249
    0.140051
  -0.0112849
   0.0275618
   -0.117734
   0.0181461
    0.044255
  -0.0176918
 -0.00375295
   0.0296085
   0.0711873
  -0.0399478
  -0.0344768
   0.0202398
   0.0361479
  -0.0595567
 -0.00668511
   0.0530494
  -0.0622388
   0.0377555
   0.0544966
   0.0309386
   0.0709182
  -0.0749332
   0.0487112
  0.00725893
    0.093378
  -0.0540435
   0.0469631
   0.0111297
  -0.0185957
   0.0569127
  -0.0326011
  -0.0344256
    0.021223
  -0.0458318
  -0.0288021
  -0.0323008
   0.0598949
   0.0108678
   -0.031254
  -0.0733035
  -0.0318845
  -0.0338927
  -0.0632942
     0.12075
   -0.106566
   -0.100946
   0.0612267
  0.00478493
  -0.0122618
   -0.176751
  -0.0233306
  -0.0236724
  -0.0577553
  -0.0137297
   0.0689026
   0.0259246
  -0.0406649
  -0.0293586
  -0.0106742
    0.013715
   -0.118486
   0.0302327
  -0.0485642
   0.0691018
  -0.0470469
   -0.121866
  -0.0116193
   0.0112948
   0.0734515
   -0.070932
   0.0655499
   -0.010878
  -0.0731684
  0.00653825
  -0.0385558
   -0.184014
  -0.0320513
 -0.00125666
 -0.00189683
  -0.0186656
 -0.00311691
  -0.0160957
  0.00520164
  -0.0637956
   0.0036205
    0.110137
   0.0294837
  -0.0219313
 -0.00656798
    0.112636
   0.0453317
  -0.0655165
   -0.128999
  -0.0104186
   0.0286671
  -0.0129372
   -0.125569
  -0.0269413
   -0.111608
  -0.0396883
  -0.0857584
   0.0973971
   0.0219631
   0.0224898
  -0.0289812
  -0.0160529
  -0.0696557
   -0.152105
 -0.00972726
  -0.0097352
  -0.0110331
  -0.0164472
   -0.111387
   0.0565938
   0.0345528
   -0.163329
   0.0402741
  -0.0236535
   0.0261452
   0.0216474
   -0.101714
   0.0682286
  -0.0747706
    0.111498
  -0.0236615
    0.021918
   0.0663469
 -0.00848997
   0.0132291
   0.0515181
  0.00981401
  -0.0419745
   0.0917475
  -0.0822078
   -0.154779
   0.0840804
   -0.130187
   0.0196749
   -0.130624
  -0.0877416
  0.00678205
  -0.0936237
    0.057767
   0.0949309
   0.0475083
  -0.0374757
  -0.0114054
    0.012454
  -0.0406441
   0.0140657
  -0.0734192
   0.0137407
  -0.0163582
  -0.0340585
   0.0370436
  -0.0250292
   0.0158377
   0.0534638
  -0.0286212
    0.034109
  0.00511581
  -0.0251788
  -0.0274646
  -0.0524799
   0.0415177
   0.0749793
   -0.107227
   0.0707615
  -0.0131917
  -0.0122523
   0.0830128
  -0.0514334
 -0.00183157
     0.21394
    0.138868
   -0.014645
   -0.116446
  -0.0650874
 -0.00100118
  -0.0247327
   0.0266911
   0.0174411
    0.114682
  -0.0236168
   0.0310095
    0.198866
  -0.0439405
 -0.00952644
   0.0817256
   0.0271671
   -0.126943
  -0.0840466
    0.109701
 -0.00760153
  -0.0677913
   0.0449225
  0.00766343
  -0.0647099
   0.0262327
    0.102539
  -0.0170253
  -0.0419028
  -0.0229005
  -0.0301713
    0.185532
  -0.0871502
  -0.0411466
  -0.0481326
    0.097257
    0.104885
    0.011665
  -0.0720109
   0.0417799
   0.0106019
  -0.0270343
   0.0374061
    0.156328
  -0.0743889
    0.112827
  -0.0900438
 -0.00591634
      -0.074
  -0.0400008
   -0.114419
  -0.0920552
  -0.0887836
     0.04968
  -0.0325989
   0.0469257
   0.0475748
  -0.0464269
  -0.0388748
  -0.0029525
   0.0643935
   0.0416178
  -0.0694432
   0.0316137
   0.0142841
  -0.0931409
 -0.00269114
   0.0134041
  -0.0517318
  -0.0157477
   0.0725284
   0.0126501
   0.0516063
   0.0441727
    0.016648
   0.0674244
   0.0285262
  -0.0401859
  0.00458727
   0.0888128
  -0.0126128
  0.00619337
    0.125936
  -0.0349724
   0.0210399
  0.00679429
   0.0505343
    0.116716
  -0.0308681
   -0.074937
   0.0773364
   0.0338361
  -0.0300081
  -0.0824832
  0.00521333
   0.0201985
   0.0547307
   0.0877793
   0.0307882
  -0.0346992
  -0.0795328
   0.0211874
   0.0716421
  -0.0360077
   0.0227646
   0.0826288
   0.0496002
  -0.0979961
    0.106488
   0.0148594
   0.0161625
  -0.0442417
  -0.0181239
   -0.053994
  -0.0239052
   0.0649341
 -0.00895811
   0.0734865
  -0.0258664
    0.091489
   -0.124587
  -0.0906147
   0.0441664
   0.0130009
 -0.00411501
    -0.01524
  -0.0292404
   0.0527101
  -0.0116898
  -0.0895375
  -0.0624312
  -0.0616746
   0.0153589
   -0.130161
   0.0449773
  -0.0369349
    0.005118
   0.0569135
  -0.0651939
  -0.0751516
    0.031516
   -0.005446
   0.0681889
   0.0444182
  -0.0416196
   -0.120512
  -0.0758706
  -0.0615825
   0.0115832
   0.0319134
    0.132119
  -0.0319912
  -0.0344834
    0.125924
  0.00684538
    0.084046
   0.0604784
  -0.0287264
  -0.0178458
   -0.028111
 -0.00244949
  -0.0771311
   0.0109896
   0.0655691
  -0.0588303
    0.115747
   -0.143969
   0.0749306
  0.00570457
   0.0762846
   0.0217226
  -0.0125634
   0.0254628
  -0.0120141
   0.0554403
   0.0418054
   0.0991544
  0.00399656
   0.0671504
  -0.0417625
    0.107727
  -0.0336915
   0.0649974
   0.0666179
   0.0943366
 -0.00415127
   0.0838128
 -0.00228749
 -0.00506805
   0.0120278
     0.14693
   0.0543846
   0.0838848
   0.0195687
  -0.0130848
 -0.00664871
  -0.0870233
  -0.0815978
  0.00746177
  -0.0672217
   -0.121446
    0.001418
  -0.0739094
    0.042768
  -0.0403421
   0.0438883
   0.0667783
  -0.0466949
   0.0324851
   -0.040907
   0.0222134
 -0.00132106
   0.0404158
  -0.0496825
   0.0568868
  -0.0441956
   0.0523718
  -0.0619368
   0.0845787
  -0.0263678
   0.0818991
  -0.0626709
   0.0230375
   0.0149321
 -0.00853136
   0.0562921
  -0.0243639
   -0.037399
  0.00497274
   -0.031299
   0.0913486
    0.055536
   0.0235729
    0.057901
   0.0861922
   0.0563476
    0.102276
   0.0269953
    0.022361
  -0.0323231
   0.0571999
   0.0496315
  -0.0251106
  -0.0282434
    0.132028
  -0.0339891
  -0.0461275
  -0.0268989
   0.0434818
   0.0203793
  -0.0463695
   0.0514687
   0.0271369
  -0.0406579
  -0.0223231
  0.00798429
  -0.0253159
   0.0216823
  -0.0834483
  -0.0869705
  -0.0574835
  0.00817181
   0.0780652
   0.0338339
   0.0225722
  -0.0848759
   0.0250317
  -0.0589456
    0.033774
  0.00522528
  -0.0335174
  -0.0104293
  0.00974661
  -0.0276795
   0.0558584
   0.0024859
   0.0900176
 -0.00973849
    0.113224
   0.0147704
  -0.0347181
   0.0294902
   -0.111174
  -0.0824815
 -0.00177855
    0.119128
   -0.145874
  -0.0365731
 -0.00250533
   -0.017956
   0.0276745
 -0.00571998
  -0.0190169
   0.0179204
  -0.0107495
  -0.0921848
  -0.0897762
   -0.130585
   0.0054688
   -0.123917
   0.0622322
  -0.0106224
  -0.0175072
   0.0261769
    0.068462
  -0.0658771
  -0.0195042
    0.139483
   0.0862215
   0.0944935
  -0.0013238
   0.0442668
   0.0145542
 -0.00203821
  -0.0917183
   0.0860516
   0.0662156
   0.0382135
   -0.121982
   0.0240224
  -0.0846249
  -0.0465046
  -0.0222366
  -0.0286553
  -0.0240699
   0.0343139
   0.0703812
   0.0131577
   0.0181778
    0.130399
   0.0324518
  2.5892e-05
   0.0216995
   0.0532933
   -0.170249
   -0.035052
  -0.0314175
   0.0306743
   0.0204539
  -0.0443979
    0.109353
    0.106796
   0.0789538
   -0.017855
   0.0922944
   -0.121943
   0.0922541
  -0.0336311
  0.00533016
  -0.0301197
  0.00627009
  -0.0582993
 -0.00287575
  -0.0861459
  -0.0132225
  -0.0673939
    0.162057
   0.0190626
     0.10268
  -0.0729751
 -0.00328794
   0.0120962
    0.111475
  -0.0275434
  -0.0696054
    0.108497
  -0.0373759
   0.0755463
   -0.039652
  -0.0323637
  -0.0520324
   0.0163243
  -0.0971994
  0.00257739
   -0.139803
  -0.0731948
    -0.05056
   0.0870977
  -0.0451668
   0.0325714
   0.0617515
   0.0416015
   0.0305376
   0.0601569
    -0.01395
    0.050873
 0.000457251
   -0.040605
 0.000418457
 -0.00827666
 -0.00909593
  0.00326616
   0.0440925
  -0.0118424
   0.0259401
   0.0225911
   0.0614515
  -0.0732104
   -0.127067
  -0.0172407
  -0.0583407
  -0.0288853
   0.0957813
   -0.031345
  -0.0453085
   0.0932056
    0.106999
  -0.0350093
   0.0282533
    0.037164
   0.0294447
   0.0559511
    0.204432
    -0.06233
   0.0157768
    0.085374
  -0.0538347
   0.0145201
 -0.00246002
  -0.0534431
   0.0082417
   0.0391314
   -0.078945
  -0.0399951
  -0.0170829
   0.0308438
  -0.0396064
   0.0486023
  -0.0530103
   -0.039293
   0.0209727
   0.0445114
  -0.0959012
  -0.0187902
  0.00195772
    0.054038
  -0.0535463
   0.0307278
   0.0641215
  -0.0487565
  -0.0210546
   0.0675126
   0.0590563
   0.0668237
   -0.118059
   0.0258217
    0.015852
    -0.06013
   -0.133028
  -0.0812202
  -0.0367634
    0.031847
  -0.0879325
  -0.0558839
    0.129979
  -0.0371369
  0.00895014
  0.00354066
    0.044037
  -0.0269726
 -0.00785095
   0.0164675
   0.0018309
   0.0138519
   0.0423026
   0.0904647
  -0.0269981
   0.0106031
     0.10925
 -0.00289061
  0.00624589
    0.127492
   0.0448064
  -0.0448841
  -0.0595549
  -0.0539817
  0.00451926
  -0.0410427
  -0.0120256
  -0.0171363
     0.07555
    0.069731
   0.0488564
  -0.0484287
   -0.103503
    0.063017
   0.0306954
  -0.0877632
    0.024784
  -0.0196751
   0.0669048
   0.0827323
   0.0504002
  -0.0557455
   0.0759675
  -0.0630166
  -0.0244119
  -0.0188261
  -0.0948273
   0.0270271
 -0.00636722
  0.00817942
   0.0164045
  -0.0305281
   0.0432003
   0.0146542
  -0.0421991
    0.087528
   0.0399246
     0.06085
   0.0531775
  -0.0538212
   0.0473557
   0.0141154
  -0.0642137
   0.0872868
  -0.0594054
 -0.00646688
   0.0343015
   0.0453051
   -0.027217
   0.0283918
  -0.0535201
   -0.136942
   0.0611571
  -0.0194182
  -0.0502013
  -0.0594028
  -0.0923034
   0.0537946
   0.0253567
  -0.0478469
    0.017559
  -0.0629395
  -0.0537985
   0.0109694
   0.0739644
   0.0605582
  0.00111069
  -0.0935004
  -0.0198706
  -0.0521614
    0.069334
 -0.00276755
 -0.00411773
   -0.111468
   0.0418616
   -0.131175
  -0.0323625
   0.0552283
  -0.0177738
   0.0711555
   0.0125861
   0.0427511
   0.0411251
  -0.0264992
   0.0497415
  -0.0585008
  -0.0723288
  -0.0409874
   0.0518987
   0.0553912
   0.0552897
 -0.00491638
  -0.0290625
   0.0353282
    0.138047
   -0.030719
   0.0229502
  -0.0331313
   0.0187082
  0.00978605
   0.0490927
  -0.0430296
   0.0524432
   0.0299196
   0.0117263
   -0.140437
  0.00249443
   0.0374952
  -0.0559664
   0.0252882
   0.0403659
  -0.0739778
   0.0880187
   -0.121431
    0.077387
 -0.00520053
    0.134668
  -0.0417785
  -0.0528841
 -0.00116887
  -0.0239678
  -0.0368709
  -0.0151062
   0.0926283
  -0.0166359
  -0.0530689
  0.00495761
   -0.017523
  -0.0108031
   0.0735062
   -0.111415
  -0.0216123
   -0.111919
 -0.00915992
 -0.00876022
    0.142366
  -0.0923472
  -0.0181857
   0.0467235
   0.0219165
   0.0264152
   0.0347901
  -0.0136605
  -0.0353478
   0.0505476
    0.020574
   0.0753634
  0.00936078
   0.0215373
  -0.0287689
   0.0913951
  0.00653109
   0.0778153
  -0.0184553
   0.0209841
  -0.0181697
  -0.0780982
   0.0530342
   0.0210562
   0.0485973
  -0.0853297
  -0.0270333
    0.026662
   0.0128651
  -0.0262973
  -0.0219394
  -0.0387229
   -0.102737
  -0.0250151
  -0.0768161
   0.0585832
 -0.00837282
  -0.0458333
 -0.00838813
  -0.0484265
  -0.0471982
  -0.0626533
  -0.0408851
 -0.00330836
   -0.181485
  -0.0440459
   0.0281597
  -0.0254443
   -0.033143
   -0.052131
  0.00906906
   0.0311505
   0.0138393
    0.062714
  -0.0440309
  0.00187474
  -0.0153068
  -0.0225928
    0.111848
  -0.0516929
   0.0227698
   -0.137304
  -0.0698751
  -0.0144478
  -0.0521083
 -0.00155131
   0.0475159
   0.0604215
   0.0587551
  -0.0688603
   0.0463803
  -0.0173298
   0.0135414
    0.105563
   0.0971512
  -0.0382739
  -0.0072663
 0.000208198
  -0.0607842
  -0.0854484
  -0.0639604
  -0.0565188
  -0.0481508
  -0.0474918
  -0.0179681
   0.0879781
   0.0506303
  -0.0556772
   0.0218971
  -0.0231713
  -0.0143705
 -0.00244191
  -0.0786985
  -0.0191502
 -0.00415388
   -0.010662
-0.000618749
   0.0280715
    0.018707
   0.0168347
   -0.055827
  -0.0042644
  -0.0685358
   0.0446972
   -0.148294
  -0.0240681
   0.0840667
  -0.0540071
  -0.0186079
   -0.014235
    -0.13262
  -0.0108905
   0.0414437
   0.0466126
   0.0201922
  0.00219074
  -0.0703128
  -0.0170921
  0.00490791
   -0.105872
   0.0926791
   0.0103445
  -0.0219313
   0.0292686
  -0.0818052
  -0.0309519
  -0.0914845
   0.0537607
 -0.00265452
  -0.0603783
  -0.0503339
  -0.0856314
   0.0485181
  -0.0332225
  -0.0113965
   -0.142116
   0.0318433
  -0.0168218
   0.0579252
 -0.00917177
  -0.0724613
  -0.0142476
   0.0845054
 -0.00114987
   0.0871422
   0.0455747
  -0.0384518
   0.0526721
  -0.0146768
   0.0188998
   -0.134369
  -0.0291577
  -0.0638461
  -0.0789706
   -0.041073
 -0.00266373
  -0.0302345
   0.0261645
 -0.00438456
   0.0328155
   0.0163632
   0.0186514
  -0.0668781
  -0.0488122
  -0.0347942
  -0.0692701
   0.0515075
  -0.0679056
    0.046613
 0.000167796
     0.10368
  -0.0269833
  -0.0185607
   0.0582405
  0.00687044
  -0.0813401
   0.0153214
   0.0348686
  -0.0544306
 -0.00344251
  -0.0646749
  -0.0518783
   0.0136487
  -0.0546332
   0.0033913
   0.0899817
  -0.0495168
    0.021042
   0.0400587
  -0.0363908
  -0.0210368
  -0.0363591
  -0.0421708
   0.0708843
-0.000803182
  -0.0343856
   0.0617204
  -0.0303167
  -0.0607501
  -0.0189174
   0.0867309
   0.0514345
  -0.0728083
   0.0148665
   -0.116828
   0.0280452
   -0.081546
  -0.0380465
 -0.00420422
   0.0452759
  -0.0229153
   0.0429463
 -0.00407826
  -0.0595103
 -0.00851127
  -0.0496969
  -0.0696985
    0.056576
   0.0570216
   0.0569055
 -0.00346348
   0.0183175
  -0.0197287
  0.00932275
    -0.10281
  -0.0513811
 0.000275088
  -0.0824819
  -0.0478313
   0.0947012
   -0.142191
   0.0321627
  -0.0354816
  -0.0613419
  -0.0609901
  -0.0445486
  -0.0279952
   0.0529832
 -0.00721187
  -0.0657382
  -0.0149357
   -0.135945
   0.0131431
  -0.0394545
  -0.0121327
   -0.011741
   0.0725285
   0.0134591
-0.000184274
 -0.00902379
 -0.00866684
  -0.0362837
  0.00769013
   0.0281384
  -0.0108343
  -0.0502386
  -0.0279537
  0.00361364
   0.0183608
  -0.0975376
   -0.109931
    0.047713
  -0.0345304
  -0.0214351
    0.112623
   0.0529152
  -0.0142628
   -0.014498
  -0.0571146
   0.0720464
  -0.0552099
  -0.0379754
   0.0518327
   -0.162954
 -0.00110921
   -0.042285
  -0.0278611
   0.0368226
  -0.0723121
    0.100805
   0.0737315
  -0.0193353
  -0.0164444
  -0.0377111
  -0.0671039
   0.0230453
   0.0325342
    0.068357
  -0.0393561
  -0.0501705
  -0.0095719
   0.0611734
  -0.0514979
  -0.0146263
   -0.102682
  -0.0146023
   0.0755239
  -0.0153654
  -0.0859555
   0.0588389
  -0.0409329
   0.0396609
  -0.0803737
    0.105316
  -0.0916835
 -0.00155063
   0.0426582
   0.0515995
   -0.117422
  -0.0820975
   0.0698659
   0.0216421
  -0.0595851
   -0.101513
   0.0802686
   0.0379736
   0.0456761
  -0.0442532
    0.058286
  -0.0708295
  -0.0785518
   0.0353935
  -0.0458102
  -0.0913955
   -0.037567
   0.0191998
   0.0111347
  -0.0233648
  -0.0630924
  -0.0240753
 -0.00608632
  -0.0191438
   0.0215308
  -0.0143502
  -0.0539794
   0.0132612
  -0.0110508
   0.0446176
  -0.0541085
    0.111813
   0.0143374
    0.010839
  -0.0900685
  -0.0552614
   0.0312103
  -0.0355215
  -0.0976635
   0.0055108
  -0.0165553
   -0.118759
  -0.0325967
  -0.0142259
   0.0521112
   -0.101232
   0.0604003
  -0.0589018
  -0.0275149
  -0.0184797
  -0.0671278
   -0.114522
   0.0122502
   -0.164359
  -0.0007652
 9.72157e-05
     0.17037
  0.00584665
  -0.0653478
  0.00635289
  -0.0426062
   0.0122884
    0.108275
  -0.0267262
     0.04774
  -0.0321665
   -0.048435
   -0.021585
  -0.0703569
  -0.0138897
  -0.0509095
   0.0399187
  -0.0807472
  -0.0555186
   0.0520802
   0.0340377
   -0.058095
   0.0076965
   -0.137939
   0.0629366
 -0.00823071
   0.0479425
  -0.0352696
  -0.0183457
   0.0100643
  -0.0736222
   0.0161737
    0.106721
   0.0618632
  -0.0146077
  -0.0148089
    0.122262
   -0.033041
  0.00263903
  -0.0244898
  -0.0741459
   0.0341126
   0.0425655
   -0.112486
   0.0633631
