3072 1
  -0.0444167
  -0.0544741
   0.0383583
   0.0566372
  0.00525252
  -0.0228121
   0.0270984
   -0.069037
  -0.0327207
  0.00143933
 -0.00189376
   0.0595421
  -0.0240704
 -0.00250158
   0.0204676
   0.0151576
    0.105426
  -0.0881716
  -0.0232226
  -0.0364948
 0.000671532
   0.0713889
  -0.0301561
  -0.0231787
   0.0442305
  -0.0399578
  -0.0117307
  0.00130825
  -0.0321762
    0.062305
   0.0237446
   -0.015146
   0.0498842
  -0.0702798
  -0.0240045
  -0.0561485
   0.0297729
  -0.0130154
    0.019782
  -0.0105526
  -0.0300723
  -0.0497821
  -0.0595184
  -0.0406908
   0.0213525
  -0.0625798
    0.013166
   0.0458418
   0.0570499
  -0.0214891
  -0.0524781
  0.00784896
  -0.0237727
  -0.0053988
   0.0442292
 0.000144688
  0.00578178
  -0.0630834
   0.0335033
  -0.0264117
   -0.012391
 -0.00320277
   0.0109135
  0.00945623
  -0.0757343
    0.037653
   0.0235257
   0.0436216
  -0.0270123
   0.0285316
   0.0637216
  -0.0123808
  -0.0791066
   0.0489332
  -0.0587418
  -0.0772195
  0.00206901
  -0.0930035
   0.0340876
  0.00461743
  -0.0290342
   0.0298086
   0.0759036
   -0.025269
   0.0414851
 -0.00142379
  -0.0906041
  -0.0271815
  -0.0121201
  0.00601193
   0.0552965
  0.00422796
 -0.00281015
  -0.0198254
   0.0192376
  -0.0100539
   0.0500831
  -0.0121334
   0.0675099
  0.00189866
  -0.0886904
    0.040888
  -0.0653846
    0.001242
   0.0135584
  0.00324644
  0.00855162
  -0.0336309
  -0.0580696
 -0.00782801
   -0.011862
   0.0522916
  -0.0216128
    0.032785
  0.00624433
  0.00462213
   0.0358005
 -0.00244785
   0.0104894
   0.0564019
  -0.0264651
   0.0440723
   0.0442234
  0.00728815
   0.0376225
  -0.0962663
  0.00235773
   0.0499472
   0.0816747
  -0.0184612
  -0.0350856
   0.0025602
  -0.0570549
   0.0785863
  -0.0290992
   0.0193908
    0.031193
  -0.0210133
  0.00019083
    0.028791
   0.0298141
   0.0378421
  -0.0024562
    0.017945
  -0.0230555
 -0.00871691
   0.0138284
 0.000737366
   -0.013362
-5.49215e-05
  -0.0493228
  -0.0395529
  -0.0196637
  0.00114454
  -0.0184219
 -0.00260747
    0.032266
  -0.0445476
 -0.00655663
  0.00205771
   0.0367707
 -0.00321675
  -0.0119516
   -0.048286
  -0.0497744
  0.00468249
   -0.015722
  -0.0842211
  -0.0287342
   0.0109603
  0.00709897
  -0.0532034
   0.0293815
   0.0165052
    0.035932
  -0.0312506
    0.049926
 -0.00600051
  -0.0561424
   0.0303819
  -0.0264091
  -0.0240923
   -0.040945
 -0.00986117
   0.0117365
 -0.00841847
  -0.0634264
  0.00776723
  -0.0765456
  -0.0511034
   0.0506231
   0.0204785
  -0.0438326
   0.0059082
  -0.0364155
  -0.0421968
 -0.00678212
   0.0112775
  -0.0339142
  -0.0201056
   0.0022248
  -0.0420568
 -0.00357137
   -0.110513
 -0.00591909
  -0.0191327
  -0.0720128
   -0.015443
   0.0304472
   0.0123475
  -0.0248917
   0.0454525
   0.0318788
  -0.0225769
   0.0154228
  -0.0786991
  0.00628024
  -0.0535433
    0.067797
  -0.0308384
 -0.00715979
   -0.111961
  -0.0185874
   0.0354123
  0.00406733
  -0.0918708
  0.00150076
  0.00488355
   0.0133566
  -0.0884545
   0.0278151
  -0.0333968
   0.0713734
  -0.0453452
   0.0483426
   -0.062861
   0.0202399
  -0.0541694
  0.00339242
  -0.0350899
  0.00823307
    0.023974
  -0.0211336
   0.0309743
   0.0530584
   0.0244899
  -0.0741448
  -0.0282332
   0.0471111
 0.000223575
  0.00677606
  -0.0382316
   0.0600565
   0.0521783
  -0.0130271
 -0.00065461
   -0.076346
    0.116468
 -0.00993067
   0.0150485
  -0.0224786
   0.0476775
   0.0394351
  -0.0128908
   0.0304333
    0.024117
  -0.0549287
   -0.017055
   0.0510014
  -0.0955932
  -0.0790674
  0.00779542
    0.023291
    -0.02797
  -0.0277932
  -0.0157056
  -0.0601897
    0.025784
  -0.0117347
 -0.00355465
  0.00624679
 -0.00616549
  -0.0376075
  0.00105946
  -0.0202441
  0.00166611
  -0.0538258
   0.0594492
  -0.0527637
   0.0465335
 -0.00751885
   0.0292658
  -0.0494696
  -0.0127715
  -0.0460284
   0.0973457
   0.0118462
    0.032826
  0.00325795
  -0.0643355
   0.0619085
  -0.0251941
  -0.0340891
  -0.0110444
  -0.0214886
  -0.0035713
  -0.0313178
  -0.0121009
  -0.0654413
  -0.0900234
   0.0248213
   0.0429517
  -0.0148548
   0.0375844
  -0.0511769
  -0.0200857
   0.0143971
  0.00946256
 -0.00656112
   0.0392504
    0.048029
  -0.0261612
   0.0512162
  -0.0279208
   0.0011297
  -0.0375741
    0.016551
 -0.00518524
  -0.0203067
 -0.00678077
    0.091461
   0.0368954
 -0.00993726
 -0.00192931
   0.0240828
  -0.0324416
  0.00771922
  -0.0379841
   0.0913876
  -0.0268263
   0.0172908
   0.0259528
   0.0327546
   0.0275839
   0.0641829
   0.0302616
  -0.0102897
    0.002249
  0.00886867
  -0.0255437
  -0.0345989
  0.00787985
  -0.0531167
  -0.0326061
  -0.0160351
  -0.0305279
  -0.0659722
   0.0472093
   0.0190402
  -0.0491707
  -0.0439264
   0.0420303
  -0.0378277
  0.00864904
  -0.0231164
  -0.0140359
  -0.0109787
  -0.0682609
   0.0763381
  -0.0126855
  -0.0401882
   0.0720593
  -0.0323108
 -0.00322038
   0.0426298
 -0.00994461
  -0.0599828
   0.0295791
   0.0260778
   0.0222282
  0.00925865
  -0.0141128
    0.119092
   0.0346414
 -0.00688121
    -0.11572
  -0.0584183
   0.0310612
   0.0429497
   0.0418953
   0.0260773
  0.00270207
    -0.11466
   -0.028543
 -0.00882364
   0.0528211
  -0.0804506
  -0.0491211
   0.0195554
  -0.0496026
  -0.0096525
   0.0199724
   0.0175934
   0.0522337
  -0.0578397
  -0.0196516
   -0.108863
  -0.0273493
  -0.0172774
  -0.0861795
  -0.0446672
 -0.00139686
  0.00909933
  -0.0619337
  -0.0266557
  -0.0222654
  0.00126643
  -0.0718972
  -0.0265645
   0.0740422
   0.0547841
  0.00974234
   0.0557099
  0.00197302
  -0.0259772
 -0.00859637
  -0.0018752
 -0.00954439
  -0.0016589
  0.00148629
  0.00893806
  -0.0103042
  -0.0906971
   0.0609108
  -0.0604654
   -0.009531
    0.081868
   0.0928702
  -0.0364622
   0.0936784
   0.0310585
   0.0603474
   0.0487024
  0.00428989
   0.0797159
  -0.0792679
   0.0139127
  -0.0473914
  -0.0353312
   0.0232584
   0.0319284
  -0.0121396
  -0.0463987
   0.0879275
   0.0169146
  -0.0280835
   0.0450918
 -0.00792352
   0.0800288
 -0.00955872
   0.0186817
  -0.0230248
  0.00917963
  -0.0406691
  -0.0476367
  0.00771446
   0.0121272
 -0.00084812
   0.0649654
   0.0448658
   0.0144547
  -0.0236345
  -0.0203929
   0.0414573
   0.0169264
  -0.0545602
   0.0432227
  -0.0701957
   0.0434434
 -0.00956395
  -0.0415349
  -0.0188427
   0.0137379
   0.0692115
   0.0021795
 -0.00180272
  -0.0109978
  -0.0366803
   0.0258112
    0.064432
  0.00574019
   0.0549311
   0.0450783
 -0.00349241
   0.0817387
  -0.0281035
 0.000320472
   0.0546828
   0.0148816
  -0.0241012
   0.0281458
 -0.00551739
   0.0296182
  -0.0012301
  -0.0478201
  -0.0430633
  -0.0312684
 -0.00716881
  -0.0171257
  -0.0929725
  -0.0697282
  -0.0193034
  -0.0315266
   0.0140327
  -0.0468152
   0.0075544
   0.0244751
   0.0202975
  -0.0311344
  -0.0181274
  -0.0131076
   0.0497036
   0.0145608
  -0.0926216
  -0.0596185
   0.0370759
  -0.0350889
  -0.0189574
   0.0195368
  -0.0401613
  -0.0389607
  -0.0030143
  -0.0433924
   -0.056491
   -0.059576
   -0.020554
  -0.0158185
   0.0704846
-0.000794323
  -0.0360836
  -0.0610209
   0.0248507
   0.0159267
  -0.0390476
  -0.0310675
   0.0157975
  -0.0356227
   0.0273284
   0.0145058
  -0.0236679
   0.0155485
   0.0561922
   0.0470246
   -0.037331
   0.0917319
   0.0221028
 -0.00764894
   0.0682216
  0.00611663
   0.0254996
  -0.0754539
  -0.0343621
  -0.0563824
  0.00381621
   0.0467099
  -0.0286341
 -0.00390939
  -0.0297387
   -0.013725
  -0.0770858
   0.0195391
  -0.0919876
  -0.0707573
   0.0240009
   0.0747862
  -0.0448037
   0.0247348
  0.00729865
   0.0587545
  -0.0115967
  -0.0913396
  0.00785998
 0.000934913
   0.0106204
  -0.0207931
  -0.0714568
  -0.0128174
   0.0472301
  0.00745876
   -0.031869
 -0.00257983
  -0.0117653
  -0.0189937
   0.0336536
   0.0821213
   0.0307904
  -0.0517311
  -0.0408978
  -0.0320498
  -0.0195546
  -0.0965918
  -0.0440388
  -0.0163508
   0.0239151
  -0.0806376
-9.51571e-05
  -0.0340201
   0.0290272
   0.0850708
 -0.00339413
  -0.0208586
 -0.00199305
 -0.00433267
   0.0617644
  0.00377836
   0.0837461
   0.0311974
  -0.0255268
   0.0495897
  -0.0637745
   0.0359496
  -0.0826569
   -0.011944
  -0.0263951
   0.0784457
   0.0543712
  0.00429075
   0.0452756
   0.0424895
   0.0643366
   0.0367831
  -0.0515733
   0.0186912
   0.0304381
    -0.04358
  -0.0979587
    0.108759
   0.0674479
  -0.0265713
   0.0508586
 -0.00603399
 -0.00365412
   0.0768364
  -0.0145043
    0.010839
  -0.0407611
  -0.0378187
  -0.0269285
   0.0342967
 -0.00364247
-0.000286584
  0.00329565
   0.0596963
   0.0185008
   0.0450871
   0.0241786
   0.0157441
  -0.0309167
   0.0422299
  -0.0218751
  -0.0552153
  -0.0166232
  -0.0551889
  -0.0145011
  -0.0197857
    0.039231
     0.10168
  -0.0255888
  -0.0938074
  0.00870846
 -0.00397386
    0.052515
 -0.00323438
  -0.0668617
  -0.0928738
  -0.0186965
  -0.0208443
  -0.0394339
  -0.0425333
 -0.00610177
  -0.0149899
    0.026819
  -0.0531144
   0.0403175
  0.00539578
   0.0144356
 -0.00587262
  0.00124514
   0.0166453
  -0.0361907
  0.00472384
   0.0359458
   0.0149768
  -0.0166036
-0.000902237
  -0.0293889
  -0.0233525
 -0.00206204
    -0.04015
  -0.0630457
   0.0580712
   0.0355107
   0.0434611
   -0.132521
  0.00701878
  -0.0750162
  -0.0568669
   0.0470819
   -0.033415
   0.0383797
    0.019436
  -0.0489118
  0.00168407
 -0.00689624
  -0.0533989
   0.0531148
   0.0115608
   0.0219374
    0.100045
   0.0225699
 -0.00870401
   0.0420557
   0.0494795
 -0.00574102
   0.0136317
  -0.0492066
   0.0217713
  -0.0235619
 -0.00992223
-0.000696888
  -0.0759159
   0.0488125
 -0.00140561
  -0.0355689
  -0.0121936
   -0.033242
-0.000427567
   0.0414681
   -0.057385
  0.00322222
    0.035471
   0.0379293
  -0.0277954
 -0.00392775
 -0.00691139
  -0.0107573
   0.0109373
  0.00359864
  -0.0102605
  -0.0259722
 -0.00146753
 -0.00677516
  -0.0992342
    0.050983
  -0.0453814
   0.0254784
  -0.0754193
  -0.0030412
  -0.0987673
  0.00651193
  -0.0311071
   0.0789691
   0.0122572
   0.0255672
  -0.0406948
  0.00423897
   0.0669212
   0.0345738
  -0.0516868
 -0.00691487
   0.0382901
  -0.0257124
   0.0135737
  -0.0429072
   0.0509406
   0.0581822
 -0.00745369
  -0.0306385
   0.0404674
   0.0609852
  -0.0155778
  -0.0342066
  0.00756636
   -0.021951
 -0.00811406
   0.0425906
  0.00580109
   0.0386184
  -0.0815413
  0.00251531
  -0.0734122
   0.0698756
  -0.0415528
  -0.0983962
  -0.0549938
  -0.0191606
   0.0475294
  -0.0189111
   0.0804302
  -0.0901293
  -0.0447665
   0.0134585
   0.0251114
   0.0381358
 -0.00876721
  0.00910032
   0.0427502
   0.0241683
    0.047966
  -0.0165598
   -0.037942
  -0.0134821
   0.0157497
  -0.0870339
  -0.0794756
   0.0190847
   0.0418661
   0.0410401
   0.0352341
    0.059054
   0.0399566
  -0.0392147
  -0.0154197
   0.0370451
   0.0234547
    0.112676
  0.00501487
   0.0282071
  -0.0147703
  -0.0128819
    0.066955
   0.0923811
  -0.0213664
   0.0161597
  -0.0275946
   0.0253161
   0.0188068
   0.0631768
   0.0456949
   0.0330688
   0.0412571
  -0.0615555
  -0.0460529
   0.0159384
 -0.00269518
  -0.0474338
  -0.0315825
  0.00293445
   -0.032114
   0.0328477
   0.0151403
  -0.0410512
   0.0488445
   0.0275664
   0.0429733
   0.0680151
  -0.0686558
  -0.0879897
   -0.103952
  -0.0356537
 -0.00876219
  -0.0191399
  -0.0305708
  -0.0163543
  0.00121787
  -0.0273391
-0.000504861
  -0.0650886
   0.0372734
  -0.0450222
   0.0391599
  -0.0242232
 -0.00945894
    0.062277
   0.0992503
  -0.0220444
  -0.0183627
   0.0075807
   0.0788013
  -0.0119683
 -0.00635633
 -0.00594436
  -0.0249809
  -0.0808343
  -0.0048293
     0.02914
   0.0234993
  -0.0167881
   0.0300499
  -0.0498414
  -0.0930647
  -0.0385107
   0.0168783
  -0.0675187
   0.0779982
  -0.0247245
   0.0433438
  -0.0375927
  -0.0230897
   0.0486813
  -0.0649547
  0.00353729
 -0.00356754
  -0.0756818
   0.0230036
  -0.0233091
   0.0234435
  0.00472777
  -0.0331049
   -0.046143
   0.0765319
   0.0247313
   -0.047785
  -0.0117257
   0.0220843
  -0.0106228
  -0.0366274
    0.054395
  0.00823642
     0.03459
  0.00432443
   0.0349456
  -0.0196514
 -0.00917624
  -0.0178141
  -0.0378643
  -0.0011585
   0.0293257
  -0.0379801
  -0.0319173
   0.0246972
  -0.0139394
   0.0437078
  -0.0381848
 -0.00761273
  -0.0147812
   0.0026415
  0.00415547
  -0.0776175
  0.00744416
  -0.0738036
   0.0786467
   0.0105055
   0.0343545
   0.0494637
   0.0241159
   0.0107635
   0.0779696
  -0.0845788
   0.0304351
    0.015192
 -0.00947928
   0.0265471
   0.0376453
  -0.0179273
  0.00838997
  0.00806504
   0.0165929
   -0.030409
   0.0446933
   0.0263641
   0.0163834
  -0.0197825
    0.031787
   0.0429458
   0.0280135
  0.00397211
   0.0946632
   0.0776652
  -0.0109697
  0.00252361
  -0.0558224
  -0.0290831
  -0.0590173
  0.00752576
  -0.0318752
   0.0517365
  -0.0918358
 -0.00971504
   0.0302569
   0.0161762
  -0.0898501
 -0.00593446
   0.0118259
  -0.0713297
  -0.0247755
   0.0101411
  -0.0223061
  -0.0504818
  -0.0076961
   0.0362365
  -0.0766531
  -0.0162228
  -0.0341903
   0.0466163
  -0.0479175
    0.011592
   0.0127525
  -0.0114687
   0.0773192
  -0.0520631
  -0.0299011
 -0.00616307
   0.0257444
 -0.00282544
   0.0379105
 -0.00919207
-0.000569425
    0.045262
  -0.0637701
  -0.0416666
    0.021777
  -0.0373052
  0.00300291
  -0.0191099
 -0.00790962
   0.0639127
 -0.00832718
  -0.0110045
   0.0111586
   0.0384145
  -0.0328875
   0.0019677
   0.0226642
   0.0438324
   0.0400726
  -0.0168851
  0.00270145
 -0.00949517
   0.0227711
   0.0732226
  -0.0184823
    0.019796
   0.0382372
   0.0107027
   0.0288122
    0.021329
  -0.0732559
   0.0199044
  -0.0222407
  -0.0258273
  0.00522834
  -0.0391515
   0.0344167
 -0.00836108
 -0.00885133
   0.0134109
   -0.096789
  0.00864168
   0.0261749
   -0.068073
  0.00693508
   0.0357097
   0.0288905
  -0.0933814
  -0.0497907
   0.0903258
  -0.0648398
  -0.0569498
   0.0435413
  0.00917477
    0.012254
   0.0420347
  -0.0915635
   0.0584331
   0.0110263
   0.0615942
   0.0579649
  -0.0619885
   0.0546823
  0.00346718
  -0.0203385
  -0.0105146
 -0.00677764
  0.00583012
  -0.0374395
  -0.0684187
    0.114824
  -0.0324637
   0.0246852
  -0.0372154
  -0.0185948
   0.0739367
   0.0478298
  -0.0335755
   0.0381102
  -0.0690614
  -0.0485366
  -0.0645374
  0.00364876
  0.00733792
  -0.0554341
   -0.063365
   0.0140963
  0.00301028
   0.0510152
  -0.0313836
   0.0336003
  -0.0271997
   0.0900265
   0.0149829
    0.056505
  -0.0180472
  -0.0240092
   -0.014429
  0.00357742
  -0.0822771
   0.0505993
 -0.00468374
  -0.0537239
   0.0488613
  0.00290514
   0.0466116
  -0.0295466
  -0.0182253
   0.0239312
   0.0874622
 -0.00412254
   0.0447371
  0.00967958
   0.0384531
  -0.0424987
 -0.00769891
   0.0586672
  -0.0151404
   0.0531763
  0.00261351
  0.00912989
 -0.00401534
   0.0284332
  -0.0619374
  -0.0224833
   0.0284238
 -0.00431915
   0.0110298
  0.00167721
    0.064897
  -0.0608466
  -0.0140357
 -0.00321151
   0.0175108
  -0.0399915
  -0.0145565
  -0.0103456
   0.0609093
 -0.00632725
   0.0443274
  -0.0327595
 -0.00785197
   0.0178427
  0.00217113
   0.0437626
   -0.025592
   -0.116654
   -0.056604
  -0.0254176
-0.000572977
   0.0142232
   0.0114199
   0.0379246
   0.0293783
 -0.00359842
   0.0407435
  -0.0138039
   0.0274422
  -0.0400564
  0.00109868
   0.0213058
  -0.0239896
  -0.0416278
   0.0215282
   0.0828831
   0.0259951
 -0.00588276
   0.0222643
  -0.0729192
   0.0137911
  -0.0272685
   0.0186879
   0.0398159
  -0.0169302
   0.0395922
  -0.0245728
   0.0168042
   0.0017078
  0.00509996
  -0.0155771
   0.0396647
  -0.0550871
   -0.056125
-0.000418505
   0.0372232
  -0.0018793
   -0.027675
  -0.0179119
   0.0727277
   0.0096073
  -0.0934034
   -0.056787
  -0.0634413
   0.0653892
  -0.0656348
 -0.00902094
  -0.0434151
   0.0593136
  -0.0190871
   0.0736436
   0.0558646
   0.0160546
   -0.033424
   0.0505686
   0.0355863
 -0.00246489
   0.0614184
    0.016495
  -0.0124936
   0.0129512
   0.0460545
  -0.0111392
 -0.00836209
   -0.060735
   0.0804143
   0.0172349
   0.0192558
   0.0297626
  0.00715972
   0.0144841
  -0.0382692
  -0.0119197
  -0.0530683
  -0.0182696
  -0.0529926
 -0.00485243
  -0.0501574
  -0.0103594
    0.133431
   0.0308939
  -0.0252064
  0.00112447
    0.101588
  0.00881132
   0.0532024
-0.000686513
  -0.0610917
  -0.0242729
  -0.0414491
  -0.0617325
  -0.0707307
  0.00719533
   0.0530395
  -0.0303714
 -0.00116164
  -0.0680937
  -0.0128758
  -0.0264822
  -0.0380684
   0.0395673
  -0.0666601
  -0.0853711
   0.0268563
   0.0665044
   0.0168361
 -0.00852225
  -0.0347097
   0.0216495
  -0.0289388
   0.0173095
    -0.01893
   -0.019036
 -0.00158946
    0.030779
     0.10035
  -0.0234993
  -0.0692373
   0.0502121
   0.0179592
  -0.0639819
  -0.0562975
    0.093959
  0.00393342
  0.00731083
   0.0647494
 0.000558232
   0.0477057
  -0.0480997
   -0.097919
  0.00317594
  0.00158139
   -0.022447
  0.00578256
  0.00135407
   0.0685987
  0.00864881
  0.00842124
   0.0226291
  0.00849198
  -0.0112012
  0.00441736
 -0.00874479
   0.0181315
 -0.00753406
  0.00703406
   0.0246787
  -0.0398578
 -0.00966882
   -0.039284
    0.014855
 -0.00528357
    0.016592
  -0.0188498
   0.0610098
  -0.0456019
  -0.0010248
  -0.0177374
   0.0129483
   0.0256997
   0.0484735
  -0.0389302
   0.0594202
  -0.0187966
   0.0487904
   0.0149491
   0.0286736
  -0.0344278
   0.0291185
  0.00923324
   0.0377996
  -0.0140726
   0.0457708
   0.0386692
  -0.0335183
   0.0573669
   0.0259442
   0.0426317
  -0.0194704
  -0.0194353
  -0.0348861
  -0.0334281
  -0.0474793
  -0.0788557
   0.0302528
 -0.00964015
  -0.0118272
   0.0607339
   0.0410353
  -0.0669842
  -0.0745489
   0.0708767
   0.0787686
   -0.094749
   0.0396502
   0.0485064
  -0.0347759
  -0.0112382
  -0.0168352
   0.0351152
   0.0692019
   0.0156871
   0.0715699
  -0.0350961
  -0.0475371
  -0.0567789
  -0.0688862
  -0.0706615
   0.0817031
   0.0245508
  -0.0946281
  -0.0302941
   0.0121489
  -0.0180948
 -0.00492635
  0.00889155
 -0.00553226
 -0.00919779
  -0.0293052
   0.0423482
   0.0189691
  -0.0315224
  -0.0720239
   0.0443082
   0.0334809
 -0.00520152
   0.0680548
  0.00531257
  -0.0060307
    0.104987
   -0.031933
   -0.122034
   -0.109625
   0.0123654
   0.0581329
   0.0503026
   0.0108453
   0.0574037
  0.00261403
  -0.0279636
 0.000130458
   0.0317025
   0.0127502
    0.013581
  0.00850973
   0.0384227
    0.021613
   0.0438551
  -0.0781162
  -0.0689894
   0.0244915
   0.0254583
  -0.0067329
  -0.0153228
  -0.0472705
    0.039821
  -0.0364903
   -0.040885
  0.00449708
    0.129411
  0.00581449
  -0.0367672
  -0.0493924
  -0.0352924
   0.0525839
-0.000177593
  -0.0879843
    0.021814
  -0.0377279
   0.0494235
  -0.0196533
   0.0357307
  -0.0726542
  -0.0481515
   0.0800214
 -0.00266803
  -0.0734557
  -0.0207469
  -0.0352751
  -0.0187199
   0.0316435
   0.0154846
  0.00509488
   0.0206858
  0.00748146
   0.0190832
 -0.00821491
   0.0338873
  0.00377993
  0.00145406
  -0.0123435
   -0.014368
  -0.0542824
   0.0696164
   0.0806241
  -0.0139123
  0.00868764
   0.0566696
   0.0494926
  -0.0201145
   0.0104592
   0.0320175
   0.0735715
  -0.0292006
  0.00900541
   0.0541235
   0.0235835
 -0.00980517
  -0.0497383
 -0.00550737
   0.0296339
   0.0341842
   0.0581132
  -0.0571189
  -0.0461053
-8.82925e-05
 -0.00505772
   0.0996106
  -0.0577459
  -0.0371991
   0.0395828
 -0.00517031
    0.140699
   -0.146995
   0.0251857
   0.0482187
  0.00566109
  -0.0533723
   0.0281422
 -0.00926908
   0.0124157
   -0.080508
  -0.0165456
  -0.0505263
    0.028157
  -0.0939312
   0.0209025
  -0.0306827
   0.0185513
   0.0103258
  -0.0101427
  -0.0360747
  -0.0545741
   0.0389354
   0.0257652
  0.00390347
    0.060068
  -0.0212288
  -0.0181246
   0.0319979
  -0.0467683
  -0.0127386
    0.021593
  -0.0268126
   0.0224425
   0.0336992
  -0.0541664
   0.0424457
   0.0179266
   0.0258975
  -0.0224818
  -0.0541605
 -0.00110543
  -0.0117052
   0.0265683
    0.110287
   0.0432862
  -0.0192417
       0.036
 -0.00850106
  -0.0590954
  0.00927922
  0.00141397
  -0.0498254
    0.105289
   0.0503306
    0.010482
    0.038429
   0.0902604
  -0.0770363
   0.0413303
  -0.0214269
   0.0708095
  -0.0481054
  -0.0114959
    0.012932
  -0.0432142
   0.0235393
   0.0531087
  -0.0492185
   0.0501423
   0.0170071
  -0.0257541
   0.0717342
  0.00865891
 -0.00987421
  0.00794158
   0.0409911
  -0.0222699
   0.0362546
  0.00541172
  -0.0122829
   0.0165468
  -0.0284548
   0.0407267
  -0.0304849
  0.00993217
  -0.0256541
  -0.0231574
  -0.0271801
   0.0346127
   0.0219479
   -0.106987
  -0.0524703
  -0.0561641
  -0.0601465
  -0.0259291
   0.0200035
 -0.00458855
  0.00615272
  0.00404477
  -0.0148663
   -0.039908
  -0.0108039
  0.00558383
   0.0232894
   0.0198381
    0.047965
   0.0681888
  -0.0212456
 -0.00226726
  -0.0174205
   -0.027056
   0.0431183
  -0.0170306
 -0.00504578
   0.0340181
  -0.0183058
  -0.0324308
   0.0148697
 -0.00305963
   0.0830048
   0.0184828
  -0.0382275
    0.048984
  -0.0243885
   0.0134011
  0.00488571
  -0.0324801
   0.0163949
   0.0300251
   0.0354744
  0.00219943
  -0.0109227
   0.0267877
  -0.0299431
  -0.0524494
   0.0134913
 -0.00580527
   0.0532916
 1.26223e-05
   0.0785718
   0.0199803
  -0.0139466
  0.00579682
  -0.0414378
  -0.0228519
  -0.0613331
  -0.0132202
  -0.0146627
   0.0392781
   0.0122032
  -0.0269074
  -0.0542087
  0.00615966
   0.0803219
   0.0278448
  -0.0462444
   0.0238764
   0.0218027
   0.0245185
   0.0298922
  -0.0293976
  0.00982255
   0.0331352
 -0.00795586
  -0.0352288
    0.016843
  -0.0244531
   0.0552883
   -0.023403
-0.000628952
  0.00508341
  -0.0387254
  -0.0228855
    0.039324
  -0.0120763
  0.00214856
   0.0037049
  -0.0314914
   0.0214211
  -0.0544574
   0.0397521
  -0.0409916
  -0.0469726
   0.0600332
  -0.0438835
  -0.0322174
   0.0976937
 -0.00683606
  -0.0832024
   0.0581899
   0.0696377
  -0.0344862
  -0.0361066
  -0.0333091
  -0.0450973
 -0.00352176
  -0.0553774
 -0.00588603
  -0.0270276
   0.0544329
  -0.0257213
  -0.0251595
   0.0700689
   0.0249885
  -0.0678397
  -0.0272953
   0.0193567
  -0.0537857
    0.054693
  -0.0176108
  0.00430851
    0.078314
   0.0956687
   0.0373501
 -0.00480644
   -0.127819
   0.0657076
  -0.0495501
  -0.0933905
   0.0274425
  -0.0289309
  0.00861378
  -0.0176704
  -0.0742843
  -0.0256974
 -0.00400509
   -0.043328
   -0.039607
  -0.0136401
  -0.0196009
  -0.0220771
  -0.0725368
  -0.0051305
   0.0326142
   0.0548182
  -0.0540993
   -0.035774
  -0.0331603
  -0.0309483
   -0.109355
  -0.0998275
 -0.00269294
   0.0165539
  0.00781944
  -0.0188009
    0.115948
   0.0812397
   -0.103956
   0.0270868
 -0.00471097
   0.0688704
  -0.0569449
   -0.031114
  -0.0287888
  -0.0147963
   0.0583977
  -0.0169091
  -0.0211056
 -0.00554154
   0.0668837
    0.123797
  -0.0290268
  -0.0632817
  -0.0269636
  -0.0176559
 -0.00203077
  0.00739228
   0.0448671
 -0.00679993
   0.0172519
   0.0630831
  -0.0800084
  -0.0571339
  -0.0168332
  -0.0371761
   0.0219908
   0.0248067
 0.000309375
   0.0876032
   0.0146335
  -0.0225671
  -0.0142426
    0.109158
  0.00634533
  -0.0221037
   0.0229512
  -0.0765245
  -0.0164732
  -0.0629319
   0.0417259
  -0.0340061
   0.0315738
 -0.00322638
   -0.026358
  0.00233406
  -0.0242394
  -0.0659832
   0.0529608
   0.0195694
    0.044631
   0.0014418
  -0.0287341
   0.0718195
  -0.0342252
   0.0276324
  0.00388868
  0.00716026
  -0.0474854
  -0.0013951
   0.0342622
   0.0350195
  -0.0329636
  -0.0119409
  0.00439382
  -0.0579726
  -0.0141552
   0.0206994
  -0.0244762
  -0.0656118
      0.0067
   0.0259953
 -0.00574705
  -0.0558298
   0.0310968
  -0.0201795
  -0.0367745
  -0.0895682
 0.000629292
  -0.0208559
  0.00884954
  0.00191407
   0.0488498
  -0.0704282
 0.000840641
   0.0338369
  0.00872541
  -0.0384454
   0.0403173
  -0.0060225
  -0.0299673
   0.0362243
  -0.0485941
  -0.0054278
   0.0473361
   0.0124452
  -0.0141833
   0.0509846
   0.0150859
   0.0248791
    0.014846
   -0.010294
  -0.0140502
  -0.0621101
  -0.0367174
  -0.0804936
  0.00128432
  -0.0763219
 0.000610005
 -0.00145996
   0.0532907
  -0.0402148
   0.0390695
   -0.027574
  0.00129718
  -0.0445656
   -0.113065
 -0.00770858
   0.0508237
  -0.0360028
   0.0808452
  -0.0720577
  0.00231196
   0.0167985
    0.040946
   0.0429162
  -0.0593581
 -0.00491797
   -0.039066
  -0.0862762
   0.0189632
    0.042906
   0.0147583
   -0.077955
   0.0320439
  -0.0313945
  -0.0024944
   0.0508826
 -0.00386184
    0.067633
  -0.0341626
  -0.0085713
  -0.0723864
  -0.0182481
   0.0280475
   0.0621445
   0.0198606
  -0.0588051
   0.0326881
  -0.0608119
 -0.00145761
   0.0544369
   -0.013334
   0.0140691
   0.0225695
  -0.0953648
  0.00918295
   0.0667751
  -0.0318261
  -0.0195322
   0.0473597
    0.019183
   0.0496287
  -0.0756436
   0.0636215
   -0.023762
  0.00517647
   0.0261978
    0.047682
   0.0141242
   0.0225126
  -0.0107679
   0.0300292
  -0.0194007
  -0.0647104
   0.0169343
  0.00969614
  -0.0102891
   0.0281283
   0.0145052
  -0.0127592
  0.00151736
   0.0744048
   0.0306476
  -0.0131548
  -0.0237717
   0.0128688
  -0.0520842
   -0.086254
   0.0023768
  -0.0514002
  -0.0363934
-0.000483579
  -0.0147005
 -0.00317718
   0.0464576
  -0.0030915
   0.0328257
  -0.0208563
  -0.0607323
  -0.0859283
  -0.0245728
   0.0224744
  -0.0316585
  -0.0614601
  0.00954575
  0.00611676
   0.0233144
  -0.0163086
  -0.0128716
   0.0286225
  -0.0100056
   0.0159377
  0.00133844
   0.0542943
   0.0647736
  -0.0196486
  -0.0271956
  -0.0327782
  -0.0110156
   0.0174016
   0.0891424
  -0.0316411
  -0.0973867
   0.0131861
  -0.0466035
  -0.0383374
   0.0365548
   0.0206512
  -0.0297395
   0.0477951
  -0.0152191
    0.014143
    -0.07566
-0.000238267
   0.0776223
  -0.0065894
-0.000523723
   0.0144581
   0.0186989
   0.0138774
   0.0216567
  -0.0408666
  -0.0240218
  -0.0469488
   0.0224278
  0.00501885
   0.0123098
  0.00384966
  -0.0618174
  -0.0209967
   0.0271973
  -0.0115867
  -0.0704194
  -0.0417441
   0.0344735
  0.00635996
   0.0409751
 -0.00314723
   0.0150294
 -0.00207288
 -0.00530733
 -0.00173882
  -0.0602215
   -0.039285
   0.0483319
  -0.0560008
 -0.00235204
 -0.00977999
  -0.0479324
   0.0335198
  -0.0233061
  -0.0100697
 -0.00815318
 -0.00680076
   0.0425241
 -0.00837426
  -0.0884585
  -0.0261079
  0.00474419
  -0.0917232
   0.0193271
   0.0314989
  -0.0129244
  -0.0428044
 -0.00907812
 -0.00257289
   0.0311549
   -0.142255
  -0.0235962
    0.052033
   0.0279374
    0.030054
 0.000213139
  -0.0429867
   0.0103731
   0.0293347
  -0.0809982
  0.00302273
  -0.0226987
   0.0452074
 -0.00918862
   0.0162856
  -0.0198849
   0.0172408
  0.00822216
  -0.0297637
 -0.00994241
  -0.0168638
   0.0211226
  -0.0400064
  -0.0742343
   0.0103127
  -0.0168892
   -0.042603
  -0.0121545
   0.0022143
   0.0343792
  -0.0174988
  0.00559502
  -0.0592347
  0.00231999
    0.013895
   0.0638003
    0.010068
  -0.0380957
  -0.0133184
  -0.0620839
   0.0308692
   -0.010967
  -0.0426056
   0.0353033
 -0.00647096
   0.0329619
  0.00974701
 -0.00782078
  -0.0513982
   0.0288301
 -0.00525391
   0.0319704
  -0.0131744
   0.0242644
  0.00327967
   0.0396692
   0.0250044
 -0.00599214
  -0.0318116
  -0.0160936
   0.0225625
 -0.00617951
 -0.00964321
 -4.3081e-05
  -0.0106588
   0.0166881
 -0.00198066
   0.0299626
   0.0061156
 0.000219067
  -0.0388547
  -0.0316242
   0.0434646
   -0.023716
   0.0471385
   -0.062477
   -0.023661
   0.0491789
   0.0522204
   0.0106137
  -0.0277376
   0.0186812
    0.054937
  -0.0228967
  -0.0415422
   0.0134925
  -0.0380337
   0.0967289
  -0.0156182
  -0.0108079
   0.0647967
   0.0274491
  -0.0212353
  -0.0316011
  -0.0284324
  -0.0718871
  0.00453414
    0.073466
   0.0726533
   0.0435022
   0.0124029
   0.0462928
  -0.0474615
 -0.00638475
  -0.0201975
    0.022461
  -0.0330218
  -0.0159981
   0.0132857
  -0.0363582
   -0.025746
  -0.0546608
 -0.00834844
   0.0170823
   0.0798303
  -0.0060198
  0.00522934
   0.0190635
   0.0812341
   0.0347523
   0.0461572
   0.0201055
   0.0888047
   0.0541409
  -0.0646182
   0.0238185
   0.0758171
 -0.00643184
   0.0196234
   0.0263438
    0.060765
   0.0181917
   0.0685837
   0.0389093
   0.0365987
  -0.0533587
   0.0298112
  -0.0113025
   0.0577336
   0.0388636
 -0.00937408
  0.00800612
   0.0110448
   0.0095398
  0.00118068
   0.0166398
   0.0123245
 -0.00370478
  -0.0198572
   0.0321281
  -0.0117166
   0.0305949
  -0.0388196
 -0.00745771
  -0.0294145
  -0.0142895
   0.0610183
 -0.00286886
   0.0299523
  -0.0214539
   -0.119903
  -0.0404208
   0.0391967
   0.0424468
  -0.0513553
  -0.0581438
   0.0236466
  0.00697034
  -0.0121634
  -0.0140606
  -0.0375026
  -0.0255312
   0.0374387
   0.0140532
   0.0498861
  -0.0168272
  -0.0123023
   0.0211979
   0.0311225
   0.0508396
  -0.0292562
   0.0641535
  -0.0556662
   0.0266908
 -0.00312304
  -0.0380562
   0.0364812
  -0.0704668
  -0.0162424
 -0.00145363
  -0.0733051
   0.0753501
  -0.0189051
  -0.0139833
 -0.00853637
  -0.0277157
  -0.0365342
    0.025006
   -0.090798
  -0.0316337
  -0.0346287
    0.011696
  0.00833796
   -0.017363
  -0.0615266
  -0.0544204
   0.0661409
   0.0138667
    0.036953
  -0.0315236
   0.0440767
   0.0110219
   0.0564451
  -0.0172042
  -0.0122922
  -0.0565102
  -0.0147398
   0.0194074
   0.0148685
   -0.078578
   0.0289823
   0.0144097
   0.0601974
  -0.0937188
  -0.0188712
    0.018383
   0.0654216
   0.0239835
   0.0614321
   0.0048055
   0.0127845
  -0.0497053
  -0.0245404
     0.03852
  -0.0439996
  -0.0648578
  -0.0383101
   0.0102433
 -0.00769596
   0.0576412
  -0.0389383
  -0.0203426
  -0.0378585
 -0.00829655
  0.00282145
  -0.0800862
  -0.0279951
    0.059721
  -0.0432192
   0.0432593
  -0.0611592
  -0.0477027
   0.0338605
  -0.0965099
   0.0623268
  -0.0938254
   -0.010316
 -0.00238151
   0.0206581
  -0.0587478
  0.00402081
   -0.022725
   0.0180823
   0.0234181
   0.0637844
  -0.0170298
  -0.0626849
  -0.0169419
   0.0328889
 -0.00993336
-0.000326611
   0.0132626
   0.0042717
  -0.0632609
   0.0175507
   0.0973314
   0.0106777
   0.0576851
 -0.00256917
   -0.036942
   0.0286236
    0.050934
  -0.0601925
   0.0330641
  -0.0484452
  -0.0576248
 -0.00392949
  0.00912117
   0.0393386
  0.00835038
   0.0380505
   0.0205958
  -0.0446314
  -0.0293497
  -0.0167182
  -0.0126825
   0.0180353
   0.0186147
   0.0899468
   -0.062164
  -0.0430473
   0.0654628
  -0.0377177
  -0.0190182
  -0.0143863
  -0.0176436
   0.0822152
   0.0517612
   0.0578252
   0.0171216
   -0.045438
   0.0210136
    0.051214
  0.00189697
   -0.034802
  -0.0639697
   0.0016333
  -0.0236312
  -0.0695355
   0.0207763
   0.0111486
  -0.0428352
   0.0207718
  -0.0323825
  -0.0142919
  -0.0184572
   0.0359985
   0.0205865
  -0.0354818
 0.000488864
   0.0393955
   0.0673119
 0.000582016
  0.00287976
  -0.0178014
   0.0289616
  -0.0345146
  -0.0670984
  0.00398711
  0.00849908
    0.060534
   0.0224049
  -0.0558792
   0.0265365
  -0.0343874
  -0.0408702
  -0.0142414
   -0.105564
   0.0456809
  -0.0186228
 -0.00441935
   0.0749184
   0.0306746
   -0.028004
  -0.0205739
  -0.0259038
  -0.0572452
  -0.0658061
   0.0264869
   0.0388545
  -0.0690194
   0.0267357
   0.0128572
  -0.0127671
  -0.0241866
  -0.0280653
    0.029273
  -0.0237727
   0.0700004
  -0.0352186
  -0.0133837
   0.0115247
  -0.0652498
   0.0487487
   0.0387301
 -0.00227049
  -0.0627452
   0.0232591
      0.0779
 -0.00447114
   0.0220684
   0.0194106
   0.0258382
   0.0207597
   0.0297164
  0.00160693
 -0.00746336
  -0.0681308
   0.0377449
  -0.0162215
   0.0935357
 -0.00522979
   0.0230042
  -0.0260614
   0.0196051
   0.0141881
  -0.0177419
   -0.054039
  -0.0397892
   0.0618691
   0.0549843
 -0.00249802
  -0.0147357
  -0.0536235
  -0.0554827
  -0.0101073
   0.0368428
  -0.0526033
   0.0406381
   0.0116144
   0.0307053
  -0.0364483
  -0.0904161
   0.0666424
 -0.00112484
   0.0341677
   0.0238591
  -0.0106875
   0.0314028
   0.0590863
   0.0275005
  0.00862679
   0.0109028
  -0.0525902
  -0.0329929
  -0.0299985
 -0.00962188
 -0.00883175
   0.0435095
  -0.0740408
   0.0341708
 -0.00634113
   0.0136459
 0.000863608
 -0.00263719
  0.00109936
  -0.0107247
   0.0467086
   0.0554262
  -0.0500687
  -0.0566833
 -0.00611343
-0.000359347
   0.0210823
  -0.0106511
 -0.00128975
  -0.0643998
   0.0480659
  -0.0144026
   0.0728943
   0.0448384
  -0.0375001
  -0.0343208
  -0.0113625
  0.00729994
  -0.0630167
   0.0203221
   0.0874867
  -0.0543726
   0.0140203
  -0.0371157
   0.0538487
  0.00325645
   0.0190066
   0.0350258
   0.0473727
  -0.0146144
  0.00616186
   0.0665407
   0.0292868
   -0.143071
  -0.0866814
      0.0128
   0.0117326
   0.0419043
  0.00231352
    0.046261
-0.000413563
  -0.0196722
   0.0122594
   0.0103733
 -0.00409649
  -0.0144799
   0.0925612
   0.0666727
  -0.0130258
  -0.0293476
  -0.0325746
   0.0239654
  -0.0260812
   0.0303295
   0.0895715
   0.0882291
  -0.0267342
  -0.0312689
  -0.0119229
  -0.0455497
  -0.0216834
   0.0280745
   0.0790635
  -0.0185355
 -0.00479105
   0.0361681
   0.0188143
   0.0375248
  0.00195801
  -0.0486219
  -0.0799512
 -0.00162573
    0.027197
   0.0543485
    -0.05578
   0.0276077
   0.0740799
 -0.00257862
   0.0294011
  0.00987109
  -0.0306912
   -0.040712
   0.0833267
  -0.0244554
   0.0779869
  -0.0582326
  0.00598991
  -0.0218671
     0.04903
   0.0197218
  -0.0320831
  -0.0269168
   0.0224183
  -0.0391082
  -0.0647884
  -0.0485974
  -0.0559347
  -0.0241713
   0.0698375
 -0.00992144
 -0.00419012
   0.0158234
  -0.0195882
  -0.0311356
  -0.0619482
   0.0768837
 -0.00456511
   0.0406647
   0.0166862
   0.0371741
   0.0076003
   0.0794386
   0.0159141
   0.0134025
   0.0252963
   0.0751976
  -0.0260745
   0.0572209
   0.0534731
  -0.0297208
   0.0104054
   0.0260446
   0.0877905
    0.013511
  -0.0139866
   0.0762107
 -0.00625212
   0.0129637
   0.0328768
  -0.0194104
   0.0102837
  -0.0603278
  -0.0288002
   0.0145196
  -0.0347387
  -0.0581608
  -0.0787812
  -0.0953327
   0.0388179
   0.0110322
   0.0583376
  0.00345387
   0.0676801
-0.000814906
  0.00365631
   0.0028243
   0.0313932
-0.000525994
   0.0816845
   0.0235469
 -0.00635218
   0.0164374
  -0.0143933
   0.0604757
  -0.0156876
  -0.0609365
  -0.0159717
   0.0146835
  0.00355028
   0.0802208
   0.0546927
   0.0699324
  -0.0293698
   0.0535302
  -0.0170009
  -0.0347972
  -0.0329124
  -0.0578558
   0.0192038
 -0.00127243
  -0.0180064
  -0.0360765
  -0.0371334
    0.015969
  -0.0126852
    0.038856
   0.0351804
    0.038667
   -0.022107
  -0.0118038
  -0.0309657
   0.0167124
  -0.0469672
   0.0823431
  -0.0429582
  -0.0901771
    0.071292
    0.041764
   -0.018083
  -0.0353928
  -0.0362694
   0.0451881
 -0.00948671
   0.0271772
  -0.0264932
   0.0221218
    0.059617
  -0.0445225
  0.00812616
 -0.00292888
 -0.00127225
   0.0139286
    0.031795
    0.112688
   0.0351493
  -0.0231433
  -0.0458716
   0.0146039
  -0.0172963
  -0.0544048
   0.0123495
   -0.163329
   0.0417627
  -0.0391379
   0.0119356
   0.0653041
   0.0867517
    0.043123
  -0.0309555
   0.0677563
  -0.0753295
   0.0170011
 -0.00572696
   0.0114034
   0.0103711
   0.0700911
  -0.0390187
-0.000122505
  -0.0241321
  0.00762264
   0.0765507
   0.0907906
  -0.0169683
   0.0244119
   0.0301723
  -0.0751293
  -0.0463146
   0.0336175
-1.20606e-06
 0.000185815
   0.0259685
  -0.0312276
  -0.0371706
    0.014284
  -0.0380786
 -0.00124749
  -0.0314529
   0.0359485
  -0.0321389
  -0.0170977
  -0.0161294
   0.0222396
  -0.0227727
   0.0174092
   -0.030533
 -0.00980891
  -0.0594961
   0.0197983
  -0.0408387
   0.0254776
  0.00792063
 -0.00510047
  -0.0575454
  -0.0217098
   0.0930799
   0.0277075
   0.0769012
   0.0152796
  -0.0519957
-0.000993161
   0.0386056
   0.0223143
   0.0240127
  -0.0142944
   0.0276837
    0.023373
  -0.0119991
  -0.0266977
  -0.0384289
  0.00106206
  0.00137185
 -0.00204364
  -0.0853877
  -0.0343519
 -0.00922152
    0.030611
   0.0781707
  -0.0145884
   0.0119473
   0.0459421
   0.0332915
  -0.0182536
   -0.016476
   0.0160712
   0.0131777
  -0.0356445
  -0.0246974
  -0.0324346
   0.0217734
  -0.0375222
  -0.0177489
   -0.115815
   0.0186345
 -0.00539016
 -0.00895259
  -0.0254063
    0.022867
  -0.0366319
   0.0362018
  0.00112642
   0.0888396
   0.0147732
    0.021566
  -0.0737857
   -0.123845
-4.21782e-05
  -0.0328803
 -0.00927484
   0.0124313
  -0.0077396
   0.0116332
   0.0602803
  -0.0619279
  -0.0286656
 -0.00303055
  -0.0623384
  -0.0705272
  -0.0307336
   0.0182044
   -0.091771
  -0.0451737
  -0.0358924
  -0.0518797
   -0.010296
  -0.0389539
   0.0136335
   0.0831826
  0.00657578
 0.000859499
    0.035287
  0.00954783
  -0.0404402
   -0.023206
 -0.00270694
   0.0143499
 -0.00828688
 -0.00881961
  0.00547372
  -0.0206312
   0.0412861
  -0.0736515
  -0.0353894
  -0.0708731
    0.011204
   0.0635849
  -0.0308352
  0.00703035
  -0.0963449
  -0.0305066
    0.059894
   0.0257135
 -0.00508634
  -0.0994273
 -0.00438932
  -0.0428291
 -0.00179814
  -0.0645629
   0.0244054
  -0.0506098
   0.0122566
  -0.0390613
   0.0256616
  -0.0493772
-0.000698057
 -0.00810327
   0.0359367
   0.0024362
  -0.0459858
   0.0674309
    0.013423
  -0.0227138
  -0.0222981
   0.0221552
  -0.0201904
-0.000255091
  -0.0440842
  -0.0133488
  -0.0581315
   -0.020101
  -0.0568103
  -0.0136074
  -0.0010631
   0.0164709
 -0.00890237
  -0.0112067
  -0.0336021
  -0.0845178
   0.0717305
  -0.0050813
   0.0080589
   0.0283486
   0.0208593
    0.011375
  -0.0464418
  -0.0140957
  0.00150056
 -0.00614277
  -0.0655519
  -0.0324784
   0.0323032
  -0.0761629
  -0.0442224
  -0.0879135
 -0.00314831
   0.0137306
  -0.0322641
   0.0437181
   -0.031634
  -0.0352374
  -0.0432797
   0.0590383
  -0.0665167
  0.00828979
  -0.0138888
  -0.0468085
    0.048652
  -0.0252816
  0.00559567
  -0.0199564
  -0.0225849
  -0.0252911
 -0.00155502
  0.00948968
  -0.0338649
  0.00103156
  0.00789309
  -0.0330993
   0.0150462
    0.027108
  -0.0128493
   -0.091447
  -0.0545418
   0.0658339
   -0.052679
  -0.0289141
   -0.023128
  -0.0609114
 -0.00749801
  -0.0088302
  -0.0406319
  -0.0054192
  -0.0447534
  -0.0486827
  -0.0177782
   -0.039077
   0.0766721
   0.0657255
   0.0412012
   -0.037113
  -0.0430711
   0.0256857
   0.0229512
  -0.0157258
   0.0345667
  -0.0485007
  -0.0940033
  -0.0548133
  0.00643594
 -0.00779087
  -0.0527153
  0.00682511
   -0.077354
  -0.0131991
  0.00561785
  -0.0315402
   -0.081141
  -0.0923611
   0.0815197
 -0.00283468
 -0.00239398
 -0.00271825
  -0.0595098
  0.00955978
-7.45459e-05
  -0.0471666
  -0.0402452
  -0.0311106
  0.00819499
  -0.0592817
   -0.034737
  -0.0549818
   0.0161647
  -0.0375832
   0.0507266
   0.0550077
     0.03375
  -0.0298496
  -0.0328265
  -0.0218856
   0.0299975
  0.00354309
  -0.0416929
   -0.103796
  -0.0985801
   0.0205865
  -0.0844001
   0.0246034
   0.0538708
  0.00657213
   0.0074704
   0.0562418
   -0.019799
  -0.0383099
   0.0244335
 -0.00934381
   0.0260612
  -0.0318394
    0.103044
  -0.0394491
  -0.0124033
   0.0486382
    0.176441
  -0.0854378
  -0.0258054
 -0.00802954
   0.0190381
  -0.0186402
  -0.0653807
   -0.043438
  0.00579728
   0.0797636
  -0.0712584
   0.0468867
  -0.0393518
  -0.0348919
  -0.0280762
  -0.0197417
  -0.0243926
  -0.0150581
  -0.0662687
  -0.0641542
  -0.0201701
   0.0213512
 -0.00275488
  -0.0352631
  -0.0557414
   0.0643408
   0.0264407
  -0.0480549
  -0.0202062
 -0.00489138
   0.0309686
  -0.0195284
   0.0172341
   -0.046783
-0.000658995
  -0.0398126
  0.00594199
   0.0125937
  -0.0122832
  -0.0461869
 -0.00275486
  -0.0237364
   0.0460197
  -0.0477052
  -0.0123932
   0.0582694
 -0.00347015
  -0.0173306
  -0.0368323
  -0.0095159
  -0.0416022
  0.00763275
   -0.035857
  -0.0355571
   0.0669244
 0.000696612
   0.0576995
  -0.0486402
 0.000356535
   0.0665894
  -0.0484801
  -0.0498517
  -0.0027891
   0.0643901
  -0.0317456
   -0.055396
   0.0486231
   -0.105973
   0.0533433
   -0.012651
  -0.0361644
  -0.0269323
  0.00524148
    0.017061
  0.00919672
  -0.0485534
   0.0981584
  -0.0689367
   0.0229899
   0.0153304
  -0.0480065
   0.0142027
    0.019266
  -0.0309464
   -0.022171
   0.0718642
  -0.0358847
  -0.0356462
  -0.0127184
   0.0562477
   0.0309695
  0.00472555
   0.0462387
   0.0291894
   0.0417133
 -0.00841718
  -0.0703783
  0.00360118
   0.0222277
