1024 1
  -0.0429562
  -0.0760576
  -0.0765332
  -0.0152172
  -0.0176973
  -0.0203258
  -0.0352101
   0.0644957
      0.1803
   0.0609365
   0.0121093
 -0.00954701
   -0.106085
  0.00764454
    0.124046
   0.0140473
   -0.117826
   0.0852382
    0.066402
 -0.00389804
  0.00947022
-0.000838722
  -0.0141986
    0.042854
 -0.00654927
   -0.109877
    0.021988
  -0.0578137
 -0.00888969
   0.0195796
   0.0423984
   0.0482932
    0.029176
     0.03657
   0.0482024
   0.0442839
  -0.0311208
  0.00290599
  -0.0424279
  0.00619526
  -0.0967714
    0.108775
   0.0132499
  -0.0531545
 1.54644e-05
  -0.0762491
   0.0636232
  -0.0309331
  -0.0291948
    0.114558
   0.0428624
  0.00935437
   0.0759559
   0.0840933
   0.0572504
  -0.0789732
 -0.00956246
   -0.016278
   0.0304737
  -0.0150761
   -0.057766
  -0.0588634
  -0.0992108
 -0.00108018
   0.0567405
   0.0825812
   0.0685758
  -0.0455067
   0.0306016
 0.000366565
  -0.0399955
    0.107229
   0.0330877
  -0.0426548
   0.0196508
  -0.0175067
   0.0599418
  0.00361245
    0.109376
  -0.0815876
  -0.0206501
   0.0319628
   0.0757897
   0.0461423
   0.0104779
 -0.00485361
  0.00177823
    0.108053
  -0.0739109
   0.0129115
  -0.0304761
   -0.156501
   0.0935484
   0.0517361
  -0.0255665
   0.0631126
  -0.0891018
   0.0396157
  -0.0215601
   0.0567771
 -0.00704103
  -0.0980391
  -0.0116894
 -0.00181378
   -0.105308
   0.0858498
  -0.0754367
  0.00886235
   0.0850643
    0.120903
  -0.0173857
   0.0109996
  -0.0226028
   0.0598828
    0.104032
   0.0714213
   -0.118471
   0.0293648
  -0.0711922
  -0.0108353
   0.0928664
   0.0468388
  -0.0551176
 -0.00217277
   0.0321318
  -0.0452897
   0.0592622
  0.00882684
   -0.094072
   0.0439066
 0.000242056
   0.0320679
   0.0419411
  -0.0399182
  -0.0205127
   0.0143152
   0.0327424
   -0.024904
   0.0220091
  -0.0521401
   0.0113706
 -0.00479263
  -0.0190239
  0.00317945
   0.0229774
  -0.0121255
  -0.0525187
 -0.00942309
  0.00835286
   0.0402854
  -0.0948045
  -0.0599301
    -0.03944
   -0.081853
  -0.0925781
  -0.0693984
  -0.0519886
   -0.116651
   0.0387782
   0.0167723
  -0.0281848
   0.0587957
   0.0636606
   0.0511898
   0.0166163
  -0.0364887
   0.0258634
  -0.0703746
  0.00516193
   0.0507332
  -0.0641495
  -0.0609696
    0.130526
  0.00223191
  -0.0495793
   0.0264548
   0.0532084
   -0.171801
   0.0391565
   0.0792116
  -0.0671997
   0.0249097
   -0.070768
   0.0288093
   -0.024526
   0.0557465
   0.0823218
  -0.0300935
  -0.0345563
   0.0588852
    0.040988
  0.00339445
    0.115499
   0.0382975
   -0.023598
   0.0526728
  -0.0753873
  -0.0263218
  -0.0301695
   -0.080454
  -0.0415182
   0.0946117
   0.0318161
  -0.0467688
  0.00171413
  -0.0888129
   0.0261453
   0.0422887
   0.0641987
  0.00729173
  -0.0232259
  -0.0021275
   0.0351239
  -0.0776559
  0.00590317
  -0.0810372
 -0.00121958
   0.0882398
   0.0610682
  -0.0367306
 -0.00741515
  -0.0495491
    0.118426
  -0.0143058
   0.0770123
   0.0613841
   0.0692523
  -0.0753521
  0.00173669
 -0.00361803
  -0.0378477
  -0.0140689
   0.0217384
  -0.0685221
   0.0179295
   0.0171773
    0.106486
   0.0258275
   0.0521624
   0.0693246
  -0.0655615
   0.0443595
   -0.076109
   0.0254426
  0.00368591
  -0.0913624
  -0.0467339
  -0.0321898
   -0.103216
  -0.0417527
  -0.0359923
   0.0243489
   0.0090283
  -0.0256356
    0.116339
  -0.0067918
   -0.160623
    -0.12179
  -0.0761932
    0.104325
  -0.0134914
 -0.00395978
  -0.0171386
   0.0318183
   0.0873253
   0.0256856
  -0.0400291
  -0.0450556
  -0.0259083
   -0.187834
   0.0719736
  -0.0135041
   0.0757825
   -0.063654
   -0.059981
   0.0322044
  -0.0629932
   0.0113199
  -0.0433525
  -0.0585573
   0.0332322
  -0.0905137
  -0.0704578
  -0.0501577
   -0.143777
    0.043762
  -0.0317924
  -0.0380907
 -0.00486444
    0.076383
   0.0401647
  -0.0998457
   0.0217877
  -0.0270086
  -0.0774064
 -0.00323408
  -0.0517805
  -0.0216443
  -0.0442013
 -0.00175708
   0.0476549
   -0.065469
 -0.00282891
  0.00528261
    0.115508
   0.0359432
   0.0400499
   0.0258742
  -0.0378191
  0.00467214
  -0.0526728
   0.0295843
  -0.0374052
   0.0379983
   0.0662159
   0.0311314
   0.0105765
   0.0663158
   0.0377589
  -0.0595513
  -0.0329391
   -0.029928
   0.0577494
   0.0848947
  -0.0270859
-0.000816761
 -0.00230918
   0.0584776
  -0.0388834
  -0.0564092
  -0.0194396
  -0.0223006
   0.0259121
  0.00581216
 -0.00520685
   0.0390875
  -0.0199232
   0.0310986
  -0.0929407
   0.0749499
    0.129583
   0.0866016
   0.0615205
  -0.0180538
  -0.0138573
  0.00930947
  -0.0482133
   -0.156356
   -0.025434
  0.00420411
  -0.0469703
  -0.0814527
   0.0961115
  -0.0502452
  0.00958986
   0.0293962
   -0.024774
  -0.0258842
   -0.038304
   0.0217412
   0.0353504
  -0.0647877
  -0.0165672
   0.0154567
   -0.011621
   0.0202918
  -0.0259791
  -0.0389183
   0.0720134
   0.0111762
    -0.12112
  -0.0703698
  -0.0287984
   0.0452713
   0.0519209
   -0.131809
    0.011767
 -0.00983478
   0.0396899
    0.112828
   0.0256249
 -0.00552628
   0.0071806
  -0.0251733
 -0.00266674
  -0.0361967
   -0.110552
  -0.0367747
   -0.127092
   0.0900355
   0.0443649
  -0.0700355
   -0.102399
    -0.10427
   0.0255365
   0.0095263
    0.037994
   0.0219164
   -0.039057
  -0.0860378
   0.0905581
  -0.0111665
  -0.0714118
  -0.0825347
   0.0709645
   -0.130145
  -0.0499341
  -0.0933432
   0.0408988
   0.0307952
  -0.0139887
   0.0978197
  -0.0199619
  -0.0114603
    0.028201
  -0.0402971
  -0.0421365
  -0.0230676
   -0.134897
   0.0107327
  -0.0357291
   0.0205026
  -0.0162361
   0.0270684
 -0.00468635
   0.0467947
 -0.00549779
   0.0155364
  0.00633431
  -0.0743522
   0.0703931
  -0.0244906
  -0.0422869
   -0.039513
   0.0293937
  -0.0427294
  -0.0480321
  -0.0731574
   0.0187734
   0.0186512
  -0.0179631
   0.0752665
   0.0415963
   0.0101479
   0.0225112
   -0.135786
   0.0257571
   0.0075404
 -0.00122677
 -0.00192349
  -0.0469423
  -0.0715354
   0.0742756
   0.0114823
   0.0306368
 -0.00368743
  -0.0138402
   -0.061688
  -0.0606403
   0.0744454
  -0.0111007
  -0.0783014
  0.00288875
   0.0670353
   0.0710775
  0.00222998
  0.00589808
   0.0679065
 -0.00988812
    0.119613
   -0.011959
  -0.0227106
  -0.0318372
  0.00920274
    0.100366
    0.136991
   -0.062165
  0.00915489
   0.0548153
   0.0547646
  -0.0393384
    0.073781
  -0.0161649
  -0.0991594
   0.0309008
  -0.0537838
 -0.00820467
  0.00503217
   -0.118476
  -0.0664532
    0.149031
    0.024291
  -0.0695007
    0.032896
    0.111903
   -0.115257
  -0.0498531
 -0.00611776
  -0.0121812
 -0.00910067
   0.0740881
   0.0442315
  -0.0589885
   0.0856718
    0.134516
   0.0526139
  -0.0252254
   0.0530014
  -0.0460416
    0.075835
   -0.137142
 -0.00668415
 -0.00653493
   0.0930173
  -0.0191298
  -0.0875417
   -0.118416
   0.0929792
   0.0672106
   -0.103526
    0.147285
  -0.0116346
    0.035058
    0.050331
  -0.0450036
  0.00297182
 -0.00822684
  -0.0278396
  -0.0728986
    -0.12128
   0.0134289
  0.00589516
 -0.00720913
 -0.00160425
  -0.0452401
   0.0928266
 -0.00949376
   0.0325974
   0.0107992
  -0.0165033
   0.0880324
   0.0405762
   0.0122899
   0.0928376
   0.0247157
   0.0947521
  0.00971702
    -0.10655
   0.0312315
     0.11547
  -0.0366613
 -0.00767154
  -0.0460982
     0.10045
   0.0978996
   0.0139854
   0.0156753
   0.0619537
  -0.0137535
  -0.0411622
   0.0433737
  -0.0529948
   0.0762326
  -0.0192111
   -0.058007
   0.0700993
   0.0302779
   -0.091296
  -0.0579196
   -0.016228
   0.0202111
   0.0350652
   0.0176787
   0.0301057
  -0.0231662
  0.00716078
  -0.0733093
   -0.054765
   0.0926417
  -0.0211557
 0.000304118
  -0.0592921
  -0.0289429
  -0.0133635
   0.0672993
  -0.0521251
  -0.0846323
  -0.0152923
  -0.0516815
  -0.0770774
   0.0883346
  -0.0230912
   0.0437748
  -0.0310487
 -0.00263838
    0.110524
   0.0955145
   0.0439407
   0.0419764
   0.0633368
  -0.0263022
   -0.048529
   0.0644074
   0.0236117
  -0.0738454
  -0.0634304
   0.0204522
 -0.00834609
 -0.00489343
  -0.0144559
  -0.0185717
    0.015918
   0.0770674
  -0.0887529
  -0.0699498
   0.0693682
 -0.00856925
  -0.0953429
   0.0368368
  0.00697309
   0.0335236
   0.0257646
   0.0672961
  -0.0615479
   0.0495486
   0.0467163
   0.0275088
   0.0562488
   0.0133939
 -0.00684562
  -0.0181189
  -0.0180203
  -0.0502252
  -0.0907414
   0.0128486
   -0.014614
   0.0943473
  -0.0187744
   0.0995802
   0.0501257
   0.0401584
  -0.0133995
   -0.107007
  -0.0255882
   0.0957464
   0.0199965
  -0.0643286
   -0.065716
   0.0870078
  -0.0319515
   0.0591269
  -0.0803167
   0.0293623
   0.0295444
   0.0373491
  -0.0424077
    0.116062
   0.0749504
   0.0838959
   0.0215031
  -0.0867946
  -0.0128154
   0.0203651
   -0.087987
  -0.0626446
  -0.0714892
   -0.060226
  -0.0201164
  -0.0608942
    0.023864
  -0.0262021
  -0.0739602
   -0.137168
  -0.0844687
  -0.0549595
  -0.0442741
    0.028421
  -0.0485055
   -0.045527
-0.000129744
  -0.0917781
   0.0287393
  -0.0557583
   0.0381331
    0.135602
    0.113052
   0.0146635
    -0.13344
   0.0144184
  -0.0410932
   0.0190331
   0.0903044
   0.0860172
    0.031301
   0.0113303
-0.000233064
   -0.126597
  -0.0763033
  -0.0283098
   0.0406272
  -0.0010525
  -0.0372397
  -0.0409194
   -0.015557
 -0.00457266
  -0.0203314
  -0.0146429
  0.00817569
   0.0327418
  -0.0545692
    0.019492
  -0.0621521
 -0.00950232
 -0.00298877
  -0.0644287
  -0.0473575
   -0.012749
 -0.00590227
   0.0238414
   0.0239848
  -0.0356027
  0.00397628
  -0.0313207
   0.0581108
  -0.0936944
   0.0181512
  -0.0765588
   0.0541945
   -0.155036
  0.00173202
   0.0392959
   0.0603349
  -0.0333748
   0.0544656
  -0.0574996
 0.000333204
  -0.0691133
  -0.0871098
  -0.0254886
  -0.0553044
   0.0203478
   0.0218013
   0.0587117
    0.064493
  -0.0329195
  -0.0353616
   0.0441378
   0.0596802
   0.0157132
    0.118227
 -0.00194402
   -0.130154
     0.13512
  -0.0647975
  -0.0551638
  -0.0934124
    0.060147
   0.0147769
  -0.0108939
  -0.0668107
   0.0384493
   0.0305038
   0.0218174
    0.101937
   0.0402078
  -0.0334494
  0.00129624
   0.0107662
   0.0519498
   0.0138039
  -0.0317242
  -0.0315534
  -0.0385824
  -0.0780779
   0.0108682
   0.0131718
   0.0925924
   0.0340893
  -0.0354129
  -0.0464091
  -0.0103414
   -0.056627
   0.0891189
  -0.0488749
  -0.0157958
  -0.0160484
   0.0293188
  -0.0299217
   0.0754954
   0.0529884
  -0.0100264
   0.0327633
   0.0669944
  -0.0291419
   0.0530626
   0.0320045
   0.0523433
   0.0588619
  -0.0233263
  -0.0536591
  -0.0545271
  -0.0219493
 -0.00367116
   0.0418705
  -0.0268609
 0.000874296
  -0.0106021
 -0.00284577
  -0.0321214
   0.0417005
   0.0182522
   0.0277329
 -0.00297692
   0.0646361
  -0.0259023
  0.00458082
   0.0302725
  -0.0311778
   0.0704984
  0.00118432
  -0.0885383
   -0.107458
  -0.0801745
 -0.00225284
    -0.13551
   0.0146367
   0.0485916
  -0.0063177
   0.0354196
   0.0466063
   -0.198289
   0.0270309
  0.00161777
  -0.0570514
 -0.00486804
   0.0617121
   0.0331553
   -0.016282
  -0.0685832
   0.0378102
  0.00442104
  -0.0520173
   -0.057126
   0.0319477
   0.0938768
  -0.0216503
   0.0580242
   -0.122242
  -0.0229404
  0.00786758
    0.141315
  -0.0944169
   0.0660143
  -0.0264013
   0.0286605
   0.0342356
  -0.0715828
    0.108522
  -0.0368329
   0.0430382
    0.047092
   0.0304341
  -0.0352649
    0.155335
   0.0144601
   0.0343701
  -0.0600068
   0.0142996
    0.038151
   0.0810394
  -0.0845759
  -0.0350087
    0.167987
  -0.0142086
   0.0438139
  0.00603291
 -0.00243626
   0.0431112
    0.033414
  0.00522715
   -0.077053
  -0.0184052
  -0.0304702
  -0.0125492
 -0.00371447
  -0.0529661
  -0.0461638
   -0.016387
   -0.109281
  -0.0359265
  -0.0117542
   0.0677967
  -0.0877869
   0.0470375
   0.0279132
   0.0215321
  -0.0553865
  -0.0427192
  -0.0373042
  0.00181439
   0.0538473
   0.0525204
 -0.00736154
   0.0362337
     0.10253
   -0.108434
  -0.0335792
   0.0194372
  -0.0613734
  -0.0704733
 -0.00474628
    -0.10491
  -0.0675943
   0.0716421
   0.0774032
   0.0104273
  -0.0170523
  -0.0968646
    0.028834
  -0.0437872
  -0.0450394
  -0.0616823
   0.0918018
  -0.0112126
    0.149878
  -0.0701182
   -0.029247
  -0.0160018
  0.00152215
  -0.0504983
  -0.0280355
   0.0141846
   0.0540554
  -0.0284897
  -0.0423424
   0.0716268
  -0.0410677
   0.0471998
   0.0505259
   0.0485618
   0.0579281
  -0.0654439
   0.0735114
  -0.0162504
  -0.0346948
   -0.044001
   0.0272868
  0.00479252
 0.000407542
  -0.0140793
   -0.176934
  -0.0526418
  -0.0410961
   0.0112113
 -0.00174089
   0.0779059
   0.0724478
   0.0145025
   0.0282247
 -0.00721569
   0.0693273
   0.0178741
  -0.0348097
  -0.0582043
   0.0354226
 -0.00617775
  -0.0778965
   0.0303969
  -0.0589984
   0.0982042
  -0.0536452
    0.140323
   0.0577985
   0.0439421
 -0.00897731
  -0.0388542
   0.0134987
  -0.0548359
   0.0948167
 -0.00721255
   0.0231281
  -0.0829345
  0.00197128
   -0.117631
   0.0498582
   0.0727526
   0.0265938
   0.0475157
   0.0660168
  -0.0083114
  0.00385119
   0.0739461
   0.0777926
    0.037958
   -0.119827
   0.0658917
   0.0648127
  -0.0971732
 -0.00169314
  0.00900236
   -0.101081
   0.0591692
   0.0577218
   0.0112532
   -0.125265
  -0.0411646
  -0.0110576
   -0.142489
   0.0458586
  -0.0270054
   0.0684263
   0.0201264
   0.0331263
  -0.0509338
  -0.0178509
    0.110257
   0.0234104
    0.045476
  -0.0597997
    0.129093
 -0.00174228
   0.0513387
    0.019163
  0.00660002
