512 1
  -0.0465763
    0.126794
   0.0424522
 -0.00381968
   0.0737138
-1.04389e-06
  -0.0277091
   0.0274756
    0.012405
   0.0221944
   -0.115126
  -0.0853265
  -0.0677587
    0.165802
   0.0256419
 0.000363991
    0.012282
    -0.18514
   0.0355131
    0.104883
   0.0344117
    -0.16221
    0.227334
   0.0135893
    0.157345
   0.0987599
   0.0283223
   0.0012329
   0.0426038
    -0.11278
   -0.359504
   -0.142157
    0.221826
     -0.1413
     0.16636
    0.171017
-0.000260405
  -0.0605116
    -0.15255
    0.147637
  -0.0476179
    0.153616
    0.127687
    0.184342
  -0.0441152
  -0.0180132
   -0.103151
    -0.13506
     0.27413
    0.165763
  -0.0778834
   -0.255415
  -0.0271977
   -0.157381
  -0.0556367
    0.108999
   0.0185884
  -0.0401469
   0.0379472
  -0.0746729
   -0.111052
  -0.0534762
   -0.112852
 -0.00809422
   0.0213527
     0.19595
    0.222762
    0.350346
   0.0535422
    0.152521
  -0.0890738
  -0.0625567
   -0.172065
     0.16043
   0.0384011
  -0.0329056
   -0.102462
   -0.117918
  0.00518446
    0.037814
  -0.0201447
  -0.0420553
  -0.0845029
   -0.360977
   0.0373291
   0.0107205
   0.0453998
   0.0444632
   0.0299496
   -0.274135
   -0.160666
    0.132907
   0.0824955
   0.0824087
   -0.117466
  -0.0472758
  0.00261807
 -0.00365152
  -0.0766871
   -0.209006
   0.0251316
    0.234693
   -0.245664
   -0.147268
   0.0317344
   -0.100145
    0.136729
   0.0482498
    0.248437
  -0.0871327
    0.110211
   -0.178657
   0.0581488
   -0.118378
   -0.178016
    0.130373
    0.128754
  -0.0154787
  -0.0619562
   0.0480835
    0.115187
    0.039321
   0.0893771
    0.153226
  0.00950551
    0.131689
    0.135942
   0.0388783
   -0.122553
  -0.0861315
   0.0419305
   -0.224809
   0.0415742
  -0.0599174
    0.120596
    0.121309
   0.0476838
   -0.275534
  -0.0800252
     0.19805
    -0.28546
  -0.0666554
 -0.00737034
  -0.0397598
  -0.0307125
  -0.0970281
   -0.108072
   0.0392638
    0.223453
  -0.0592655
   0.0685978
   -0.192271
   0.0389467
  -0.0900908
  0.00749612
    0.023065
   0.0560355
   -0.019373
   -0.113503
    0.138404
   -0.116615
    0.157206
    0.183064
  -0.0285793
  -0.0980854
    0.126897
  -0.0889505
   0.0885096
   -0.243647
   0.0866593
    0.069951
  -0.0679264
   0.0191486
  -0.0534188
   -0.208886
  -0.0318768
    0.132405
     0.10021
    0.138354
    0.015874
  -0.0444825
    -0.17173
    0.263959
   -0.178427
  -0.0125097
   -0.192049
   0.0752601
   -0.102148
  -0.0224462
  -0.0209435
  -0.0374925
   0.0109497
  -0.0304938
  -0.0543106
   0.0146303
   -0.188085
 -0.00280094
   0.0362594
   0.0417981
   -0.168282
  -0.0828696
   0.0161033
   -0.071346
   -0.170165
   -0.340073
  -0.0998564
   0.0885525
   0.0621833
  -0.0663981
    0.174631
   0.0618882
  -0.0832644
   -0.134258
   0.0292157
   0.0661121
  -0.0773304
   -0.143451
     0.15467
   0.0513203
   -0.249851
   -0.035186
   0.0198188
   -0.155347
    0.288401
    0.197438
   -0.224393
  -0.0744813
  -0.0899252
   0.0337487
  -0.0716106
   0.0330241
    0.111041
   -0.271325
  -0.0280583
  -0.0890371
  -0.0860337
   0.0694388
  -0.0170872
    0.132234
   0.0610101
   0.0681272
    0.171875
  0.00088021
  -0.0405447
  -0.0544268
   0.0471502
  -0.0638177
  -0.0323064
  -0.0521934
  -0.0355066
   0.0327312
    0.103671
   0.0334377
  -0.0494849
    0.165239
     -0.1778
  -0.0174387
  -0.0505467
  -0.0447902
   0.0687212
    0.202392
   -0.165525
   0.0734687
   -0.190647
  -0.0303313
  -0.0636946
    0.208939
   0.0994438
  -0.0668171
   -0.222608
  -0.0147637
   -0.225758
    -0.13284
   0.0199091
     0.19175
   -0.101289
   0.0506534
     0.13972
   -0.148836
 -0.00318283
   -0.111798
   0.0816796
    0.120056
    0.313402
    0.025028
   0.0764614
   -0.113799
    -0.19163
   -0.242915
   0.0528404
  -0.0325121
   0.0710069
  -0.0511164
  -0.0069237
   -0.147396
  0.00476997
   -0.130511
   0.0314508
   -0.163026
   0.0765903
   -0.194579
    0.139724
  -0.0552718
    -0.09104
   0.0348955
   -0.277364
    0.216396
   -0.222818
  -0.0564374
  -0.0690901
  -0.0443955
   -0.169069
    0.137587
  -0.0860099
  -0.0996642
 -0.00648027
  0.00177849
  0.00943608
   -0.177597
   0.0696284
  -0.0924329
    0.111901
   -0.302784
  -0.0492257
   0.0601918
 -0.00966395
   -0.116329
    0.181905
   -0.193967
  -0.0804283
   -0.186005
    0.110794
   -0.190103
   0.0359388
    0.118759
  -0.0499656
   0.0012533
   -0.014264
    0.168702
  -0.0305827
   0.0148501
 -0.00628652
  -0.0427519
    0.033173
   0.0597158
  -0.0940119
    0.102681
   -0.180791
    0.137035
    0.183619
    0.111015
  -0.0826224
  -0.0694034
   0.0232669
   0.0794075
-5.58704e-06
   -0.032108
    0.163988
  -0.0421863
   -0.107379
   0.0434142
   0.0907941
  0.00395514
   -0.125683
   -0.161633
   -0.148218
   -0.137128
     0.17566
     0.11905
  -0.0735756
  -0.0635665
   -0.137208
  -0.0422557
    0.019144
   -0.180734
   -0.157352
   0.0501466
   -0.230567
    0.135724
   -0.163515
  -0.0980649
  -0.0315369
   -0.142098
   0.0875248
    0.152069
   0.0871846
   0.0102914
   -0.114146
    0.281437
   -0.035826
 -0.00278863
   -0.119033
   0.0516067
   0.0441292
  -0.0694353
  -0.0902727
    0.041479
   0.0683215
  -0.0680797
     0.19848
  -0.0546674
  -0.0566422
    0.152513
    0.128278
  -0.0273186
   0.0684708
  -0.0792844
    0.102995
  -0.0985445
       0.217
   0.0866759
    -0.08501
   0.0844607
  0.00667638
  -0.0346207
   0.0798935
    0.143848
   0.0752268
  -0.0745591
  -0.0380835
   -0.156257
  -0.0995938
   0.0563284
  -0.0320886
   0.0749218
   -0.052058
   -0.167761
  -0.0549435
    0.193321
   0.0284525
    -0.14614
   -0.254176
    0.122148
   -0.128671
   0.0761663
   0.0266436
  -0.0413143
   -0.245126
  -0.0644774
   0.0594459
   -0.123603
    -0.24237
  -0.0845436
    0.114767
   -0.128541
    0.201736
    0.101963
  -0.0810932
  -0.0204811
   -0.174203
   0.0703707
   0.0610933
 -0.00717343
  -0.0543438
  -0.0586452
    0.108451
   0.0583252
  -0.0472538
-0.000957902
  -0.0607998
 -0.00134589
   0.0884117
   0.0708879
   0.0506349
   -0.085833
  -0.0215538
    0.335985
   0.0226776
  -0.0156653
   -0.052312
  -0.0666102
    0.143405
   0.0400836
  -0.0625582
   0.0144356
  -0.0140017
   -0.220872
    0.141147
  -0.0638888
   -0.122478
  -0.0895137
   0.0927846
   -0.136434
   -0.127149
  -0.0322899
   -0.145839
  0.00226686
  -0.0920074
    0.149478
  -0.0574418
    0.127432
  -0.0311905
   0.0444728
  -0.0986144
 -0.00909971
 -0.00518605
  -0.0449888
   -0.184353
     0.12737
    0.102779
    0.160004
   0.0300584
    0.093059
   0.0299852
   -0.210882
   -0.171203
    0.167512
   0.0144008
   0.0131784
  -0.0333612
   -0.152252
  0.00431736
