512 124
   -0.118181     0.126256    -0.179039   -0.0321026   -0.0512972    -0.236693  -0.00124616   -0.0598465    -0.177211     0.126208    -0.306854  -0.00485111   -0.0085493  -0.00927209    -0.220654   0.00252301    -0.111862   -0.0931581    0.0273891    0.0459779     0.126906    -0.014452    -0.139379    0.0354623    -0.173702    0.0292068   -0.0172851    0.0721982   -0.0104346    0.0741195    0.0584586    -0.030166   -0.0669776     0.055901   -0.0984967    -0.129112    -0.198998    -0.128017     0.124304     0.113361   0.00571907     0.212497    0.0524868   -0.0408491    0.0166161     0.157875    0.0483125   -0.0231447    -0.195098     0.122592     0.138822    0.0744123   -0.0679391    -0.100068     0.148664   -0.0437482     0.142092    -0.325267   -0.0758694   -0.0208605    -0.167317    0.0385388     0.105785  -0.00912783    -0.197559    0.0931103    0.0134186    0.0104916   -0.0875627    0.0789474  -0.00592833     0.261857    -0.189661    -0.185929     -0.13492     0.143732    0.0101116    -0.240481     0.247218     0.152635   0.00778318     0.035819   -0.0613591    0.0646397  -0.00663015   -0.0835744   -0.0248905    0.0862891   -0.0873314    0.0290396    0.0168062    -0.325257     0.105433    0.0444939    0.0786776    -0.247239     0.200623     0.169696    0.0139875   -0.0152176    0.0598128     0.129679  -0.00873868   -0.0919001    0.0273276   -0.0277105    -0.115429    0.0360897   -0.0571743     0.136859    -0.058741    0.0338322    -0.014333    -0.169971     0.146312  -0.00130038    0.0554426   -0.0831513      0.20211    -0.179151    0.0266384     0.110984   -0.0798666    0.0841381
  0.00574408     0.115777    0.0856542     0.155671   -0.0228636  -0.00390925   -0.0363402     0.108753    -0.160818    0.0733265    -0.126394     0.395881    0.0510143       0.1384    0.0461962    -0.198002   -0.0428105     0.203487    -0.186137  -0.00682971    -0.114361    0.0553774    0.0948136    0.0258312    -0.199942   -0.0547272      0.12949     0.145217     0.146387     0.127384   -0.0550019    -0.149135    -0.123515   -0.0146564    -0.157032     0.071831    -0.080083  -0.00757203    -0.058946   -0.0837235    -0.042442   -0.0831412      -0.1876   -0.0396926    -0.085469     0.238296   -0.0954846   0.00029909   -0.0948667     0.180665    -0.227421    0.0256958    -0.122576      0.11757    0.0860801    0.0989216     0.115728     0.205857    0.0334396      0.25812    0.0954763   -0.0424286    0.0366527   -0.0925052    0.0618227     0.236976    -0.169045     -0.19996    -0.203356   -0.0584629    0.0522438    0.0773752    -0.146125    0.0756557    -0.123619    0.0258085     0.155838     0.282707   -0.0608361    0.0862837    0.0673192    0.0121936    0.0607672      0.12662    0.0374157      0.07285     0.013901  -0.00225038    0.0848605    -0.202669    -0.121252   -0.0445502    0.0695497    0.0160251    0.0780629    0.0690981    0.0379764   -0.0941144 -0.000659382    0.0147544    0.0574851    0.0719034    0.0155016    0.0729386    0.0683782    -0.207524     0.289684     0.105884   -0.0764749   -0.0346081   -0.0619892    -0.099312    0.0775326    -0.016466    0.0320956    0.0178721    -0.194444     0.100597   -0.0322378    -0.206078    -0.217694    0.0803309     0.104796      0.22524
  -0.0737722    -0.146364    -0.176101     0.104864   -0.0589419   -0.0657261    0.0140927     0.163576    -0.017194   -0.0879223    -0.294278    0.0401087    0.0410295   -0.0516396   -0.0199783     0.134701     -0.16703     0.220296     0.249953    0.0101094  -0.00907374   -0.0932771    0.0799974    0.0582197    0.0942327    0.0674773     0.170009  6.18009e-05    -0.114963    0.0415852   -0.0952774    0.0297493    0.0588699     0.106731     -0.13889     0.019056    -0.117229    -0.128711     -0.13604  2.75788e-05    -0.141747     0.103145     0.090369     0.163523    -0.169186   -0.0944282  -0.00652383   -0.0407986    -0.119172     0.154613   0.00525686     0.139146    -0.190626     0.139223   -0.0023544  -0.00692658    -0.110823   -0.0712817   -0.0523936   -0.0287321   -0.0271713   -0.0195171  0.000939056     0.104201   0.00731166    -0.213514    0.0344442      0.19098    0.0517675    -0.158872     0.201947    0.0380846     0.190738    -0.111465  -0.00461853     0.028091   0.00277886   -0.0180925    -0.194339    0.0890702    -0.159544    0.0456675   -0.0157314   -0.0192126     0.193265   -0.0441112   -0.0348842   -0.0569206    0.0194379     0.130747   -0.0457093   -0.0321633   -0.0365057   -0.0812915    0.0502465   -0.0550615    -0.169298    -0.106326    0.0121756    -0.262338   -0.0200653    0.0383415    0.0279413   -0.0871468     0.036086    0.0169686   -0.0909468     0.201173    -0.134708    0.0841922    -0.104854   -0.0941037     0.194575     0.125683   -0.0581314   -0.0752178   -0.0454346   -0.0604366    0.0465427    0.0574194   -0.0614372     0.100704     0.063458   -0.0329953
    0.114667     0.129064    -0.123243   0.00833829     0.180456     0.136712   -0.0225897    0.0704863   -0.0849669    0.0671535    -0.143029   -0.0501124   0.00826445    -0.167869     0.141701    -0.076187    -0.061617    -0.067529   -0.0163659    0.0688895   -0.0780052     0.106932     0.124797   -0.0544938    0.0639355    -0.221905    0.0115084    0.0131261   -0.0480627   -0.0270892   -0.0309403     0.133923    0.0748679     0.198365     0.028046    0.0104981   -0.0985584    -0.229261     -0.22388    -0.120534    0.0122424   0.00461059   -0.0776088   -0.0300256     0.148821   -0.0281352    -0.318613     0.104243    -0.102952    -0.048279     0.132468   0.00215485      0.10588    0.0656836     0.195937     0.201132   -0.0198461   -0.0684201   -0.0562697   -0.0258397      0.16316    -0.114964    0.0326833     -0.15261   -0.0530534    -0.022778  -0.00608661   -0.0493098   -0.0917989     0.250869   -0.0595595    -0.339308   -0.0989447   -0.0427772     0.129516   -0.0592538    0.0847662   -0.0284608   -0.0143117    -0.107463    0.0452948   0.00564175    -0.147151   -0.0800728    0.0748488   -0.0564086   -0.0648118    0.0159441     0.170597   -0.0702697     0.168671    -0.136448     0.172414     0.140482    -0.038269     0.136995     -0.03749     0.113702   0.00753459    0.0393884    0.0165476   -0.0312783      0.28266      0.05316    0.0502276   -0.0116993   -0.0130113    0.0958951    -0.239185    0.0627104    0.0138135    0.0940764     0.268185     0.108734     0.121601  0.000803297    0.0374134    0.0705175  -0.00314145   -0.0384267   -0.0692203     -0.10916   -0.0763011    -0.141925
  -0.0501603     0.098719    -0.132263    -0.108576   -0.0478578   -0.0395657   -0.0743326    -0.207717     -0.09348    -0.205803     0.198358   -0.0340891     0.167363    0.0910328    -0.241989    0.0380185     -0.15082   -0.0707951     0.154884   -0.0572049   -0.0132984    0.0732159   -0.0567821       0.2395   -0.0254726    0.0206661    -0.250696      0.19905    0.0457822   -0.0178955    0.0604808    -0.080601    0.0665145   0.00739451    0.0584265    -0.038415    0.0853286    0.0350365     0.052243   -0.0747314     0.056967   -0.0181687   -0.0488474  -0.00640725    -0.213497     0.137379    0.0926766     0.101407    -0.119726    -0.165037    0.0827339   0.00603465    -0.155214     0.159275    0.0761411   -0.0300933    0.0762442    -0.076811   0.00508266   -0.0420232    -0.222432    -0.185902     0.183933     0.148053   -0.0782268     0.162379    -0.268342    0.0552293    0.0797136  -0.00743822    -0.178071    -0.105824     0.229281    0.0800716    0.0438354     -0.11784    -0.191513    0.0400856    -0.101885     0.109853    0.0779669   -0.0102037     0.177726    0.0593667    0.0665582     0.201054  -0.00810884     0.189555    -0.269146     0.238725    0.0104484     -0.19425     0.234111     0.086135  -0.00350565   -0.0255373    -0.028353   -0.0839093    0.0462056   -0.0381528    -0.135435    0.0522981    0.0938831   0.00049721    -0.251655     0.148603    -0.171349     0.134364   -0.0335644    0.0397356    0.0631381   -0.0179416    -0.141299   -0.0982971   -0.0225085     0.154649    0.0263041     0.168091   -0.0415325    0.0869677    0.0224598    0.0853794     0.200574     0.157327
  -0.0436497     0.132808   -0.0625011    -0.238966    -0.418902      0.12979    -0.186792    0.0842098    0.0863722   -0.0603281     0.229511     0.172915     -0.18778    0.0975779   -0.0878132    -0.169493    -0.192472     0.140158   -0.0709809    0.0129132     -0.16392     0.188468    0.0104462    -0.151263    0.0156294    -0.044908    -0.024326    -0.129198   -0.0980008    -0.108268    0.0185463    -0.303692    -0.120566   -0.0224195    0.0601672   -0.0627069        0.159    0.0996939    -0.128938    0.0338758    -0.227913     0.027484    0.0690493    -0.102519     0.209639     0.215276    0.0013781   -0.0598717   -0.0406654   -0.0791373   -0.0539105     0.186922     0.114238   -0.0354717   -0.0845176    0.0128198    -0.161962    0.0986199   -0.0717067     0.239583  -0.00391825    -0.201867   -0.0876852       0.1238     0.121001    -0.221669     0.108268    0.0805479      0.16223 -0.000717387  -0.00403726    -0.229828     0.166915     0.113525   -0.0988143   -0.0716536   -0.0885644    0.0664624    0.0864946   -0.0186503      0.21761    0.0158245    -0.167537    -0.150094     0.125349     0.353638     0.137995   -0.0517096   -0.0827475    -0.156486   -0.0772508    -0.202501     0.137386   -0.0162385     0.104136    -0.137632   -0.0987615    0.0784812   -0.0630931   -0.0743044     0.199425    0.0446949     0.097134    -0.228676    0.0287293     0.150392     -0.14409    -0.167304   -0.0258595   -0.0550111   0.00441391    -0.133164    0.0782256   -0.0567636   -0.0285308     0.107285   -0.0819445     -0.10952     0.141468   -0.0507279    -0.143259    -0.127078   -0.0634763    0.0399379
   -0.049142   -0.0537395   0.00313425    -0.105286    0.0797851   -0.0838149     0.138806     -0.15186    -0.141562   -0.0922529   -0.0139088    -0.161088     0.120972     0.259812     0.114187   -0.0609954   0.00314817    -0.176117  -0.00542062    0.0321162    0.0616086  0.000655676    0.0630608     0.170138    0.0937151    -0.273877   -0.0347398    -0.194794    0.0775241  -0.00623296    -0.177823    -0.002612     0.161348   -0.0119932    -0.153593     0.233351    0.0642231    0.0855275   -0.0079403    -0.148071   -0.0776084   -0.0393546    0.0298645   -0.0688955    0.0211595     0.177365    -0.124641   -0.0820431   -0.0980156     0.142919       0.1249    0.0692199    0.0428819   -0.0343488    -0.165038    -0.181671   -0.0146154     0.104178    -0.226897   -0.0380419   -0.0372643  -0.00854139    0.0935626     0.165693    0.0664995   -0.0112309    -0.130416     0.136305   -0.0274825    0.0952294    -0.191036    0.0687732    -0.334733    0.0274893    -0.101403     0.104357     0.015459     -0.18736     0.182124   -0.0963007     0.124306    0.0294989    0.0636126    -0.137822   -0.0430547    0.0377876    -0.057657     0.218751     0.240986   -0.0598962     -0.29931     0.125235    -0.227245     0.119463    0.0141545    0.0531373    0.0394579   -0.0694273   -0.0635569    0.0240038   -0.0574612    -0.068013     0.159561    -0.138726    -0.391017    -0.127287     0.109468    -0.124124    0.0640882  -0.00395577     0.123828    -0.046399    0.0737008    -0.114743     0.310398     0.172704    0.0404768     0.180658   -0.0614105   -0.0223661   -0.0453004     0.128583      0.04313    0.0358188
   -0.195725    -0.183008    0.0688722    -0.152649   -0.0219481   0.00674381    0.0103669    -0.176871    0.0781481   -0.0344057    -0.104123   -0.0664372     0.155136    -0.163129    -0.160278   -0.0686347   -0.0951813    0.0143248    0.0347293    0.0376005     0.148201     0.223302      0.21247   -0.0724197    -0.436327   -0.0897618   -0.0140292     0.122036    0.0234143    0.0700762   -0.0353478  -0.00909211    -0.104788    -0.133837    0.0977218     0.279622     0.187202   -0.0213484    0.0311599      0.11903    -0.308776    -0.062024   -0.0338472   -0.0462736   -0.0771817   -0.0186293   -0.0915724      0.18608     0.207232   -0.0713288   -0.0643369  -0.00780804    -0.263852     0.174229    -0.121591    -0.161899     0.104033   -0.0983736    0.0861976   -0.0202367     0.122125    0.0110157    -0.117778    -0.102811   -0.0348672   -0.0133397     0.158915   -0.0296428   -0.0110119   -0.0818148    -0.034004    0.0361014      0.15477     0.226057    0.0696072  -0.00400972   -0.0139122   0.00595196   -0.0200713    0.0715065    0.0920315     0.162358     -0.23631     0.170184     0.142725    0.0418118   -0.0703305     0.350997    0.0930994     0.020483   -0.0413666   -0.0786086   -0.0011931    0.0812836    -0.118693    -0.135842    0.0174451     0.132425    -0.222146   -0.0105754   -0.0254823   -0.0145718    -0.110298   -0.0241279   -0.0665658     0.173756     0.169371   -0.0151092    0.0779098   -0.0629516    0.0113927    -0.161807    0.0806495    -0.152499    -0.199169     0.145463    0.0989197   -0.0539018   -0.0915416   -0.0561409    0.0191759    -0.103997     0.102171    -0.195006
  -0.0789897    -0.268124   -0.0890902     0.253528    -0.109808    0.0447151     -0.17946     0.124953   -0.0882924    0.0573987  -0.00459339    -0.017322   -0.0756727   -0.0171115     0.167474    -0.213447    -0.170715    0.0943818    -0.049072    0.0211348   -0.0478886   -0.0244003   -0.0228802    0.0868965   -0.0799191    -0.135016   -0.0380539     0.113894    -0.147279     0.208982      0.18226   -0.0971397    -0.159669     0.165414    -0.334389    -0.192393    0.0348405    0.0417218   -0.0962798   -0.0484898    -0.336264     0.049362   -0.0691166    -0.230299    0.0229517    0.0880896     0.106583   -0.0956302    -0.195132    0.0672097   -0.0456766    0.0813162    0.0277447     -0.01574   -0.0300413    0.0165757    -0.194286   -0.0114747    -0.142491   -0.0235624   -0.0970739   -0.0089333    -0.076045   -0.0026405    0.0391325    -0.129152    0.0479327   -0.0835415    0.0508501   -0.0646194   -0.0606389   -0.0442828   -0.0390266  -0.00372721    -0.107502   -0.0187674    0.0832889    0.0380597    -0.118688    0.0481784    0.0742957   -0.0307818    -0.018202    -0.115781     0.147384     0.109797    -0.111943    -0.054136   -0.0365751    -0.138437    0.0411858   0.00320212     0.158894    -0.016878   -0.0771571    0.0893672   -0.0834472   -0.0351927   -0.0802009   -0.0721339   -0.0220016    -0.167255     0.154181    -0.143024     0.140196    -0.200814    0.0212196    -0.309595      0.29563     0.018903    0.0669939    0.0825114    0.0100559    -0.104509   -0.0691181  -0.00138445  -0.00832158    0.0573575    0.0623934    -0.105774   -0.0698593     0.149532    -0.106706   -0.0699873
    0.154326     0.055056    0.0641307    0.0172123    -0.141266   -0.0876557     0.352424   -0.0499801   -0.0124287    -0.120079    0.0814228    0.0604683    -0.255971    0.0188107    -0.154779   -0.0866148   -0.0673192   -0.0494942     0.306468    -0.047581    0.0710619    0.0195012    -0.243773   0.00126074    0.0396021    -0.106077   -0.0611514    0.0633461    0.0060545     0.043796    -0.128483    0.0985608     0.080899  -0.00606123   -0.0307653    -0.147624     0.190104     0.200544   -0.0706751    -0.134275   -0.0148586    0.0600512   -0.0670855    -0.080435    -0.084493    -0.144213    -0.110173   -0.0703089     0.144989    -0.079351    0.0472398    -0.215775    -0.137313   -0.0889269    0.0910523    0.0462024     -0.11714    0.0455764    0.0546276    0.0588212    -0.108398    -0.157203     0.165532    -0.100993    -0.175674    0.0636067   -0.0760527    0.0799522     0.049426    -0.041992     0.271911      0.12269    0.0284616   -0.0365043       0.2121    0.0785824    -0.072377    0.0190916     0.100664     0.158643    0.0232041    0.0508553   -0.0271578    0.0184566      0.10969   -0.0461875   -0.0804839    -0.111603   -0.0627927    0.0154459  0.000931883     0.106144   -0.0843741    0.0727462   -0.0140875    0.0209779     0.228611   -0.0819847    0.0523948     0.164535   -0.0969065    -0.159985    -0.188142    0.0800053    0.0187332    0.0477369    -0.151366    -0.021118     0.315003    0.0845007  -0.00676596    0.0140225    0.0478503     0.169052   -0.0297204   0.00883911    -0.325647   -0.0485837   0.00179272    0.0691175    0.0341391 -0.000630526   -0.0185686    0.0334113
   0.0978138     0.120253  -0.00559865  -0.00862862     -0.11028   -0.0147034    -0.125237   -0.0620064    -0.218726   0.00224708    -0.174842     0.103351  -0.00601172   -0.0327553    0.0711197   -0.0306753   -0.0563904    -0.288128    0.0167463    -0.137194     0.205794  -0.00126284   -0.0423047    0.0552554    -0.242501   -0.0279632   -0.0975149     0.133958   -0.0668264    -0.197219       0.1609   -0.0241723   -0.0377434     0.221877   -0.0397304    0.0261125    -0.121522   -0.0735961     0.215484    -0.102117     0.159741     0.223345     0.258164   -0.0480316    0.0197251    0.0526367    -0.176093    -0.330259     0.227169    -0.152325     0.144926   -0.0212672     0.145142   -0.0211141      0.19178   -0.0275849   -0.0176616  -0.00665434    0.0429628    -0.105271    -0.115737    0.0704892     0.312086    0.0318297   -0.0191943    0.0227151    -0.069866    -0.100783     0.138704    0.0447409   -0.0577497   -0.0658111    -0.144173     0.102423     0.153461     0.118068    -0.145349    0.0651263    -0.262175     0.423021    0.0451585    -0.122242   -0.0142029    -0.210258   -0.0649281    -0.236426    0.0556714     0.108996   -0.0639264     -0.10993   -0.0909781   -0.0471545    -0.164303    0.0881182    -0.121735    0.0170867   -0.0707766    0.0536402     0.140745     0.139141     0.106313    0.0089067     0.106545    0.0153606    0.0127973    0.0799011    0.0690774    0.0870104    -0.132978     0.146436     0.143232    -0.157886   -0.0418359    -0.210089   -0.0723594    0.0015647    0.0401332     -0.17962    0.0966384   -0.0936362   -0.0243396    0.0409755       0.1881   -0.0461216
  -0.0263685    0.0197531   -0.0583407    0.0277226     0.221034    -0.122551    0.0934878    0.0459214    -0.137467   -0.0241859    0.0536269     0.165069     0.134427    0.0467386        0.163  -0.00494718    -0.296141    -0.110054     0.158668   -0.0334771     0.117655    -0.154479     0.239204     0.304751    -0.200561    -0.246518   0.00296185    0.0715442  -0.00175386    -0.157562    0.0833234  -0.00277731    0.0525278     0.137318   -0.0925164    0.0214368   -0.0394121   0.00515154    0.0268328  0.000701437     0.112367    0.0749266     0.018971      -0.1498    -0.121056    -0.253134    0.0929276    -0.257541     0.129001    0.0435169      0.11071   -0.0694254    0.0117733    -0.148677    -0.214392   -0.0246927   -0.0707242    -0.242984    -0.163663     0.194322     0.118694   -0.0377548    0.0876689   -0.0646428    0.0866081   -0.0167698     0.100118    -0.116941    -0.238742   0.00687111    0.0928345    0.0694311     0.035334    -0.133614   -0.0773479   -0.0175656    -0.226455     0.295668    -0.172779   -0.0546496   -0.0888972   -0.0318227    -0.117287    0.0527415  -0.00869123   0.00366918    -0.244169    -0.222217     0.130427    0.0850879     0.181439   -0.0280216    -0.126698   -0.0518978   -0.0149524     0.194399   -0.0448947    0.0186434   -0.0238071    0.0569609   -0.0291189   -0.0298234   -0.0364755     0.163836    -0.159831     0.167739     -0.17323     0.115188     0.162043    0.0371904   -0.0684917     -0.18595    -0.198194     0.140889    0.0457103   -0.0433207   -0.0911809     0.135043   -0.0425319    0.0220788    -0.106735     0.109661    0.0615771    -0.182398
    0.102904   -0.0264215    -0.143298      0.13348   0.00994928    -0.055806     -0.11508    0.0387069    0.0114842   -0.0129996   -0.0601253   0.00197011   -0.0580723    0.0420455  -0.00970667   -0.0729034    -0.132896     0.183991    0.0338973    0.0810086   0.00822315    -0.116241     0.098886    0.0851216     -0.26743     0.118829    -0.155504     0.148902    -0.165311    -0.120132   -0.0693347    0.0554771    -0.169788     0.226982   -0.0757706     0.216799    0.0384096     0.128877    0.0546892    -0.179672    0.0302349     0.119879    0.0196321    0.0260984    0.0823968    0.0154886   -0.0152771       0.1699     0.359453   -0.0984353     0.132613    0.0608323  -0.00426108    0.0995018    -0.100127     0.137223   -0.0190791    -0.111447     0.143095   -0.0359529    0.0384954   -0.0398342   -0.0580007    0.0093751    -0.200459   -0.0158671    0.0599897     0.205198    -0.149616  -0.00624789    -0.316365   -0.0816839   -0.0883766   0.00450229      0.05097   -0.0822256   -0.0536369      0.22398    0.0470069   -0.0273666    -0.159311   -0.0700633    -0.080086     0.187793      0.18683   -0.0284684     0.105565     0.169314    -0.154504      0.23551   -0.0818078     -0.11955    -0.161126    0.0776795    -0.166164   0.00268499    0.0543317     -0.11525   -0.0215836     0.113304   -0.0518036    0.0239589     -0.21729   -0.0844786    0.0167619    0.0351335   -0.0870084    -0.179819   -0.0304389     0.167406   -0.0999622   -0.0992135   -0.0508261     -0.17892   -0.0362098     0.142813   0.00746047   -0.0290255    -0.175503    0.0578968   -0.0215137  -0.00954806    -0.101935    -0.041497
   0.0874756   -0.0330903   -0.0430818    -0.150244   -0.0295354    0.0112706    -0.215229   0.00843066     0.128898     0.151701    -0.102574    -0.193642    0.0597856    0.0526137    -0.109729   -0.0681475     0.135767  -0.00378773    0.0345948    0.0671958   -0.0186497      0.24882    -0.167095    -0.299263  -0.00042688    -0.120174    -0.321586    0.0619944   -0.0452108    -0.032332    0.0282365     0.115593     0.109027     0.132316     0.070432     0.133486     0.127624    0.0985109   0.00331415    0.0312091    0.0633061    -0.298746  -0.00238365     0.010897    0.0613567    -0.024269    -0.152941   -0.0792162      0.15823     0.279235    -0.175791     0.240387   -0.0538866   -0.0210771    0.0481344      0.13477     0.012746    0.0970117     0.174384    -0.269978    -0.131691   -0.0701485     0.302239    -0.157194   -0.0705781 -0.000488503   -0.0210828    -0.117148    -0.139894    -0.254068    0.0840613     0.208703   -0.0305507   -0.0531593    0.0195884     -0.18856    0.0187524    0.0073738   0.00238791    0.0156104   -0.0586993     0.138377   -0.0843101     0.186265    -0.243298     0.018534   -0.0808906   -0.0388092    0.0785684    0.0801396   -0.0313706    0.0354986   -0.0437113    -0.238063    0.0759664   -0.0643138     0.243732     0.117465   0.00836245  -0.00934159    0.0347705    0.0620312    -0.167094     0.063134   -0.0430884  -0.00654041    -0.252115    -0.127133   -0.0313107   -0.0456486     0.168788    0.0256452    -0.255495    -0.149594     0.167725     0.176103    0.0528229    -0.099402   -0.0746088     0.163103    0.0205012    -0.138733   0.00206695     0.257839
   -0.106715    0.0450846   -0.0831513    -0.127732    0.0521249     0.064863   0.00095439    0.0470562    -0.131841    -0.172936    -0.093757    -0.130873   -0.0649975   -0.0311532     -0.17388      0.23952   -0.0170151     0.192286    -0.020167    -0.170396   -0.0279313 -0.000958477   -0.0869579    0.0430342       0.1059    -0.181581    0.0978679   -0.0389668    0.0104462    0.0876792   -0.0453116    0.0417326    0.0214365    0.0395485    -0.022042     -0.17104   0.00893474    0.0176774    -0.303365    -0.187514    0.0970379        0.198     0.233655    0.0492698    -0.137735    -0.127469    0.0752901    0.0646824    0.0611894    0.0449567      0.11941     0.159421     0.114834   -0.0987921     0.105659     0.351513     -0.12333    0.0602647    -0.127271  -0.00190907  -0.00215459   -0.0986708    -0.105657     0.118574    -0.260859     0.154448    0.0277094     0.174314    -0.258186     0.245392     0.232888     0.138617     0.153489    -0.087322   -0.0191332      0.08877   -0.0837345   -0.0782568   -0.0429014    0.0666922   -0.0755118   -0.0997309    0.0216755   -0.0369196    0.0572981   -0.0712957    0.0870417   -0.0436415    0.0592012      0.24488    -0.127844     0.114148    0.0133209    -0.140221    -0.147259    0.0831443    -0.016084    -0.226917     0.137143    -0.173645    0.0328188    -0.160745    0.0982469    0.0604456    0.0217315   -0.0715367   -0.0154142    -0.164023    0.0665366    0.0305492    0.0678411     0.053888    -0.174512  -0.00388333    -0.251182  -0.00213036     0.232901   -0.0480984    -0.169279     0.322691    0.0975461     0.143983     0.169991     0.115012
   -0.183459    -0.131109    -0.187008    0.0238621    -0.245356    0.0033827    0.0839104   -0.0314634  -0.00125596     0.132505     0.148332     0.199193    0.0151257     0.112285    0.0245482    -0.228933    0.0097424   -0.0883004    -0.132844   -0.0770362   -0.0499041    -0.150612    -0.043253    0.0392999   -0.0822778     0.130169    0.0471572    -0.241671   -0.0185001     -0.15377   -0.0865176   -0.0496752    0.0624832     0.285853     0.227146   -0.0359823   -0.0228061   -0.0309124    0.0066638   -0.0417103   0.00201379   -0.0920638   0.00293722    -0.037416 -0.000154924    -0.102312    -0.130703    -0.084615     -0.20492     0.100401     0.001619     0.227519     0.132082   -0.0646851   -0.0517456    0.0651724    0.0418725    0.0158062   -0.0440218    0.0389948    0.0541418     0.170116    -0.146247     0.131404   -0.0935045   -0.0309758     -0.02336   -0.0019274    -0.135185    -0.176764     0.156153   -0.0288821     0.254356    0.0609683   -0.0377983    -0.184445   -0.0807055    0.0463563     0.191662   -0.0864725     0.100095   -0.0446085      0.14293    -0.249151    -0.203009  -0.00638172   -0.0759416   -0.0229193   -0.0708718   -0.0542395    0.0837576     0.014257    -0.148786    0.0220443     0.288871   -0.0278978   -0.0299977    -0.241588    0.0414411     0.218433     0.245794   -0.0254504    -0.224856    0.0688661      0.06404    0.0762303    0.0798098    0.0776828    0.0124249      0.16689     0.109534    0.0145491    -0.178501     -0.35258    0.0276936    -0.122683   -0.0680974   -0.0779106   0.00798911   -0.0850871   -0.0522163   -0.0280532   -0.0137553     0.125693
  -0.0295044     0.129227    -0.137294     0.107208    -0.213564   -0.0702252   -0.0383546    -0.133608    0.0988451     0.112416    0.0863045      0.08342     0.161951    -0.138874    -0.125841   -0.0192532    -0.110238    -0.110444   -0.0249146   0.00174516    -0.120306    0.0101953    -0.241469     0.072572    0.0274987   0.00502539    -0.181683   -0.0556356     0.163497     0.119741    0.0153246    -0.144464    0.0372134    -0.181278    0.0019597     0.166285   -0.0220333   -0.0181353     0.172091  -0.00773935    -0.222495     0.107941   -0.0988307  -0.00955304    -0.211183    -0.130581    0.0760572     0.046282   -0.0640269     0.200593     0.155083    0.0604929    0.0191668    -0.220882    0.0204161    0.0228639     0.281357     0.110862   -0.0977044   -0.0401697  -0.00854751    0.0936459    -0.303617   -0.0192004     0.153962      0.32261    -0.212014    0.0184744    0.0392715    0.0506007    0.0398743   -0.0899013    -0.033418    -0.176859    -0.204235   -0.0215906    0.0266902    0.0339195  -0.00520811   -0.0424391   -0.0261092   -0.0351321    0.0175528    0.0614136   -0.0835771   -0.0112208    0.0191817    0.0481373     0.109877   -0.0934309    -0.109341   -0.0570227     0.180863   -0.0722367     0.073976     0.216561     0.181509   -0.0915666    0.0810908    -0.138715      0.12242    -0.166729    0.0785148     0.155597     0.017675      0.24265    -0.119447   -0.0842658    0.0462753    -0.063285    0.0842323     -0.13573    -0.188551     0.289044     0.029776   -0.0166802    0.0762701    -0.101532    0.0826845     0.107857   0.00236282    0.0786468    -0.202519    -0.225482
  0.00800159     0.294719    0.0339137    -0.139613    -0.164193     0.201234    0.0704087    0.0344728     0.199702   -0.0767181    -0.132863    0.0910378    0.0193064    0.0698492  -0.00184625    -0.125018    -0.101959   -0.0409367    -0.136457   -0.0323208   -0.0529626     0.122495   -0.0784648    -0.298941    -0.299636   -0.0405629     0.154274     0.191329     0.147063    -0.121412   0.00351839    0.0367244    0.0450785     0.132275   0.00982709     0.166711     0.171304   -0.0449823   -0.0760278     0.318124   -0.0463213   -0.0301859    -0.152636    0.0742545   0.00805357    0.0319595     -0.10086    0.0761065   -0.0354336   -0.0546262    -0.151943   -0.0576231   -0.0412225   -0.0467734   0.00932211    0.0592662   -0.0159782   -0.0817496    0.0348995    0.0603821    -0.032793    -0.157548    0.0359819     0.157424    -0.139299   -0.0937773   -0.0751717    0.0748338   -0.0814201    -0.113618     0.120353       0.1321     0.017902      0.23309  -0.00619757    -0.175923   -0.0381218     0.121734     0.152521    -0.154695     0.292881    0.0781037   0.00103665   -0.0406996    0.0574445    0.0451231     0.238247    0.0731968       0.1988     -0.18629   -0.0786183     0.224905  -0.00668283   -0.0228764    0.0190862     0.102783    0.0464004   0.00247983    -0.141225    -0.231081   -0.0475967    0.0584094    0.0654952   -0.0707763    0.0411479    0.0913378    0.0298689    -0.194229   -0.0703325    -0.141977    0.0472322     0.233442    -0.138732    0.0915757     0.110721    -0.260046    0.0188739     0.112554    -0.150051    0.0902528     0.208871    0.0333984    -0.112978     0.146137
   -0.121706    -0.120926   -0.0503039    -0.032376    0.0663307    0.0203352     0.108598    -0.148884    -0.285214    0.0713535    -0.227881     0.130639     0.136717     0.295422   -0.0296552     0.131971     -0.10126      0.16723    -0.178048    -0.107813     0.106687    -0.146254     0.244814   -0.0289964   -0.0412048   -0.0933958   -0.0950745     0.107926    0.0570781    -0.149541    -0.039629    -0.157495   0.00431229   -0.0817431     0.188365    0.0916198     0.175072   -0.0233759    -0.137352   -0.0860853    -0.213575    0.0219456   0.00610078  0.000786049     0.071683    -0.033637     0.104278     0.272312   -0.0772532   0.00569136   -0.0599577      0.22602  -0.00362006     -0.11826  3.56833e-05     0.171999    -0.149473    0.0295596    -0.225265        0.062   -0.0621635    0.0307655   -0.0226805    0.0190811    0.0098634    0.0279467   -0.0815186   -0.0399982    -0.110716    -0.123485     0.072244   0.00505883   -0.0215993   0.00197485     0.094523   -0.0734482     0.204399   -0.0832516    -0.159048    -0.080788     0.111124     0.129055    0.0378134     0.234922     0.015003     0.167713     0.145852    0.0417313     0.150506    -0.175977    -0.162461    0.0367397     -0.15249     0.195204    -0.277885    -0.085473     0.134994   -0.0510538    -0.107274     0.110748   -0.0723584   -0.0170055   -0.0481484     0.049178   -0.0523564   -0.0629331     0.206891    -0.375467    -0.119549   -0.0589967     0.145292    -0.184077     0.062183    -0.288211    -0.110047    -0.172893   0.00713737     0.109919     0.175871   -0.0298752    0.0143643    0.0255779    0.0467958     0.110364
   0.0644402    -0.306783   -0.0257595   -0.0740098   -0.0524401    -0.278055   0.00795351    0.0116835    -0.122452    0.0249481     0.100984     0.176112    -0.106388   -0.0676979   -0.0141281     0.207148     0.116405     0.029414    0.0664907     0.114862   -0.0559657    0.0952158   -0.0552346   -0.0727421     0.157638     0.159103    -0.365644    -0.183725    -0.142248    -0.302153   -0.0357586    -0.122663    -0.135804    -0.157659   -0.0381536   -0.0119861 -0.000560391     0.104289   -0.0930964   -0.0077499    -0.213311     0.266876  -0.00872198   -0.0581718     0.208426     0.118195     0.179426     0.106449    0.0214573   -0.0821598    -0.254054   -0.0373407    0.0928544    -0.145125 -0.000927908    0.0338988   -0.0857865   -0.0733941    0.0668309     0.178586    0.0162197     0.117079   -0.0019439   -0.0549927   -0.0718439   -0.0221478    0.0401029   0.00554581     0.069098    -0.185412    0.0703779   -0.0292227    -0.024953     -0.17932   -0.0979028    -0.253325   -0.0682499     -0.05108     0.100619     0.353627     0.144852     -0.15993   -0.0770139    0.0101875    -0.215624     0.129559    0.0968452     0.118029     0.432184   -0.0635565   -0.0482705   -0.0436919    -0.254242   -0.0342411    0.0580063    -0.208953   -0.0271231     0.165519     0.100413   -0.0149514    -0.238469    -0.165249    -0.118171   -0.0504968     0.109435    0.0479866     0.131865   -0.0711855    -0.150321    0.0963104    -0.104166   -0.0809355    0.0385693   -0.0444872     0.112169     0.109785   -0.0793547    -0.139029    -0.153843    -0.086556    -0.028131    0.0376953   -0.0716756   -0.0730645
  -0.0748113     0.217057    -0.117097     0.158358    0.0693829     0.247053    0.0946236  0.000702668   -0.0252759   -0.0442976   -0.0884647     0.131344    0.0133269     0.116385     0.159041  -0.00921189   -0.0273422    0.0732034    0.0859511    -0.116018    0.0870352    0.0845819    0.0322594  -0.00481838    0.0655324    0.0621439     0.010497   -0.0329972    0.0233786    0.0188335    0.0494329    0.0877343     0.197208   -0.0348566   -0.0624682   -0.0970452     0.104806   -0.0153239     0.181504   -0.0269999    -0.193385    -0.108161    0.0626137  -0.00162116   -0.0909375    0.0494418    -0.113143    -0.125218   -0.0543851    0.0529481    0.0182987   -0.0193423   -0.0604696   -0.0265129  -0.00703313     0.213992    0.0119412   0.00449726    0.0762246    -0.186125    0.0016533    -0.131846    0.0729688 -0.000625044   -0.0541464    -0.028387    0.0921907    0.0709522   -0.0663006    0.0836247    0.0220687   -0.0940542  -0.00417146    0.0495006    0.0884111   -0.0667408    -0.160649    0.0865074    -0.127437    0.0855886     0.143311    -0.108973     0.201117    0.0205604   -0.0203661    0.0655823    0.0377262    0.0474492   -0.0484227    -0.125005   -0.0426995     0.164189    0.0337421    0.0891195    -0.181724    0.0297029   -0.0819035    0.0480959     0.109869    -0.127355     0.192262    0.0152656     0.187185    -0.036806    -0.085106     -0.05959    -0.128515     0.333337   -0.0711293   -0.0472538     0.164635   -0.0211501   -0.0611119    0.0246911     0.110429    -0.185179    -0.131479    -0.111105     0.180252    0.0610855    -0.129113    -0.188363   -0.0552635   -0.0709007
    0.124142    -0.140525   -0.0887213     0.115844      0.12103    0.0657703     0.204457    0.0795275    -0.136567   -0.0124207    -0.104859    0.0200488      0.16967     -0.30557     0.174556    -0.084518    0.0905725   -0.0467201     -0.14987     0.200812    0.0198544     0.224265   -0.0209485   -0.0840161   -0.0322307   0.00361597   -0.0744335    -0.224364   -0.0398698    0.0259197     0.176359   -0.0695911     0.021732    0.0229233    0.0615802    -0.278162   -0.0526631   -0.0434666     0.106051     0.128368     0.151975    0.0623498   -0.0989383   -0.0871683   -0.0720395   -0.0895407   -0.0938339     0.172752    0.0347839    0.0727316   -0.0753143     0.130426    -0.124928   -0.0421425      0.11927     0.096335   -0.0289878    -0.274868   -0.0782012     0.141668   -0.0908114   -0.0535372    0.0546899    0.0141563     0.104802     0.112168    0.0712956    -0.123802   0.00335097     0.210952    -0.149425    0.0900729     0.105681    0.0165623     0.216231    0.0206563   -0.0277308    0.0921039    0.0437746    -0.108783    0.0688683    -0.234529    0.0678211     0.191693      0.27652    -0.013328    -0.222995   -0.0935938   -0.0657129     -0.12681   -0.0569038    -0.177178   -0.0843266   -0.0721011    -0.166724     0.197691     -0.18555    0.0405143   -0.0564525    -0.076318    -0.005692   -0.0105711   -0.0499301     0.176699   -0.0914022     -0.05762     0.138694     0.127579    0.0462827    -0.196959    0.0437202    0.0246564    0.0510429     0.157471    0.0855719    0.0556554   -0.0882224    -0.003555    0.0863165    0.0608313    0.0637985    -0.215687    -0.447894    0.0503113
  -0.0408683   -0.0577365  -0.00879848   -0.0222664   -0.0556141    -0.160813   0.00376085     0.103444    0.0574676     0.267279    -0.166858      0.11354    -0.113898    -0.068026    0.0304567     0.138071    0.0272462    -0.130776    -0.172707    -0.122656     0.142999    -0.162422  -0.00578255     0.184592   -0.0971727    -0.134345   -0.0935433    -0.119783   -0.0103416   -0.0119532     -0.01297    -0.150377    -0.201317    -0.105334    0.0156637      0.12449    -0.155073    0.0353571     0.144893     -0.04179    -0.148826    -0.301788    -0.142573   -0.0867201    -0.117175    -0.241877    -0.138671   -0.0129286     0.091914   -0.0480066    0.0709624   -0.0219656    -0.119598     0.146976    -0.162821    -0.105571    -0.116605    -0.169358     0.110524     0.152192    0.0447679    -0.132219     -0.14872   -0.0668861   -0.0149387    0.0862002   -0.0498551    -0.041005   -0.0761587    -0.240911   -0.0165338     0.106863    0.0449277   -0.0506153   -0.0597192   -0.0897769    -0.201443   -0.0493827   -0.0926492     0.028338  -0.00730687   -0.0481554    -0.114099   -0.0861639    -0.161589 -0.000231607     0.303421     0.287711   -0.0391797     0.198388    0.0169791    0.0519833   -0.0480605    0.0723747   -0.0470675    -0.173689    -0.221714   -0.0764795    0.0858276   0.00802164    -0.003247    0.0978058    -0.009347     0.167125    0.0964788   -0.0618673    -0.202325   -0.0465461   -0.0779489    0.0351994     0.318386     0.123302     0.247611    0.0354639    0.0638035    -0.147887    -0.132554     0.145957   -0.0735799     0.143962   0.00992989   -0.0298087    -0.243902     0.167241
   -0.291526    0.0758647    -0.157242    0.0651237    0.0889466   -0.0721252   -0.0692084   -0.0213323    -0.108448    0.0330802   -0.0871493    -0.267223   -0.0415032     0.069224   -0.0537134       0.1442    -0.109277    0.0719405    -0.139551    -0.121994    0.0787627    0.0135204    0.0614283   -0.0491127      0.19766    -0.143042     -0.13717   -0.0483217   -0.0995649    -0.028185    0.0557228    0.0693882     0.179339    -0.236425   -0.0453215    0.0362197    0.0425366   -0.0698135    0.0582513     0.305998    0.0390052   -0.0792276    0.0927734    0.0653253     0.127196    -0.542569    -0.143121   -0.0518814   -0.0366764     0.269012    -0.259955    -0.288388   -0.0564133   0.00872409    -0.146843    0.0343713    0.0676857    0.0364182     0.235909  -0.00325153    -0.163962     0.243908  -0.00105957    -0.175524    0.0530929    0.0979089    0.0515929    -0.067282   -0.0876795     0.261332    -0.149345      0.06843     0.125119     0.145682    0.0513374  -0.00730125    0.0516078   -0.0842353    -0.326466    -0.155177    0.0330748   0.00067915     0.277936    -0.201976      -0.1538   -0.0194666     0.141648    -0.177224   -0.0152256     0.125704    -0.154618    -0.195477    0.0868599    -0.059005    -0.158443     -0.08572     0.217208    -0.266611    0.0586217     0.143915    0.0581803    -0.100583     0.341996   -0.0403958    0.0907882    -0.172179  -0.00146993    -0.134471    0.0524242    -0.312098    -0.156417   0.00725145    -0.163097   -0.0166998  0.000408228   -0.0789479    0.0986997   -0.0486831    0.0195224     0.149605   0.00941698    0.0912632     0.361972   -0.0401493
   0.0866901    -0.161165    0.0224392     0.028209    0.0913508     0.203632    -0.200465    -0.182769     0.128562   -0.0782994   -0.0778047    0.0497302    -0.085908   -0.0334911    -0.141735    0.0838734   -0.0720598    0.0715851    -0.134851    -0.125245    0.0376773     0.168826     0.100673    0.0128629   -0.0685975   0.00903501     0.100562    -0.017171     -0.17554    -0.262541     0.165438   -0.0962272    0.0468854     -0.21271     0.100986     0.114163    -0.179593   0.00188578   -0.0632389    -0.115642   -0.0585971    0.0233608     0.111531    -0.211918    -0.003001      0.17646   -0.0252844    -0.046958   -0.0472317    -0.048047   -0.0433774    0.0574075  -0.00772244    -0.162214    -0.130658    -0.144569   -0.0462123    0.0459525     0.132971   -0.0231891    0.0871716  -0.00662679  -0.00259649    0.0677927     0.127835    0.0510393     0.103407     0.121011    -0.217797     0.306804     0.165072    -0.245915   -0.0567163    0.0393256    -0.166455    0.0687456     0.021555   -0.0582989   -0.0781061    0.0792722    -0.112088      0.12246   -0.0248025   -0.0142487    0.0295077     0.204293     0.146554   -0.0766687     0.357846   -0.0533968   -0.0872294   -0.0153385    0.0588507   -0.0482975     0.192816    -0.256152    -0.139069    0.0578972    0.0579001    0.0534762   -0.0702221    -0.303775    0.0761916      0.10242     0.155271   -0.0450276    -0.113892     0.080732     0.181982   -0.0296575    -0.206662     0.158632   -0.0730545     0.155963    -0.165431     0.217396     0.166884     0.132835     0.192838    0.0757982    0.0407505    0.0703908    -0.128837    0.0376045
   -0.107375   -0.0876978    0.0623787    0.0257844    -0.183801    -0.146485    -0.125036   -0.0214706   -0.0293445   -0.0579625     0.139367    -0.133915   -0.0721363    0.0132423    0.0127239    -0.015074   -0.0806396   -0.0247727    -0.145098    -0.188355    -0.020089   -0.0834412    0.0018508   -0.0165344    -0.198197   -0.0811823     0.132111   -0.0603599   0.00853506    -0.103357    -0.267125    -0.201531    0.0160012  -0.00960808     0.157766    -0.178252    -0.104186   -0.0674719    0.0707392     0.184873   0.00458978    -0.235584   -0.0902171   -0.0485616   -0.0197453     0.219982     0.100061    -0.270791    0.0748953     0.152546    0.0800616     0.028035    0.0360883   -0.0607386    -0.271029   -0.0745454    -0.204549   -0.0855473     0.109547  0.000797952    0.0232369     0.180801    -0.108955   -0.0911239   -0.0168374     0.155407     -0.32336     0.116349    0.0579372    -0.214626     0.127734     0.256774     0.147422    -0.048437    0.0899404    0.0436364     0.197705     0.236273    -0.292439    0.0621998     0.177316    -0.120132    -0.113565     0.207692    -0.106006    -0.006392     0.116306   -0.0369799    -0.158181    -0.115865    -0.153476   -0.0437223     -0.17011    0.0372339     0.186993   -0.0102012    -0.213537    0.0414723    0.0372977     0.143043   0.00492807    0.0732526     0.209058   -0.0581926    -0.119015   -0.0315755    0.0807458    0.0555591    -0.245905     0.332016      0.14571    -0.166889     -0.23447   -0.0374691    -0.154766   -0.0774013     0.118102     0.180301 -0.000171566    -0.106644    0.0974096    0.0534444   -0.0464538    -0.164731
   0.0154456     0.109482   -0.0473101   0.00959635   -0.0191982    0.0613461    0.0950017    0.0754655    -0.180537    -0.177108     0.114844    -0.171034    -0.113214     -0.10088    -0.114428    -0.115541   -0.0631346     0.122376     0.022551   -0.0760397    -0.142078    -0.293464   0.00116369    0.0961984   -0.0796718   -0.0234057   -0.0256033    0.0584588    -0.084859     0.013717     -0.02371    0.0934832    0.0016142    0.0942378  -0.00547128   -0.0137272    0.0474941    -0.179127    0.0654817     0.145825    0.0779791   -0.0500702   -0.0191471   -0.0831231  0.000787888     0.128831     0.109676     0.230806     0.199181     0.164206     0.186118      0.27736    0.0763963   0.00831264   -0.0263612    -0.172986   -0.0953438    -0.061369     0.247128    -0.043316    0.0451673    0.0135701     0.126449    -0.115116    0.0683389   -0.0360112    -0.159661   -0.0196362   -0.0517515    0.0178328    -0.106819    0.0263495    0.0392304   -0.0329848   0.00473873    0.0393243    -0.100671    0.0217022    0.0522268    -0.176619     0.194399    -0.154171    0.0880425    -0.040582    0.0295793    -0.079268   -0.0773666     0.120878    0.0753851   -0.0758085   -0.0893293     0.125304   -0.0624974    0.0214053    -0.113943    -0.205333   -0.0396526    -0.148615   -0.0468263   -0.0850211    -0.041223    0.0156979   0.00858102    0.0878475    -0.174585    0.0596378   -0.0204173    0.0470973    0.0733831    0.0641506   -0.0180392     0.249006     0.202416    0.0837853   -0.0653818     0.119712   -0.0513413   -0.0233147  -0.00313864    -0.102679     0.162513     0.115157    -0.113827     0.206007
  -0.0772239    0.0298783   -0.0801106    0.0677612     0.108094      0.15957   -0.0635436   -0.0583094    0.0256274    0.0943665     0.136712   -0.0167286     0.286469    0.0564531    -0.268188    -0.363821     -0.02398    0.0045858   -0.0572193   0.00657416    -0.075332     0.171978     0.104938   -0.0855041   -0.0890737     -0.20569    0.0374807    0.0265193     0.158671    0.0409139    -0.257694    -0.211632    0.0349215   -0.0802443     0.152149    -0.082362     0.141314   -0.0764164   0.00178627    -0.297192     0.062343     -0.13468    -0.208449   -0.0491079    -0.176609    -0.295666    0.0916292    0.0526013     0.116239    0.0142125    0.0285577     0.117845    0.0817585    0.0601248     0.103276  -0.00598243    -0.191892   -0.0873117    -0.219194   -0.0989745    0.0875705    -0.171059    0.0432821    0.0570922    -0.175114    0.0236961     0.100724    0.0462959    0.0902324    -0.103769    -0.073526    -0.141813    -0.237748 -0.000681678    -0.115593   -0.0281007    -0.205996    -0.162749   -0.0440527    0.0124686     0.026688    -0.140867   0.00581596  -0.00146395   -0.0565816    -0.168046    0.0418735  0.000789026   -0.0518639    -0.144297    -0.103451      0.20195    0.0822978    -0.067245  -0.00521627    -0.062759    -0.113529   -0.0127446    0.0175794    0.0626536     0.248349    0.0652136   -0.0687739    0.0343047     0.233696    -0.122072    -0.127978    -0.298441   -0.0454782     0.146938   -0.0113023    -0.193376    0.0737896    -0.122498    -0.138878    -0.120606    0.0386165    -0.223142   -0.0577755     0.252727    0.0126142    -0.179273   -0.0387112    -0.010785
    0.109117     0.133191    0.0118381     0.157632     0.134324    0.0462568   -0.0669061    0.0240583  -0.00477818   -0.0138963     0.231314    -0.166581    0.0641698     0.232933     0.373856     0.102818     0.121185   -0.0835408     0.041716     0.108696   -0.0428324   -0.0668105     -0.22777    0.0334123      0.19151   -0.0829052     0.165696   -0.0979792   0.00986198     0.097286    0.0964726   0.00852161    -0.137265    0.0509503   -0.0961829   -0.0128677   0.00557763    -0.228889     0.158138    0.0380974     0.176706    -0.285415   -0.0388857    0.0131257    0.0265538   -0.0565207    0.0277703    -0.308305    -0.165087     0.111889     0.147985   0.00514926    -0.020766     0.167919   0.00503304    -0.161166   -0.0588454   -0.0350005     -0.13379   -0.0201218   -0.0513421    -0.193008    0.0485275    0.0663025   -0.0109664   -0.0503476   -0.0380292     0.156123     0.103043   -0.0677098     0.157402    -0.201063   -0.0672975    0.0593029    -0.054543    -0.012818   -0.0401481   -0.0879913    0.0864482    0.0790147    0.0992266    -0.148377     0.190293    -0.115125   -0.0690049  -0.00958233    0.0607682    -0.232684     0.150135   -0.0240505     0.118245     0.187249     0.086323    -0.170426   0.00655684    0.0681709    -0.018762     0.321608    -0.139357    -0.286453     0.130352   -0.0541934    0.0519113     0.144606    -0.406963   -0.0368374       0.1906    -0.103316   -0.0647076   -0.0778504     0.136838    -0.189553    0.0609497    -0.191498       0.1567   -0.0802265    -0.136007     0.157863    -0.072331    0.0221173    0.0310026    -0.250192    0.0906094    -0.180176
   -0.140613    -0.106328    0.0759815   -0.0432645   -0.0921016   -0.0250232     0.103401    0.0667004     0.196693     0.194169     0.114438    -0.168422     0.115571   -0.0962119    0.0266043    0.0591618   -0.0172757   -0.0361719    -0.117183     -0.15983    -0.166117    0.0524338    -0.026893     0.107299     0.221585    0.0253549    0.0740615    -0.133121   -0.0386866    -0.147382    0.0430451   -0.0414472    -0.113435    -0.160749   -0.0459281     0.113424   -0.0282153    -0.121776     0.123532    0.0446757    -0.244901    -0.148758    0.0236915   -0.0196685  -0.00363083     0.178879  -0.00856304    -0.122309    0.0208034    0.0341722    -0.100315    -0.196142     0.043749     0.232035    0.0541067   -0.0773858    0.0616608    0.0792966     -0.12151    -0.145284    -0.199582   -0.0914214   -0.0837896    0.0464787   -0.0866843    0.0333746     0.161902    0.0205091    -0.071838     0.127854   -0.0303713   -0.0589316    0.0338895   -0.0400932    0.0784056    -0.118782     0.094058    -0.107123    0.0982274     0.114134     -0.18423    0.0638783     0.135904    0.0162337    0.0312859   -0.0632235    0.0519486   -0.0228995   0.00916687      0.10254   -0.0464734   -0.0296886     0.158357     0.113162     0.115789    0.0216925    0.0310907   0.00950269    0.0460325   -0.0209525    0.0921979     0.135063    -0.168818     0.151967     0.118492     0.058767    0.0805732   -0.0355669   -0.0238873    -0.058417    0.0460195    -0.118752     0.245233   -0.0942772    0.0698036     0.108983    0.0591082    0.0366528   -0.0765983   0.00586415   -0.0534668    -0.123945    -0.188496    0.0144308
   0.0345236    -0.117463     0.093194  0.000231735    -0.051922    0.0111163    -0.127419    -0.133984   -0.0392705    -0.048182     0.268026    -0.184605     0.140665    0.0181738    0.0642783    -0.198545   -0.0333343    0.0171923     0.167592    -0.223722    0.0943653    0.0761644   -0.0661917   -0.0208153     0.359881   -0.0868614     0.165175   -0.0634373     0.161419     0.202919   -0.0297228    0.0579687   -0.0176549   -0.0390114    0.0485988   -0.0853165   -0.0600268    -0.169323   -0.0312919   -0.0250407   -0.0398684    -0.428956     0.120791   -0.0218224    -0.245075    -0.117131     0.126194    0.0351111  -0.00758228     0.133248   -0.0809617   0.00478079    -0.166159   -0.0357761     0.150684   -0.0197325    -0.164095    0.0716053    0.0338795    -0.139551   -0.0477646    -0.201395    -0.165722     0.129757   -0.0663592    0.0813303      0.14003    -0.017187    0.0348647    0.0228292    -0.131362    -0.404174   -0.0563614     0.010165     0.130565  -0.00991728   -0.0812746     0.140544    -0.086008     0.139872   -0.0682757     0.150629   -0.0504178    -0.200171   -0.0617004    0.0342423   -0.0704569   -0.0287412    0.0408298    -0.111673    -0.249085    -0.174023    0.0195011   -0.0779278     -0.12511   -0.0404746   -0.0268265    -0.136404     0.110272    -0.144411   0.00603528    -0.189727    0.0892715     0.128411     0.115765   -0.0259026    0.0826399    0.0761073     0.172962    -0.266164    -0.238287    0.0552556  -0.00840108     0.122757   -0.0589892     0.250122   -0.0142296   -0.0210455     0.160908    -0.176009     -0.18203   0.00511518    -0.104943    0.0810327
   -0.208442     0.165342     0.222718   -0.0639268    -0.125316     0.125659    0.0554511    0.0774667    -0.123826   -0.0125611     0.153912    0.0655135    -0.106467  -0.00774503    0.0791332    0.0226168    -0.162636    0.0862538   -0.0810668    -0.199751    -0.269126   -0.0286535   0.00771874     0.117176    0.0581748     0.153018     0.135758    -0.189242     0.265515    0.0797258   0.00207875  -0.00637923    -0.013355    -0.335669    -0.321288     0.370882    0.0438833    -0.183985    0.0920002    -0.242843    -0.278432    0.0501932     0.121643   -0.0736814    -0.147623    0.0449954  -0.00159743     0.309736    0.0036983    -0.186082   -0.0278115     0.110141   -0.0807448    0.0531463    0.0581452     0.178423    0.0148231    -0.406728     0.127019    0.0881107   0.00386238     0.055683     0.241321    0.0275151    -0.042317     0.189205    -0.113859   0.00866748    -0.234932    -0.019341     0.013867     0.148409    0.0939723    -0.337028    0.0188083     0.181545    0.0125778   -0.0688339    -0.120393   -0.0993773    0.0353348   -0.0612723    0.0190811   -0.0164497    0.0880475   -0.0613824   -0.0212336     -0.14475     0.160056    -0.142686   -0.0450277     0.208064   -0.0290083     0.164029     0.102807   -0.0838937    -0.208204    0.0957172   -0.0299734    0.0275481    -0.143748    -0.175734    0.0426174   0.00633344    0.0526973     0.105963   -0.0435404    -0.161893   -0.0118304   -0.0963389    0.0849096    0.0314025   -0.0639408  -0.00466362   -0.0554575     0.238332     0.127411    -0.122767    0.0220469   -0.0562264   0.00521738    0.0415911     0.253979   -0.0448962
    0.193746    0.0914426    -0.150591   -0.0674591    0.0857718    0.0954984    -0.108501   -0.0363565   -0.0374778   -0.0307329    -0.111614     0.086958   -0.0266004    -0.095651    -0.204976   -0.0120039    -0.160555    0.0703856    0.0685894     0.153065   -0.0617089   -0.0917004   -0.0424362    -0.066065    -0.138984     0.099494     0.075853   -0.0726116 -0.000400132      0.12909     0.013641    -0.123955   -0.0851872   -0.0490444    -0.150046    0.0114452    -0.172532    -0.110328    0.0240602    -0.155633    0.0190423     0.142544    0.0467948    0.0788248 -0.000885447    -0.050335    0.0531569    0.0974359    -0.228772    0.0324984     0.063306     0.013167     0.215623    0.0996367   -0.0608323  -0.00868703     0.103862    0.0770701     0.104584    -0.194241     0.133595     0.164574    0.0782963   -0.0874746   -0.0771769     -0.09509    -0.102111    -0.130968   -0.0326572    -0.112183    -0.158769   -0.0375627    0.0994743     0.114789    0.0779364     0.131937     0.123517   -0.0275683    -0.341213    0.0552864    0.0478262     0.153127      0.27655    0.0652583    -0.148459     0.115823    0.0504207   -0.0413901  -0.00620506    0.0986937     0.126457    0.0143132  -0.00350804   -0.0247775   -0.0633882    0.0758061    -0.233421    -0.138684    -0.146176    -0.301606   -0.0683251    0.0304853   -0.0564183   -0.0557546    0.0870636      0.16205     0.131566    -0.167919      0.07002    0.0111351   -0.0223855     0.210758   -0.0704873   -0.0813004    0.0750519    0.0929584      0.16608     0.194803    -0.141275    0.0613013     0.128084    -0.148729    0.0373975    0.0783389
    0.025516    -0.234657    -0.016461    0.0312696   -0.0729504  -0.00354407  7.91522e-05   -0.0107124    -0.122254    -0.154536      0.24579     0.116772   -0.0853849   0.00648417   -0.0205906    -0.237804    0.0838581     0.352159   -0.0190246   -0.0375236     0.230299    0.0849901     0.130935    -0.105299     0.116968   -0.0627164     0.274701     0.139689   0.00597734   -0.0583698   -0.0243706   -0.0805925     0.162857    -0.102354   0.00353832    0.0157414     -0.34826     0.159435    -0.074593     0.050849     0.141126     0.066925  -0.00577591  0.000339599   -0.0468047    0.0795669  -0.00390381   -0.0195357    0.0687736    0.0598204   -0.0572008    0.0766609   -0.0897514    0.0633931   -0.0416172   -0.0163059     0.102538    0.0958975   -0.0696365     0.228954     0.294767   -0.0809079  -0.00473649    -0.278007    0.0577094    -0.327406    -0.160698    -0.157209   -0.0526843    -0.100625   -0.0713103   -0.0768718   -0.0336375     0.049406    0.0681936    0.0957367    -0.127144    -0.129441     0.200964    0.0382344    0.0197602    -0.177746    0.0588245   -0.0500939   -0.0831867    0.0283067   0.00472902   -0.0174534   0.00311622    0.0573871     0.236468  -0.00541831   -0.0339271     0.197135    0.0841254     0.128614   -0.0586961    0.0688477   -0.0307278     0.177494     0.192587   -0.0802697     0.132482    0.0792707    -0.237209    0.0873484   -0.0163892    -0.106139   -0.0202583    -0.137194    0.0177614   -0.0288063     0.167122    0.0295962   0.00143173   -0.0449285   -0.0101632     0.135397    0.0349509    0.0339534   -0.0377617     0.264547    0.0725423     0.053421
 -0.00396684     0.117721   -0.0878266    -0.242621   0.00766532   -0.0982603    0.0760982   -0.0230575     0.177064     0.191211    -0.165906   0.00936634   -0.0771972     0.181682    -0.114981     0.017731    0.0364275    -0.188804   -0.0676752    0.0818832    -0.185615   -0.0940562   -0.0160212    -0.184443   0.00698016    -0.101162    0.0659228  -0.00361573  0.000445677  -0.00926714     -0.10215    -0.118452   -0.0138161   -0.0164298    0.0570786    0.0561853   -0.0309253     0.145244    0.0816853     0.147456     0.138753    -0.290748      0.14794    -0.111318    -0.012514   -0.0832586    0.0191125   -0.0270964   -0.0218925   -0.0296524    0.0154183    -0.125619     0.111362    0.0485915    0.0351764    0.0872703     0.134757    0.0665125     0.104262    -0.129423     0.109927    0.0236589  -0.00283959    -0.167017    -0.119066     0.092318    -0.163685   -0.0875754   -0.0448351    0.0626063    0.0732238    0.0899397    0.0222384    -0.100269    -0.235539    0.0323299    0.0607668   -0.0243159    0.0587893   -0.0122069   -0.0556505      0.16272   -0.0949482     0.031667    -0.100971    -0.104951    0.0196302    0.0694939    -0.279054     0.315431     -0.25223    -0.138241    -0.161189    -0.116187    -0.145889   -0.0514023     -0.12127    -0.105125  -0.00686534    -0.094939     0.093909     0.135053    -0.175997   -0.0671035   -0.0697592    -0.191174     0.176575  -0.00462875    0.0523694      0.34156    0.0869371    0.0325622    -0.109876   -0.0352429   -0.0673707    -0.183992    -0.049733   -0.0484678    -0.111023    0.0712263     0.201105    0.0223203    0.0443804      0.05357
  -0.0911457    -0.161615    -0.112736    0.0937837   -0.0549503    -0.237436    0.0769612   -0.0969087   -0.0546833   -0.0153681   0.00197999   -0.0374558     0.048211     0.118094    0.0727019   -0.0302926    -0.119869   -0.0636959    -0.017238     0.024807    0.0356646    -0.227799    0.0511465    0.0956646     0.130019     0.105458    -0.116145     0.127821    -0.112723    -0.119844     0.167556  -0.00533392   -0.0143734     0.121449    0.0771642     0.124113     0.147081     0.275404   0.00723266    0.0968774    0.0547058   -0.0611048   -0.0781798 -4.83501e-05   -0.0235049    0.0123533    0.0267728    -0.170499   -0.0987485    0.0279536    -0.110952    0.0226446     0.150585    0.0350068    -0.215914   -0.0564692   -0.0502927   -0.0809752     0.324613    0.0447555    0.0586027    -0.114092    -0.116134    0.0853297  -0.00744631    -0.137364    0.0079973   -0.0470443     0.124666   -0.0792375   -0.0877085     0.156176     0.231923     0.125991    0.0236031   -0.0413476    -0.159629    0.0365221    0.0460932   -0.0713354   -0.0894468     0.125947    -0.167476    0.0548448      0.01292     0.151581    0.0863737    -0.105571     0.103662   -0.0618298     0.265412  -0.00336758    -0.131933    -0.121132    -0.107577    0.0449014    -0.179683    -0.106274    -0.012019    0.0758611    -0.234377     0.238144   -0.0158278    -0.096878    0.0732273   -0.0936931    -0.141596    -0.333025    -0.168943   -0.0581086    0.0341013    0.0276123    -0.265556     0.022731     0.149105     0.142531     0.121691    0.0511439    -0.147198     0.110363   -0.0569107   -0.0449303    0.0706241     0.152041
   0.0663816  -0.00787062   -0.0725332    -0.150473    0.0152583    -0.177622    -0.264482    -0.251833    0.0451553    -0.293086    0.0891864    -0.199288    0.0025398   -0.0376424   -0.0596223      0.14988    0.0917812    0.0618242    -0.110714   -0.0783392     0.132487    -0.194052    -0.003933    0.0280085   -0.0757433     0.225196   0.00976721    -0.208145     0.171655    0.0656043     0.026076    0.0791763     0.282421     -0.23763   -0.0825366     0.232875    -0.121487    0.0710832    0.0907968   -0.0280953    0.0439692    -0.118649      0.22185  -0.00441838   -0.0148079   0.00441496    -0.125802     0.028016    -0.082649   0.00204573   -0.0376247    0.0292352     0.014527    -0.118478   -0.0805235    -0.106447   -0.0490181    0.0295744     -0.01454    0.0867624     0.073697   0.00582022   -0.0299674   -0.0617094    0.0735329    -0.101601    0.0578416   -0.0980403     0.181571  -0.00964522   -0.0693004    -0.253886     0.105869     0.190457    0.0775824    0.0324634    0.0552297  -0.00141284   -0.0857033     0.239554  -0.00269691    0.0816323    -0.147106    -0.104364   -0.0374276    0.0604257    -0.106662   -0.0663475    0.0779853     0.113868     0.167529    0.0790154  -0.00409125    0.0774847     0.105324   -0.0341925    0.0610125   -0.0531634    -0.182091   -0.0881286   -0.0287569  -0.00349184    0.0831257    -0.264027     0.235026    -0.167318    0.0871978     0.106795     0.227324   -0.0100639    -0.101169    -0.216292     0.173229   -0.0709169    -0.267374  -0.00213128    -0.171658    0.0669168    -0.020181    0.0363247     0.237352   -0.0901892    0.0488928    0.0503113
   0.0286209    0.0871251    0.0297193   -0.0379729     -0.23218     0.116517     0.152118    0.0178633      0.13163     0.158686   -0.0877539   0.00080342    0.0673777    -0.053818    -0.182573     0.205994    0.0398864     0.201008   -0.0607617    -0.153475   -0.0260276    -0.131764   -0.0211103      0.26243    -0.189292    -0.125892    0.0475527    0.0876302    -0.166189   -0.0264548    -0.102613    -0.105767     0.140891   -0.0567292    0.0181846   -0.0213362   -0.0832566     0.176787     0.301863     -0.09626    -0.315281    -0.323186     0.033455   -0.0639051     0.198826   -0.0613692    -0.111478   -0.0203028    -0.391407    0.0188302   -0.0644711    0.0347678   -0.0894651    0.0951445    0.0339375    -0.185286    0.0329203    0.0951637     0.138807    0.0750128   -0.0222399  -0.00578485     0.112349  -0.00365959    -0.121753     0.151473    0.0377545   -0.0138008      0.17898   -0.0760549    0.0422934  -0.00551085    -0.024969   -0.0155805   -0.0781107     0.103799    -0.126433     0.034843   -0.0955816   -0.0765059     0.155631  -0.00740954     0.142304    0.0157211     -0.23886     0.155211   -0.0895389     0.168644    -0.103944     0.135539    -0.199269    0.0755095    -0.111837    0.0345766    -0.184916   -0.0445644     0.168515   -0.0602095    0.0340836   -0.0628741     0.146124     0.089718     0.276447   -0.0249105    -0.036443     0.245002   -0.0753117     0.170267    0.0136345     -0.13159     0.131939    0.0143904    0.0685989     0.193402     0.299722     -0.12957   -0.0476844    -0.137954   -0.0862717   -0.0551549   -0.0992926     0.133243    0.0219707     0.121306
   0.0651966    -0.235714   -0.0905935  -0.00108281   -0.0521717    0.0485446    0.0841592    -0.139918      0.12426    -0.114766    -0.209384   -0.0201771    0.0563968       0.1889      0.20499     0.283785    -0.123787    0.0635387   -0.0615456    -0.254681    0.0658333    0.0164248     0.100052   -0.0839629    0.0842017   -0.0470226    -0.106682    -0.118696    0.0268593    0.0942099    0.0238669   -0.0638274    -0.137982     0.149667     0.176844    0.0150976     0.213277   -0.0475855    0.0130598     0.163147    -0.112172    0.0399301    -0.114841   -0.0703206    0.0972761   -0.0643762   -0.0454028     0.213054    -0.199016    0.0215286     0.327591  -0.00869207  -0.00207287    -0.227855    -0.228226   -0.0304913    0.0810644    -0.143457    -0.208591    0.0400007    -0.292507    0.0271361    -0.169963    -0.136374    -0.106072     0.232043   -0.0742709   -0.0674236   -0.0161212   -0.0368697   -0.0155094    -0.198754   -0.0862443     0.347497   -0.0879561     -0.01285     -0.13052     0.230743    -0.115859   -0.0948128    -0.135882     0.195603    -0.159387   -0.0847102   -0.0982514   -0.0516357    -0.100754    -0.109791      0.20964     0.116192    0.0887009    -0.127501   -0.0455748     0.104153      0.16769     0.220798    -0.020056    -0.141125     0.196758   -0.0321025    0.0157329    -0.176087    -0.331219    -0.036858   -0.0363203    0.0460656    0.0335831   -0.0902685    0.0601225     0.157142     0.225496    0.0783756   -0.0615089     0.100898    0.0572951   -0.0064596     0.018326    0.0449904    -0.130978   -0.0198311    0.0652587   -0.0131004   -0.0218833   -0.0710008
   -0.158263     0.216514    0.0986899    0.0506383     0.204483    -0.277246    -0.161419    0.0737505    -0.101072    -0.308653    0.0999452   -0.0244321   -0.0370087    -0.116474    0.0525385    -0.154538     0.122876    -0.145979   0.00841348     0.119379      0.13331   -0.0295989   -0.0259222    0.0646331   -0.0398591    -0.139195   -0.0522748    -0.129812    -0.151514     0.190593   -0.0752236    0.0100884      0.16013    -0.126205     0.215316   -0.0756149   -0.0526105   -0.0675974      0.18349   -0.0989285    0.0302535     0.124098   -0.0955743  -0.00113332     -0.18868     0.152842    0.0190012     0.035313     0.204784    -0.109622    0.0139029     -0.40872    -0.104133    0.0490166    0.0432192   -0.0651624     -0.14961   -0.0752437    0.0970187    -0.102611    -0.106734     0.109301     0.171921     0.036923    0.0659768    -0.078458      0.11333   -0.0872087      0.14216   -0.0136114     0.153072    0.0147323    -0.035011    0.0795186   -0.0679634    -0.212177    -0.161408   -0.0280803      0.22687   -0.0642165    0.0239734     -0.20235    0.0892976   -0.0315793   -0.0624699    0.0836297     0.210621    0.0849609    -0.210114     0.218856      0.02733     0.196426     0.284862    -0.110435       0.1102    -0.183384    0.0886146   -0.0146602  -0.00846334    -0.161016     0.066088    -0.143354    -0.224328   -0.0161949     0.043504    0.0823841   0.00915754   -0.0778143   -0.0653729     0.147833     0.131843      0.27887   -0.0231471     0.263765    -0.224944    -0.142265    0.0120404    0.0781625    -0.106077     0.147519     0.101482    -0.160766     0.265881    0.0246108
  -0.0114208     0.146944   0.00116906    0.0119046    -0.234298    0.0957313   -0.0572776   0.00984706    -0.100093     0.110373   0.00110525   -0.0531518    -0.104012     0.272691   -0.0391484    -0.132633    0.0273004    0.0346488    0.0109509     0.147724    0.0303924   -0.0456185    0.0835847    -0.176884   -0.0623165   -0.0952259   -0.0180839    0.0605439    0.0424201     0.117636     0.154907    -0.100552    -0.008144   -0.0340136     0.159825    -0.147845    -0.128271   -0.0159521 -0.000860375   -0.0625931     0.181487     -0.20322     0.123408    -0.118114     0.061723    -0.116621    -0.185661     0.242302    -0.172772     0.209633    0.0716333    -0.139209    0.0167934    0.0621674    0.0758438    -0.119464    0.0183538    -0.056089   -0.0159442     -0.07046   -0.0767147   -0.0832061    0.0155376      0.18273    -0.287991   -0.0989595     0.153938      0.18201   0.00751934    0.0721652    -0.021885    -0.040556    -0.274902    0.0748252   -0.0597299    0.0812613     0.215297      -0.1541  -0.00645702     0.068828   -0.0175889   -0.0691866    0.0318034   -0.0589776   -0.0282304     0.118683     -0.10886      0.10752   -0.0800479     0.122787    0.0552473    -0.264557    -0.265843   -0.0669981   -0.0452648  -0.00529774      0.11071    -0.317699    -0.145762   -0.0130848     0.101851      0.32802  -0.00823899   -0.0174243   -0.0260018    -0.116016     0.140884    -0.068695     0.155754     0.191904    -0.248712     0.129181    -0.160784    0.0927854   -0.0151344    0.0113787      0.14651    -0.210143    -0.174948    0.0931145      0.15602     0.077051   -0.0929954    -0.073263
     0.17092     0.134343    0.0619472   0.00147013    0.0570588    -0.119906    0.0441499    0.0921682   -0.0519286    0.0754801  -0.00461872   -0.0192103    0.0448727    -0.137886    0.0793804   -0.0123171     0.131727    0.0746503    -0.167925    -0.115339    -0.078152    -0.245831    -0.125878    -0.195531   -0.0479444     -0.15747   -0.0451697     0.106909     0.237899     0.189846     -0.10117    -0.155601     0.019506    0.0173721   -0.0776939    -0.033867   -0.0613668     0.265978   -0.0666171       0.1431    -0.125962    0.0156207   -0.0102265    -0.102206   0.00699418   -0.0413464  -0.00879348   -0.0013654     0.181725   -0.0533477     0.199582    -0.122795    -0.134612     0.149303    -0.397969     0.193566   -0.0977169   -0.0166712     0.150669    -0.105741    -0.177763    0.0442224    -0.166644   -0.0226556   -0.0796337    0.0498621     -0.20288    0.0111729    0.0373353    0.0815323     0.048216     -0.17684   -0.0937613    0.0849074    0.0164115    0.0183685   -0.0188512   -0.0873819    0.0966212    -0.116407   -0.0848158    0.0308785    -0.126579      0.35091     0.189469    0.0425903    0.0865655    -0.186119    -0.255648    0.0901233     0.113712   -0.0844326     0.204751    0.0692972    0.0763578    0.0774432    -0.169929    0.0057969   -0.0163803    0.0972776     -0.34684    0.0540715   -0.0718337    -0.122973    -0.277364    0.0333144    0.0401029   -0.0631515   -0.0209808    0.0589074   -0.0634645   -0.0114404   -0.0739256   -0.0261333    0.0707247     0.188517   -0.0710667    -0.223349    -0.107557    0.0173402     0.142795   0.00344168     0.158796    0.0285233
   0.0694703    -0.174945   -0.0252611     0.136756   -0.0340823   -0.0603647    -0.411578     0.159684   -0.0369098    0.0172687   -0.0828104  -0.00631426    0.0181672   -0.0486303    -0.193418    -0.247373   -0.0807847     0.180761    -0.174736    -0.143809    -0.169556  -0.00657978   -0.0560036  -0.00224086    0.0632613    -0.123054    -0.163006   -0.0591769   -0.0150073    0.0676137    -0.067224   0.00340115     -0.15849    -0.158271   0.00263185   -0.0464409    0.0256833     0.131671   -0.0638911    0.0324218    0.0302771     0.117328    -0.158748    -0.102323    0.0975732     0.122895  -0.00257642  -0.00399436    -0.187077   -0.0220908   -0.0679634    0.0543928   -0.0146414    -0.349105     0.110871    0.0933321   -0.0353766   -0.0221729    -0.122561   -0.0826421    -0.070528   -0.0820329    0.0175146    -0.222524   0.00907081     0.055521    -0.058546   -0.0382655   -0.0679551    -0.080152    0.0794263    0.0438335   -0.0673223   0.00820429    -0.102977   -0.0317378    0.0171925    0.0724166   -0.0331371    -0.106364    -0.346049   -0.0651902  -0.00948499    -0.222859   -0.0510748   -0.0988507   -0.0923009    0.0312991   -0.0096505    0.0903492    -0.197341   -0.0600385    0.0308853   -0.0187069      0.23344    -0.135054   -0.0332844    -0.153392     0.117581    -0.185737     0.128209   -0.0829974    -0.120012   -0.0603231    0.0396913    0.0856948     0.118425    0.0100139    -0.205785   -0.0364857    0.0286123  -0.00401054    0.0843807    0.0585924     0.142126   -0.0618158     0.152204     0.265982     0.035571     0.125324    0.0290852   -0.0512564    0.0378296   -0.0212813
   -0.280257    -0.086868   -0.0566064    0.0299714    -0.105829     0.217208     0.369727    -0.105572    0.0353918    0.0645428    0.0130183   0.00895353   -0.0365822    0.0531962    -0.112681      -0.1383    0.0308112     -0.18342    0.0392508    0.0505235    0.0995202     0.031853   -0.0947309   -0.0273757     0.100343     0.034204     0.100686   -0.0559672     0.170671   -0.0955637   -0.0426458     0.220425     0.116728   -0.0644484    -0.107614    -0.271692     0.086458    -0.189357     0.156975    0.0483674     0.181662   -0.0672176     0.123582   0.00950403     0.292638       -0.204    0.0402761    0.0318073    0.0252498    -0.113173   -0.0893365   -0.0224526     -0.22929    0.0429927    0.0841156    -0.135971    0.0330014   -0.0327026    -0.064091    0.0675403      -0.2069    -0.211525    -0.107142     0.258409    -0.121284     0.177257    -0.191572    0.0650964  -0.00868815    0.0206701   -0.0380743     0.038324    0.0474707    0.0207148     0.361192   -0.0464608     0.218299     0.118797    0.0777672   0.00945395   -0.0642811    -0.143855     0.215059    -0.221166   -0.0385768   -0.0805447    -0.242073     0.112415   0.00711847    -0.125042     0.105664    0.0579047  -0.00570264      0.05909   -0.0267579   -0.0430129    0.0469662   0.00862734     0.204533     0.107378    -0.200593    0.0815533   -0.0246747     0.044065     0.124536     0.153924    0.0381789   -0.0856762    0.0561431     0.182677    0.0621165     0.263974    0.0803361    0.0908697     0.101095    0.0627384     -0.12712   -0.0110008    0.0582971    0.0758031    0.0980042     -0.21659    0.0142535     0.113719
   -0.453604    -0.150832    -0.130924    0.0489453     0.137513    -0.230272    -0.150184    -0.151248    0.0239305   -0.0321504    -0.139445   -0.0987506   -0.0370555    -0.059852    -0.147217     0.103585    0.0698035    -0.198539   -0.0819244     0.151754    0.0668411     0.042008    -0.134155   -0.0113531      0.12489   -0.0249625    -0.157587    0.0794619    0.0132037    -0.115447     -0.20952      0.02836    -0.131424   -0.0506748   -0.0276364   -0.0242285   -0.0667961     0.130171   -0.0390331    -0.309328   -0.0942314    -0.113876    -0.296069     0.150242    0.0580714     0.179201   -0.0537167   -0.0282166    -0.124846     0.059285  -0.00751733   -0.0292404    0.0544216     -0.10155    0.0988205    0.0862923   -0.0616088    0.0642206   -0.0822614    -0.197495    -0.156058     -0.18506    0.0636881    -0.132722     0.125932   -0.0694887  -0.00644592    -0.206358   0.00714674   -0.0871073   -0.0744739     0.146445   -0.0139752    -0.226813   -0.0435302    0.0520894    -0.193582   -0.0828115    -0.143039    -0.051472    0.0533843     0.208008   -0.0999897    0.0326607      0.26284     0.137823   -0.0861958    -0.100853     0.095382   -0.0817286    0.0590375    0.0528857     0.131379    0.0149285    0.0106501    -0.119276   -0.0760976    -0.120914    -0.147162      0.12239    0.0405891     0.042561   -0.0430947   -0.0935906    -0.111898   -0.0611136     0.178278   -0.0620896    0.0068542   -0.0667309     0.128031     0.253442    -0.096305    -0.083537     -0.12232     0.128935    -0.201148    0.0958542    -0.113372   -0.0845573     0.300029     0.062899     0.194559     0.188592
   0.0755979    0.0949489     0.355341   -0.0638407    0.0274604     0.227615    0.0433025    0.0466426    0.0589315   -0.0798248   -0.0164809     0.192144    -0.193737   -0.0926296   -0.0683991   -0.0736622    0.0641755   -0.0907883   -0.0201615     0.010018     0.147616     0.096966     0.106623    0.0450169    0.0376186    -0.053323   -0.0334376    0.0622231     0.200614     0.108196    0.0892379   -0.0818557   -0.0725454    0.0405683     0.272651     0.128687     0.233135     0.103719    -0.264765     0.110391    -0.081712    0.0628966    0.0204053    -0.257382    -0.239626    0.0300213    0.0622645     0.131097    0.0325563   -0.0501571    0.0697817    -0.205056   -0.0903424   -0.0461053    -0.110051   -0.0902421    -0.266871   -0.0355649    -0.199413    -0.106382     0.053403     0.114545     0.179328   -0.0178613    -0.140841   -0.0820375   -0.0130484    -0.296032     0.137006   -0.0415778    -0.193345   -0.0395925      0.11124      -0.0871   -0.0238726     0.106155     0.133202      0.15298     -0.16833   -0.0553602   -0.0281729    -0.015984   -0.0884666   -0.0830782    -0.183412    -0.237272    -0.171778    -0.127471   -0.0385838     0.188931     0.107015    -0.097782   -0.0543087     0.105601    0.0272541    0.0723263  -0.00918531   -0.0586964   -0.0315061    -0.179658      0.11414     0.225703    0.0287056    0.0466289     0.109277    0.0198356    0.0098645    -0.226888     -0.32159     0.113442    -0.149322   -0.0169231    -0.112105   -0.0693631     0.109874    0.0488924    -0.308847    -0.249444   -0.0241657   -0.0684952    0.0707092     -0.15004     0.256417     0.305259
   0.0610701     0.334886    -0.138169   -0.0200857     0.067187      -0.2552   -0.0998034   0.00880739   -0.0245642    -0.165476    -0.163577     0.116949    0.0465966    -0.112742    -0.127182   -0.0704027     0.178612     0.174541    0.0116965   -0.0771323    -0.156527    -0.101648     0.172702     -0.11046    0.0525724   -0.0511288    -0.171203    0.0415742    0.0409659     0.195146   -0.0267778    -0.125444     0.104068   -0.0239237  -0.00691591     0.150026    -0.110252   -0.0583703    0.0675735   -0.0941972    0.0493881    0.0221195   -0.0834071    0.0756174    -0.210515    0.0218287    0.0635326   -0.0460032    -0.178249    0.0885515    0.0624254   -0.0514745    -0.179457    0.0314036    -0.232511   -0.0543565    0.0893682   -0.0724762    0.0804493     0.185411   0.00325406  -0.00329336    0.0559737    -0.138979   0.00725413    -0.072347   -0.0319356    -0.119318     0.210512    0.0841356  -0.00677275    -0.164923    0.0794182   -0.0650326    0.0964015     0.216589    -0.293212    -0.244112    0.0644585     0.114392     0.120832    -0.253592    0.0758041    0.0250877      0.11923    0.0699547   -0.0609257    0.0262612     0.170503   -0.0300032   -0.0178688     0.129893    -0.137564    -0.151793   -0.0783793  -0.00147676   -0.0994146   -0.0304116    -0.124381      0.14419   -0.0231599    0.0331304    0.0481656    0.0415212    -0.120885     0.226896    0.0296298   -0.0345344   -0.0421277   -0.0628148   -0.0835933      0.18228    -0.174235    0.0649354    -0.100522    0.0184222     0.113371    0.0704263     0.105237    -0.161423    -0.103106   -0.0988777    0.0574069   -0.0617216
   -0.188886   -0.0592726    0.0832848    -0.098767    -0.194217   -0.0764274    -0.128165   -0.0741076     0.265864     0.120398   -0.0262913    -0.164536   -0.0772991    0.0900333      0.16407   -0.0330402     0.132084     0.171631    -0.105023  0.000416966    0.0921523    -0.143443    -0.209649     0.147363    -0.107154    -0.132967    -0.059857    -0.299922    0.0770424     0.214986     -0.16807   -0.0803063    -0.139505    -0.141124   0.00904941     0.261135    -0.189588     0.135654    0.0881892   -0.0272777    0.0787113  -0.00219382      0.02454    0.0781717    0.0455137    0.0180962     0.126657   -0.0626499    -0.167667    0.0715828   -0.0643242    0.0161337   0.00236504    -0.191255   0.00766546     0.133153     0.099709    -0.111006   -0.0454961     0.116468   -0.0915866    -0.211671   -0.0286289    0.0189048    -0.111322    -0.010384     0.160199   -0.0822824    0.0119925    -0.188927   -0.0664101    0.0951356   -0.0407337   0.00355907  -0.00750941   -0.0873205   -0.0835656     0.152532     -0.13855    -0.168387    -0.174687      0.10962   -0.0590106     0.065454     0.244327    -0.041709   -0.0804093   -0.0511166    0.0260361    0.0527539   -0.0641847    0.0843491    -0.218532     -0.18826     0.070793    -0.115774    0.0550062   -0.0394898   -0.0419634    0.0474807       0.1054   -0.0493359     0.168128    0.0783564   -0.0333826   -0.0122412      0.14001    0.0279801    -0.154777     0.095174    0.0639173    0.0996367   -0.0692471    -0.129766    0.0715958   0.00646164    -0.127326   -0.0295386     0.201712    0.0889612    0.0240123    0.0865997  -0.00801179     -0.10346
   -0.158257   -0.0307536    0.0255368    0.0668741   -0.0587419     0.197159   -0.0957881     0.024485    -0.206457    -0.192769    -0.111908    -0.356294    0.0636346   -0.0745126   -0.0491507    -0.132618     -0.10776   -0.0402404     0.137711     0.123074    0.0344165    0.0688877   -0.0766603    -0.079277     0.122257     0.113212    0.0952343    0.0341825     0.131533   -0.0502058    -0.258927   -0.0627077     -0.10093    -0.261172    0.0273905  -0.00757681   -0.0522727     0.203436    -0.205506    -0.104198   -0.0617836   -0.0917642     0.228647    0.0603116    0.0818455   -0.0742097   0.00630646     0.107971     0.118372    -0.130261    0.0932043    -0.257454     0.021642    -0.074094     -0.14428    0.0306069      -0.0975    0.0380356    -0.219271     0.035801     0.131371    0.0106655    0.0976297   -0.0579912    0.0962109    0.0640171     0.148012     0.327125     0.152297    0.0918389     0.128273     0.171245     0.264816     0.194194    0.0588705   -0.0427509   -0.0242862   -0.0360348    -0.075843    0.0206471   -0.0211178    -0.066722    0.0314623   -0.0987993   -0.0572204     0.192373    -0.188023     0.138687    0.0125491     -0.10711     0.081135    0.0663296    0.0722034    0.0462859    -0.123855   -0.0632536    0.0776229    0.0792222   -0.0233475   0.00667964   -0.0878372    -0.245827     0.115256   -0.0555975   -0.0133146   -0.0621729   0.00394456     0.021695    -0.295512    -0.139595    0.0451409     0.179137     0.147372     0.197196   -0.0454478    0.0699182     0.106806     0.137965   -0.0524694  0.000777405    -0.054288   -0.0314576    0.0712295    0.0298553
  -0.0121994    -0.135196    -0.237293    -0.126946    0.0568011     0.134211    -0.147912   -0.0658838    -0.177927    0.0242858    -0.397197    0.0867334      0.33459     0.202211     0.272023   -0.0687451   -0.0560537  -0.00617123    -0.209637    -0.018003     0.104933    0.0942574    -0.149619    -0.044897     0.347309    -0.270701    0.0916995     0.221548     0.191176    -0.110215   -0.0810744     0.248983     0.260443 -0.000617729    0.0718651    0.0368509     0.014871    0.0942323     0.055772    0.0842404   -0.0320135   -0.0594427    0.0900504    -0.108285     0.136169     0.159287    0.0696344  -0.00225823   -0.0862391    -0.285783   -0.0613196    0.0806778    0.0137605     0.190625  -0.00170577    -0.148899     0.214851     0.158999   -0.0511986    -0.112039  -0.00739629    0.0953864    -0.111309    -0.235654    0.0744566    -0.242001   -0.0741029    -0.199736     0.328621    -0.238925     0.102875     0.059042     0.107012   -0.0818741    -0.181545     -0.03484   -0.0920596     0.128205   -0.0753251    0.0706611    0.0142018  -0.00543192  -0.00787028     0.015149    0.0900995    0.0938495    0.0434791   -0.0900922   -0.0708559    0.0286613    -0.134394   -0.0925915    0.0186209   -0.0649479    0.0951113   -0.0851847    0.0513761    0.0316688    -0.073191    0.0778018   -0.0697193     0.173928    -0.217521   0.00882289    -0.223935    0.0384083   -0.0546658   -0.0558853     0.134165     0.197244   0.00574635     0.106381   -0.0739823    0.0232784     0.073758     0.168447     0.150421     0.020806    -0.134073   -0.0928871    -0.283311    -0.101833   -0.0869469    0.0168782
   -0.133333    -0.015679    0.0578958     0.155384   -0.0395604    -0.027991     0.129772     0.133912     -0.21538     0.212414     0.134539   -0.0732967     0.141497     0.062722    -0.125175     0.135869   0.00860248   -0.0384133    0.0514024    -0.185131    -0.225968    -0.190648    0.0534658    -0.304663    -0.220506    -0.167345   0.00206915    -0.161664    -0.183225      0.22392    0.0106562    -0.106032     0.103518    -0.061805    0.0878975     0.177795       0.1161   -0.0242982   -0.0640055    -0.107023    -0.101733     0.110534     0.236566     -0.16965     0.251149    0.0159179   0.00822576   -0.0416738    -0.197663   -0.0714526      0.16639     0.067062     0.186573   -0.0101383   -0.0875992    -0.101039   -0.0455078   -0.0649744    0.0502111   -0.0214244    -0.187717   -0.0646708   -0.0612449     0.044255    -0.227393     0.101113   -0.0544734    0.0110493    0.0351318    0.0842513    0.0545178    -0.114136     -0.14356    -0.187536    0.0943547     0.151407    0.0317509   -0.0795242    -0.100885    -0.137368   -0.0414183   -0.0802001     0.283648     0.114758    -0.237902   -0.0594032     0.111707     0.195125  -0.00246654    -0.214203  0.000651224   -0.0300216    -0.189069    0.0975533    -0.152673   -0.0683095    0.0136929   -0.0844024    -0.144246  -0.00272776     0.224532    -0.122002   0.00609683    0.0659211    0.0470628   -0.0962111     0.112417   0.00333408    0.0789456    0.0828078   -0.0725099    0.0172246  -0.00876362     0.143817    0.0425791   -0.0973968   -0.0682994   -0.0692062    -0.210309    -0.053069    -0.233079      0.12804    0.0163878    0.0494368
 0.000329542   -0.0462144    -0.219398      0.02689   -0.0329494      0.11909  -0.00489102     0.125297    -0.155728   -0.0330503   -0.0588037   -0.0622801   -0.0721028     0.100365    0.0465034    0.0230894   -0.0141543     0.128303   -0.0737365    -0.230174    -0.289473    0.0991707   -0.0866461     0.141156     0.235322    0.0724876    -0.239599    0.0280476   -0.0282356    0.0399562    0.0281514    -0.218342    0.0770315    -0.134229       -0.133    0.0990054     0.174312    0.0578826    0.0524944    -0.130432   -0.0311765   -0.0451443   -0.0133681    -0.061704     0.030847     0.121126     0.102179     0.275486     0.137752     0.275337    0.0225983   -0.0264012   -0.0670693     0.102244    -0.014788    -0.208827     0.037685   -0.0836331     0.161225   0.00679832    0.0664897      0.18271   -0.0970385    -0.179735     0.083363    -0.152268   -0.0189171     0.168695   -0.0417135   -0.0856695    -0.150091    0.0812496      0.14664   -0.0252468    -0.286211    -0.215774   -0.0473017     0.121487   -0.0883925    0.0870194    0.0351291     0.153873    0.0373759    -0.144906   -0.0535396   -0.0591483   0.00524002   -0.0683358     0.374568     0.156774     0.019936     0.157633     0.182051   -0.0532494    0.0487583   -0.0864479    -0.011773    0.0649461    -0.030892    -0.233678     0.220929   -0.0127196    -0.010754   -0.0691364    -0.299383    0.0280603    0.0809163    -0.149356     0.145566   -0.0130892     0.304553     0.246014    0.0932755   -0.0613721   -0.0771029    0.0628703     0.139116    -0.180771    -0.041696  -0.00410782    -0.156687    -0.116039      0.19698   -0.0202525
   -0.147217    0.0556699    0.0724908     0.127756    0.0075472   -0.0871485    0.0635745    0.0244851     0.177071    -0.104499    -0.108992    0.0334956   0.00488534   -0.0600059     0.134081     0.258591      0.19936    0.0615185   -0.0752061    -0.024971   0.00592664    -0.114068    -0.139084    -0.105216     0.115847    -0.135262     -0.17169      0.22862   -0.0884449    0.0240004    0.0833818    0.0537979   -0.0776128      0.10601    0.0658767    -0.137862     0.219038    -0.046531    -0.211404    0.0868068    0.0314503     0.137869     0.123482     0.160829   0.00267468    0.0254509    0.0865571   -0.0905353     0.232016    0.0208859    -0.225485    0.0982955    0.0110726    -0.319452    -0.107137    0.0372391   -0.0274761    0.0858885     0.161648    -0.180972    -0.142505    -0.229081   -0.0229953    -0.199113    0.0227076    -0.331273   -0.0950237    0.0700675    -0.043236   -0.0328627    -0.201111    -0.054217   -0.0429255    0.0609746   -0.0447655     0.102265     0.141928    0.0423834   0.00337891   -0.0358257    0.0623968    -0.296929   -0.0801438    0.0872864     0.211225   -0.0170296    -0.069768    0.0470071      0.14833    -0.196073    -0.185615   -0.0634811    0.0898679   -0.0150725   -0.0432777      0.11977     0.124199    0.0577739    -0.214252   -0.0319882   -0.0426481     0.129853   0.00847807      0.01865    0.0273829    0.0975295     0.225293    -0.049155   -0.0373699    0.0014593    -0.102228   0.00546871    0.0450607   -0.0562407    0.0772406   0.00365136   -0.0816885   -0.0434548   -0.0408389    -0.154017    0.0411755    0.0462585    -0.019302     0.109844
    0.162206     0.125933    -0.106245    0.0431911     -0.19808   -0.0082207     0.296088    -0.138825     0.194963   -0.0443777   -0.0235422    0.0195612   -0.0344731  -0.00435923    0.0184338    -0.257325    -0.106197    0.0549034     0.114624     0.135326     0.113559     0.111741    -0.201755   -0.0915365   -0.0477336   -0.0862962   -0.0841613     0.237633     0.271358   -0.0674658     0.140624      0.10035    0.0786745    0.0265344     0.137736    -0.147442    0.0700914   -0.0875045     0.205619   -0.0916999    0.0970161   -0.0203118    -0.206035    -0.157103    0.0757081    0.0537951     0.270622   -0.0460067   -0.0928807    -0.122553     0.195648    -0.267217     0.188247    0.0309411   -0.0741354  -0.00330935   -0.0643643    -0.140774    -0.113637   -0.0265391      0.15933   -0.0567987    0.0412357    -0.110263     0.013115    0.0204109    0.0530257   0.00839853    -0.286583   -0.0136603    0.0364556     0.206649   -0.0046082     0.110547     0.152478    0.0421891   -0.0455087    0.0262293    -0.199577    0.0363678   -0.0029229    -0.106588   -0.0594301    -0.219383     0.203679   -0.0528363    0.0193551      0.14987   -0.0687527    -0.159386    -0.210498    -0.332648    -0.081668    -0.129326    0.0132374   -0.0896929     0.142204    0.0396364     0.222095    0.0527137    0.0277334        -0.16    0.0157718   -0.0756812    0.0628483   -0.0768355     0.151407    0.0417899   -0.0521141     0.155818    0.0917628   -0.0528569   -0.0163024    -0.139429     0.118301   -0.0395657    -0.155539   -0.0608672   -0.0194013    0.0777583    -0.117874    -0.100467    0.0298709    -0.212533
   -0.125526     0.166311    0.0313763   -0.0250526    0.0515032     -0.03704      0.26712    0.0738498     0.072959   0.00902351     0.199372     0.222238     0.194888     -0.18169   -0.0767601    0.0779419    -0.174236    -0.218909    -0.149536    0.0143066    0.0865578    -0.210303    0.0577619    -0.169548    -0.191414   -0.0827745    0.0892663    0.0768372    0.0851895   -0.0583324    -0.229237  -0.00403402    0.0979145   -0.0193826     0.239936     0.150647    -0.174469    0.0106101    -0.122074    0.0296171   -0.0198721 -0.000951164    -0.101604    -0.090063     -0.12374    0.0530079     0.127516    -0.163758    0.0246321    -0.159797     0.316444  0.000334693   -0.0693593     0.120733   -0.0357579   0.00178962    -0.137068   -0.0593326     0.160553     0.273461   -0.0614429     0.286739   -0.0230177    0.0549265    -0.133242    -0.176789   -0.0200055    0.0296394   -0.0852515   0.00507437      0.17001    0.0237834    -0.212055    -0.117348    -0.190513   -0.0190788   -0.0261424    0.0699196 -0.000963753   -0.0756089   -0.0188935   -0.0742665      0.28358     0.073391     0.337104    0.0106823    -0.143212   -0.0992695   -0.0328215    -0.189351   -0.0315893   -0.0232513    -0.326248    -0.074131      -0.1194      0.10027    -0.114864    -0.113663    0.0698631   -0.0912879    -0.163867   -0.0919936  -0.00023068    -0.233592    0.0793507   -0.0104031   -0.0403524      0.15726   -0.0435017     0.028251     0.133399    0.0203704   -0.0264033   -0.0299451   -0.0686036   -0.0238722    0.0551412     0.142645    -0.200447   -0.0543383    -0.110075    0.0103333     0.147881     0.193431
   -0.209745   -0.0248768     0.118444   -0.0252911   0.00420227   -0.0318052     0.113783      -0.1744    -0.154788   -0.0661265  0.000593043    0.0173223    0.0094471     -0.13765  -0.00314036    0.0111299     0.083246    0.0784059    0.0389379   -0.0867694    0.0180945  -0.00501207     0.152377     0.145256   -0.0113146    -0.186804    -0.213844    -0.221658   -0.0790894     0.196035    0.0140378    -0.127394    0.0707809     0.011579    0.0283219     0.124727    -0.110647   -0.0351115   -0.0722099     0.061528    -0.221829     0.036945    -0.185009     0.285454   -0.0438911     0.183346    -0.138633    0.0641321   0.00549525   -0.0185973     0.126544     0.101308     0.128039   -0.0639133    -0.185558    0.0559183   -0.0451996    -0.125002    -0.116122    0.0240294    -0.104247    -0.149831    0.0358175     0.181209    0.0704823  -0.00419515    -0.283557   -0.0594691     0.109323    0.0925602   -0.0171474     0.157805     0.196159    -0.102032    -0.289346   0.00760365    -0.163708     0.154746   -0.0869956    -0.284882     0.122374   -0.0407721    0.0468686    0.0805539    0.0589196   -0.0721208    0.0331516   -0.0105522     0.130242    0.0300061   -0.0312068    0.0245941    0.0494725    -0.124687    -0.112132   -0.0277185    0.0761487    0.0421796   -0.0651781    0.0454135    0.0539017     0.149667    -0.188719    0.0323957   -0.0473044    -0.193824     0.104753   -0.0515086     0.070151   -0.0901482    -0.114238     0.030107     0.214347    -0.180536     0.102666   0.00644388   0.00547491    0.0230924    -0.129953     0.141133     0.227439    0.0236609   -0.0448311    0.0895399
   -0.151612     0.058518    0.0540418   -0.0647383    -0.263167      0.15095     0.144758    -0.129648    0.0467567   -0.0311121     0.124149    -0.048933     0.204016     0.278708   -0.0727277   -0.0273944     0.269837   -0.0685277    0.0182318     -0.25722   -0.0219056   -0.0847443    -0.175222    -0.113663   -0.0462878     0.132891   -0.0655364    0.0393761   0.00109334   -0.0565479     0.259583    -0.290372    -0.163092   -0.0941146    0.0671153     0.060814   -0.0314102    -0.162973    0.0938497     0.041731   -0.0230698    0.0831886     -0.26183   -0.0757463    -0.165372     -0.17223     0.101098    0.0795244   -0.0951521   -0.0663201    -0.148075     0.110163    0.0236585    0.0582001     0.147411    -0.131176   -0.0538375     0.219241     0.107672   -0.0289595    -0.106266    -0.157094   0.00482677   -0.0455171    0.0554762    -0.194036    0.0707498   -0.0252005    -0.199411    -0.020158    0.0852641    0.0429953     0.133764   -0.0337325   -0.0151307    0.0365767    -0.038464  0.000877281    -0.108557    0.0359626    -0.134623  -0.00498741    -0.197999    0.0228727    0.0763143     0.151133   -0.0385457    0.0310017    0.0806862    -0.125102    0.0844146    0.0272783   -0.0488305    -0.114261   -0.0965532    -0.249151    -0.265742    -0.228536   -0.0935331     0.162683   -0.0827628    -0.205923    0.0539261   -0.0189934   -0.0276629     0.182907    -0.133204   -0.0817429    -0.167198    -0.223611    -0.194482     0.201087    -0.146495    -0.019215     0.152708   -0.0615838   -0.0730564    0.0842382   -0.0582756    0.0895183    -0.160472     0.028274    0.0790637    -0.180209
    0.104203     0.117431   -0.0780768   -0.0439667    0.0925249     0.165933   -0.0504059     0.137126    -0.268419   -0.0380468     0.108311     0.166145  -0.00325598  -0.00104416    0.0228181    -0.244651    -0.131526    0.0702359    -0.153732     0.199684    -0.146028    -0.216822     0.400439   -0.0298538    -0.129453    0.0122203     0.121787   -0.0216088     0.194602      0.10226   -0.0400383    -0.197394    -0.121623    0.0321479     0.161348  -0.00544764     0.104215    -0.101435     0.119403    -0.167826   -0.0957682   -0.0536276    -0.203585   -0.0808208    -0.140024    0.0975584    -0.158546   -0.0205289    0.0629016    -0.369428    -0.170547      0.28527   -0.0772498   -0.0442013     0.392661    -0.077669    -0.125806    -0.036824     0.060027    -0.236917    -0.359111    -0.061234    0.0486182    0.0387187    -0.124675   -0.0607393  -0.00446423   -0.0347611    -0.321597     0.166479   -0.0152929     0.104458    0.0584604    0.0216662    0.0995037     0.370913    -0.120589     0.190441    -0.253631     0.238307    0.0215503    0.0210756  5.66362e-05     0.193219     -0.15432     0.105389   -0.0681859     0.014931    0.0978051    -0.286964     0.181191    -0.206313    -0.155867    -0.284022      0.15976    0.0396687    -0.215735    0.0613165     0.277365    0.0934612    0.0977148     0.133757    -0.163284    -0.160955    0.0137706    -0.155245   -0.0261061  -0.00322334   0.00626771     0.273235   0.00769211   -0.0658407   -0.0176865    0.0604995     0.173223   0.00267978 -0.000321739   -0.0457773     0.176209   -0.0218095     0.125608    0.0371774   -0.0636672     0.103357
   -0.182228     0.241609    -0.150997   -0.0867378    0.0177192    -0.136675    -0.288778   -0.0588957    -0.150028     0.072666     -0.14294    -0.298648    -0.116808   -0.0347591    0.0621412   -0.0902892    0.0442012    -0.124528   -0.0800254    -0.169545     0.136145   -0.0674225     0.193103    -0.198735    -0.116204    -0.186556   -0.0672601   -0.0420343    0.0549583     0.148217    -0.187562     0.221785    -0.130611    -0.122325    0.0480102    -0.020631     0.250638     0.104001    -0.123236   -0.0358032    0.0881627    -0.132133   -0.0922645     0.155789   -0.0191205    0.0611637    -0.231342   -0.0645556    -0.117626    -0.175769     0.305596    0.0171355    -0.140923     0.245146   -0.0605819    -0.062591   -0.0887239    -0.163005   -0.0754482     0.201442   -0.0410804   -0.0373512   -0.0646214    -0.190848    -0.213773   -0.0256655    0.0111575     0.192039     0.176013    0.0977997   -0.0126592    0.0104998   -0.0358825   -0.0503697     0.435917     0.126782   -0.0904718     0.019385     0.122628    0.0755222    0.0360895    0.0143327   -0.0119565    -0.196735    -0.226296    -0.217479    0.0507871   -0.0342127    0.0816961   0.00281897    0.0921059    0.0195518    0.0306795     0.182659   -0.0570146   -0.0738543   -0.0618418   -0.0602823   -0.0710292   -0.0598903    -0.221008    -0.133996 -0.000167861    0.0204002    -0.125715   -0.0783552    -0.225917    0.0231251    0.0832197   -0.0574686     0.293806     0.124457    -0.232466     0.216509   -0.0113851    0.0186081   -0.0677853    -0.199559    0.0807018    0.0594974     0.128876     0.108041     0.113848     0.165221
   0.0678645     0.134785    0.0424763    0.0903293   -0.0708684    -0.122372     0.137797   -0.0705744    -0.248067    0.0104332     0.157382    -0.243332    -0.103783    -0.131218     0.158869    0.0683202     0.198208   -0.0422993   -0.0241515    0.0338921   -0.0833125    0.0733815    0.0390115     -0.24462    0.0522052    -0.121613     0.100508    -0.172966   -0.0978118   -0.0182218    0.0204411     0.130659    -0.015195    -0.134891   -0.0218726  -0.00695834    0.0297207   0.00228432   -0.0280434     0.061723    -0.151849   -0.0859663   -0.0770745     0.109919   -0.0579183    -0.129763   -0.0233769     0.032596      0.03817   -0.0428761     0.213628     0.140083    0.0390321   -0.0311901     0.104978   0.00107703   -0.0470859     0.169734    0.0168251  -0.00804607    -0.093752     0.120079    0.0660403     0.130075     0.110861   -0.0353082    0.0389645     0.231056   -0.0813744   -0.0399974   -0.0631538   -0.0558224   -0.0780488   -0.0804589    0.0213609   -0.0369851   -0.0646053    0.0902557    -0.201593    -0.240189   -0.0507132   -0.0582628    -0.060191     0.182777     0.171632     0.185105    0.0685954    -0.158304    -0.228299     0.222775     0.105735   -0.0361752   -0.0311831     0.217488     0.167668     0.183137    -0.139487   0.00111688   -0.0193196    -0.118079  -0.00746493    0.0130369   -0.0407783   -0.0885494     -0.10516   -0.0579983    0.0401759   -0.0471012    -0.130767  -0.00882878   -0.0299904    0.0590183   -0.0258538  -0.00783702    -0.213098    0.0203445   0.00365591    -0.240971     0.204068   0.00162248   -0.0456036   -0.0476968     0.131257   -0.0630367
   -0.133307   -0.0854524   -0.0164347    -0.107981      0.18052    -0.231158    0.0968465  -0.00142465    0.0410539   -0.0238959    0.0974399    0.0982744    0.0284552   -0.0106778    0.0752605     0.220474     0.266898   -0.0228366    0.0868909   0.00162491    0.0107491   0.00619534     0.042366     0.102489    -0.156373     0.170862   -0.0179441    -0.148257    0.0743595   -0.0601983    -0.101955   -0.0765584     0.082569    -0.254026   -0.0179169     0.112213     0.103172   -0.0247771   -0.0399905     0.242542    0.0637246    -0.166941     0.175108     0.150198  -0.00389863   -0.0582714     0.181559   -0.0674014    0.0529719     0.100087    -0.230729    0.0674339    -0.026778   -0.0859421    -0.117231   -0.0763914    -0.315494    -0.216971   -0.0921411    0.0214848   -0.0404606    -0.088471  0.000185047   0.00426659    0.0282707    0.0281629   -0.0355802    -0.129918    -0.172505    0.0286722    -0.131933    -0.205429    0.0829697   -0.0173878     -0.11729   -0.0698609    0.0125302    -0.184695     0.100529   -0.0960878    -0.102953    0.0178467     0.168289      0.14128   -0.0257226   -0.0846566    0.0300843   -0.0993712   -0.0130557     0.136652    0.0265096   -0.0793612   -0.0150164   -0.0454721    0.0534206   -0.0310021    0.0802196    0.0550615    -0.137488    -0.219592   -0.0770225   -0.0881396    0.0237209   -0.0513797    -0.163617     0.043847    0.0700384  0.000554452   -0.0294918  -0.00840275     0.149342     0.187789   -0.0336434   -0.0487207    0.0098015    -0.172689     0.183488    0.0963437   -0.0918558   -0.0525504    0.0454369   -0.0769106     0.116456      0.11702
   0.0101412   -0.0772251    0.0141659     0.182205   -0.0697794     -0.11375     -0.10052    -0.076162    0.0380109    0.0371174     0.199951   -0.0110623    0.0885427    -0.117003     0.178146    0.0329713    -0.196081   -0.0560863   -0.0378772   -0.0394356    0.0297735    -0.234598    0.0290668    0.0130223    -0.104612     0.132476    -0.259811    -0.233847     0.161702     0.190753  -0.00745984    0.0741985    0.0704042    0.0505751   0.00939594     0.194733    0.0351581   -0.0924682     0.130896    -0.354999    -0.122175   -0.0484828     0.197648   -0.0455021     0.188227    -0.183468    -0.187358    -0.034142   -0.0169144    0.0223572    0.0913534      0.18821    -0.153726     0.153829   -0.0228009   -0.0532436    -0.034594    -0.114545    0.0903218   -0.0558303   -0.0501108   0.00554559    0.0903529    -0.118599     0.113461     0.189168     0.169945     0.177657    -0.177205     0.176236    -0.106042     0.258312     -0.05167    -0.183535 -0.000460277    -0.101688   0.00339654  -0.00901647   -0.0911942    0.0676686  -0.00421612     0.182892     -0.19633   -0.0343453   -0.0791173   -0.0529631    0.0590243     0.382426   -0.0471653   -0.0694829    -0.133389    -0.191513  -0.00648552   -0.0392002    -0.182383    0.0255337    -0.199784    0.0909536   -0.0928286      0.12623   0.00797151   -0.0498985    0.0818072  -0.00452238    -0.125695    -0.187128    0.0795218   -0.0579015    0.0407248    0.0378956    -0.107209    -0.171893    -0.060878   -0.0578677   0.00692563    -0.216559  -0.00853499     0.226548     0.101593    -0.139928    -0.148087     -0.16256    -0.138707    0.0939624
