124 1
  0.0343585
   -0.12886
  0.0949788
  0.0393222
  0.0207519
  0.0214106
  -0.078013
  -0.100295
 -0.0100964
  0.0577255
-0.00261134
-0.00108425
 -0.0235968
 -0.0688058
  0.0555187
 -0.0286317
  -0.100192
  0.0288197
-0.00533073
 -0.0571482
 -0.0528122
-0.00925588
    0.10291
  0.0346007
  0.0763458
 -0.0734481
 -0.0321887
  0.0178899
 0.00614677
 -0.0575483
  0.0807879
 -0.0247262
   0.039384
 -0.0262353
   0.111194
 -0.0464226
 -0.0531531
  0.0518259
 -0.0401879
  -0.054053
 -0.0855282
  -0.193166
 -0.0631908
 -0.0129179
 0.00966651
   0.011634
 -0.0809816
 -0.0632117
-0.00639559
  0.0712477
  0.0197772
 -0.0719332
   0.028465
 -0.0208999
  -0.124438
   0.111683
 -0.0468286
-0.00655946
 -0.0467995
  0.0069606
 -0.0933947
  0.0559692
 -0.0212206
   0.106565
 0.00900841
  0.0265298
  0.0509987
 -0.0380186
 -0.0396465
 -0.0489407
  0.0117965
 0.00605161
  -0.126088
  -0.089893
  0.0498651
  0.0835842
 -0.0313527
  0.0362187
 -0.0386115
 -0.0275426
 -0.0203088
 -0.0727463
  0.0422723
 -0.0813461
 -0.0180955
-0.00660412
 -0.0064264
  0.0343327
 0.00086605
 -0.0538584
  0.0560803
 -0.0288987
 -0.0166608
-0.00272859
  0.0296978
 -0.0719225
  0.0775697
 -0.0364459
  0.0172292
-0.00688054
  -0.115047
 -0.0137006
  0.0544483
  0.0311784
 -0.0882984
 -0.0159931
 0.00591245
  -0.076198
  0.0394253
 0.00430396
  -0.128599
   0.136618
 -0.0192886
 -0.0837417
  0.0765342
 -0.0601906
   0.120427
 -0.0128466
   0.114209
  -0.102957
 -0.0678497
 0.00211214
   0.156736
  0.0528947
