124 512
  -0.0230595   -0.0134967   -0.0838287     0.121147     0.108422   -0.0462388   -0.0217574     0.136954  -0.00270483    0.0084205    0.0962752   -0.0511462     0.029137    -0.050183   -0.0240128    0.0325259   -0.0185916   -0.0775879     0.045925   -0.0228992   -0.0221873     0.131396   -0.0196844   -0.0628837    -0.109158    0.0220607     0.068055   -0.0307596   -0.0430704   -0.0400283   -0.0296796    0.0656725    -0.101065    -0.026463   -0.0496747   -0.0422196     0.028372    0.0773089   -0.0202957   0.00100997   -0.0619888    -0.175788     -0.12177    0.0302688    -0.089716     0.108477    0.0108592    0.0270182  -0.00424064   -0.0708536    0.0114414    0.0122489   -0.0321343    0.0381679  -0.00135294   -0.0257026  -0.00619223  -0.00155147    -0.091541    0.0276912    0.0990622    0.0024313    -0.115036   -0.0778457   0.00322721    0.0153433    0.0273258    0.0750686   -0.0174112   -0.0921483   -0.0821839   0.00129137   -0.0515713   -0.0940574   -0.0165295   -0.0931875    0.0540336   -0.0708939   -0.0695699   -0.0319478    0.0135565  -0.00653156   -0.0746199    0.0535749    0.0017198    0.0548003  -0.00262617   -0.0188113   -0.0763703    0.0475996    0.0348148   -0.0763496   -0.0284451   -0.0101856    0.0351081    0.0180595   -0.0506868   -0.0141624     0.117042    0.0695048   -0.0354838   -0.0745939    0.0472692    0.0337098    0.0464282    0.0773866   -0.0513568    0.0525157   -0.0271756   -0.0790416   0.00681766   -0.0546744    0.0386936   -0.0114024   -0.0761583    0.0438535    0.0364942     0.110223    0.0918402    0.0151256    -0.130272    0.0304218    0.0237793    0.0654947    0.0305738    -0.149987   -0.0966621   -0.0111642    0.0380224   0.00902283   -0.0419236   -0.0676381    0.0082972   -0.0765785   -0.0028311    0.0562147     0.111241    0.0402903     0.033746  -0.00569641   -0.0385108     0.130243    -0.129251    0.0523207   -0.0260079   -0.0545492   -0.0509702    0.0335888    0.0777577     0.022832   -0.0775023    0.0833566   -0.0488737   -0.0260842  -0.00578866   -0.0123226    0.0620081    0.0182587    0.0701078    -0.018697     0.130489   -0.0674536    -0.121817   -0.0373227    0.0071786    0.0384071   -0.0637802    0.0282778     -0.12088    0.0655972   -0.0830067   -0.0743608    -0.020335  -0.00109135    -0.100218   -0.0459534    0.0836399 -0.000317918    -0.125594   -0.0192301    0.0317595    0.0305513     0.102383   -0.0492133   -0.0468555   -0.0505805    0.0207591    -0.043597    -0.149841   -0.0292215   -0.0616621    0.0146036    -0.165474  -0.00940926   -0.0423464   -0.0887566    0.0635888    0.0641445   -0.0930115  0.000602324   -0.0765279   -0.0195508    0.0276371    0.0807613   -0.0294852    0.0157097   0.00920573  -0.00494282    0.0369589     -0.15708  -0.00576862   0.00737797    0.0158352    -0.081304    0.0296435    0.0332852    0.0366398   -0.0515591    0.0594628    0.0220521    0.0106747    -0.112492   -0.0451367    0.0387143    0.0664414  -0.00781669     0.059103    0.0913363     -0.12638    -0.049298   -0.0607676   -0.0117924    0.0813465     0.111485    0.0431772  -0.00347175   -0.0439835   -0.0638926    0.0225265    0.0163632   -0.0698886    0.0767913   -0.0053767   -0.0134528   -0.0456796    0.0416582    0.0198693   -0.0320533   -0.0249361    0.0335868   -0.0341339   -0.0253286    0.0210367     0.126946    0.0418909   -0.0754408   -0.0844799     0.111339    0.0402454   -0.0755072    -0.076199    -0.013862   -0.0507862   -0.0664362   -0.0978589   -0.0187407   -0.0339176   -0.0440956   -0.0426533    -0.013839      0.03058   -0.0482344    -0.110944   -0.0857704    0.0387837   -0.0581927     0.070188   -0.0305055    0.0227833  -0.00674755    -0.150369   -0.0312021     0.017122    0.0975285    0.0198399    0.0111997  -0.00792385   -0.0447025    0.0919992    -0.110332   -0.0510549   -0.0673149    -0.050003   -0.0406606    -0.030249   -0.0263697   -0.0717721      0.11144   0.00203638    0.0340065   -0.0726018   -0.0198053    0.0601707    0.0202755   -0.0146735     0.025783    0.0383456    0.0190173   -0.0525395    0.0618497    -0.100431   -0.0149305    0.0727882    0.0869033    0.0160596   -0.0374396   -0.0651136     0.109538   -0.0588049    0.0136198    -0.143447    0.0531328    0.0796021    0.0305638     0.012654    -0.047207   -0.0107644   -0.0539833     0.112074   -0.0471993    -0.108881    0.0607819  -0.00807857   -0.0738293   -0.0482201   -0.0169326  -0.00127042   -0.0560802   -0.0933494    0.0130617   -0.0143892    0.0240712    0.0597065    0.0167645   -0.0093943    -0.100848    0.0874107    -0.103437    0.0020072   -0.0409683    0.0146481    0.0135006    -0.113604    0.0919464  -0.00716089   -0.0157909   -0.0743164   -0.0327781  -0.00614338   -0.0136985   -0.0164999    0.0452379    -0.106846    -0.072732    0.0503263   -0.0460057   -0.0115155  -0.00519948     0.012585  -0.00439477   0.00211123    -0.115118    0.0265543     0.152693   -0.0166327   -0.0120357    0.0372486    0.0153917    0.0167335     0.112017   -0.0106927    -0.092521    0.0325359   -0.0635605   0.00463968     0.072395    0.0805084   0.00941728   -0.0376965   -0.0148133   0.00257559   0.00805927   -0.0425829   -0.0636116   -0.0343806    -0.046623     0.102796     0.114216    0.0451984    0.0725596     0.063675   -0.0400145    0.0651153   -0.0192809    0.0014955     0.141792     0.145539    0.0107103    0.0214913    -0.151996     0.124079   -0.0403241   -0.0622063    0.0796114   0.00878503   -0.0154252    0.0509144   0.00849327   -0.0863421    -0.145792    0.0633632     0.140456     0.027086    0.0121917   -0.0165536    0.0235308   -0.0505582   -0.0678543    0.0286301   -0.0256189   0.00834302   -0.0398227     0.035895   -0.0393085    0.0317175    0.0341431   -0.0543266    0.0599997  -0.00763463    0.0649531   -0.0236394   -0.0228897     0.145633    0.0226684   0.00924957   -0.0187408    0.0359321    0.0679136   -0.0146832   -0.0440127    -0.114833    0.0241998    0.0591774   -0.0620027   -0.0935825    0.0252335    0.0199533    -0.107475   -0.0117006    0.0462432   -0.0101176   -0.0025214   0.00438285    0.0470361   -0.0448485  -0.00992499    0.0605501   -0.0951112   -0.0704236   0.00813703   -0.0416482   -0.0409489    -0.034234    0.0747808    0.0826693   0.00152512   -0.0465728   -0.0215622    0.0956372    -0.106148    0.0412874   -0.0798615    0.0623533    0.0856719   -0.0596056    -0.108865    0.0403746   -0.0104607   -0.0673867     0.128243   -0.0755607   -0.0965162   -0.0377091   -0.0530592   -0.0697118   -0.0914024  -0.00470699    0.0991913   0.00649066    -0.060068   -0.0651395   -0.0919485   -0.0491808    0.0312763   -0.0330052    0.0495271    0.0403117   -0.0800659     0.126846   0.00654634   -0.0132497   -0.0783196
  0.00342462   -0.0042151  -0.00981992     0.109745  -0.00635084    0.0179804   -0.0321604    -0.104022    0.0594933      0.13974   -0.0126935   -0.0332409    0.0945515   -0.0138036    0.0151264    0.0389683    0.0491874   -0.0347563    -0.114983     -0.01631    0.0228598   -0.0236749    -0.107991 -0.000468361    0.0272362   -0.0282062   0.00291479   -0.0160999    0.0555686    -0.127305     0.068938    0.0126081   -0.0169025   -0.0738379    0.0113313      0.15869   -0.0220425    0.0212796   -0.0865822 -0.000924517    0.0621239    0.0158444   -0.0344318     0.136075      0.09327   -0.0372001   -0.0154374    -0.148517     0.091398  -0.00971568   -0.0398195  -0.00323776  -0.00372963   -0.0495752   -0.0143311  -0.00159348    0.0191215   -0.0185214   0.00669721   -0.0216931   -0.0346008    0.0480185   -0.0602066    0.0289073    0.0120641   -0.0676521   -0.0428227       0.1093    0.0312489    0.0358454   0.00536608    0.0673386    -0.215202   -0.0416317    0.0918658   -0.0503586     0.021596    0.0100514    -0.067312    -0.130266   -0.0345719     0.104165    0.0287233   -0.0470608    0.0620435   -0.0339534   -0.0951262   -0.0321435      -0.0296    0.0759794    0.0900916   -0.0593646    0.0463096   -0.0330538     0.083555   -0.0553466    0.0146228     0.138181    0.0329992    0.0512525    -0.035506   -0.0929362   -0.0277539    0.0500415     0.117409    -0.110989    0.0222252    0.0632002    0.0427585  0.000585651   -0.0360278    0.0127374     -0.10932   0.00358913    0.0122542    0.0215359   -0.0657679    0.0431098   -0.0317725    0.0645442   -0.0397193   -0.0488094  -0.00835336   -0.0144073    0.0857409    0.0596351   -0.0246004    0.0854862   -0.0518349   -0.0608298    0.0393637   0.00519176    0.0941379  -0.00291293    0.0496133    0.0142991   -0.0420885    0.0566246    0.0491288    0.0767705   -0.0178872    0.0300401    0.0125389    0.0750038   -0.0341978     0.107725    0.0626973    0.0157491    0.0156503    0.0235814   -0.0962978      0.01806    0.0269619  -0.00105341   -0.0620499    -0.131789   -0.0504512    0.0477777    0.0305814    0.0172865   -0.0137508    -0.108027   -0.0750699   -0.0216647   -0.0132533   -0.0286054   0.00223402   0.00524218    0.0623856   -0.0494518    0.0680963    -0.122854   0.00257001   -0.0798048    0.0371619   -0.0592731    -0.136097   -0.0688763     0.069461   -0.0655388    0.0108199   -0.0300582    0.0202635   -0.0138298    0.0404225    0.0139713   -0.0396382   -0.0407283    0.0846149    -0.075253   -0.0692759     -0.04984    0.0154332     0.051034   0.00495911    0.0706545   -0.0273841   -0.0652566   -0.0381966   0.00605859   -0.0454553    -0.070435    0.0151297    0.0401201  -0.00796661   -0.0485591   -0.0727927 -0.000920304    0.0797317    0.0202078   -0.0515943    0.0992256    0.0443242    0.0486209  -0.00437877    0.0865627   -0.0799527    0.0947463   -0.0366451    0.0352281   -0.0245933   -0.0871858   0.00281182    0.0673982   -0.0174439     0.163134   0.00887522   -0.0535551   -0.0106535    0.0344808    0.0988468    0.0104105     0.071679    0.0570863   -0.0389412   -0.0301253     0.059887    0.0149564    0.0105469     0.137855    0.0491029   -0.0165529    0.0378511   -0.0089672   -0.0200859 -0.000677029    0.0889703  -0.00272958   -0.0876945   -0.0132619    -0.103372    0.0226119    0.0232237   -0.0481181    0.0712946 -8.29334e-05   -0.0683884    -0.077245   0.00662763  -0.00450571    -0.158555  -0.00924205    0.0119546  -0.00755085     0.145179   -0.0303076  -0.00987428    0.0550382    0.0147955   -0.0501165    0.0431566    0.0511451   -0.0167343   -0.0205009    0.0418272   -0.0311055  -0.00833863    0.0508968    0.0941508     0.103343    0.0298086   -0.0660921   -0.0212439   -0.0151848     0.159286    0.0398405    0.0591025    0.0215371   -0.0203183     0.122637    0.0706388   -0.0282506    0.0541548   -0.0442745    0.0524978   0.00313092  -0.00821704    0.0248175   -0.0120845   -0.0535166    0.0550108   0.00841106   -0.0351124   -0.0263775    0.0163631  -0.00596697    0.0828008  0.000702895    0.0207446   -0.0874303   -0.0350195    0.0255624   -0.0236837     0.021265    -0.119432    0.0931006   -0.0297634    0.0488136    -0.115654   -0.0595801    0.0275521    -0.029781  -0.00919293    0.0563346 -0.000799834    -0.110398     0.135495   -0.0144644  -0.00615342   -0.0148687   -0.0240139   -0.0347146   -0.0745338   -0.0485545   -0.0193476   0.00348876   -0.0513594   -0.0224826     0.104815   0.00282313   -0.0651135    -0.036828   0.00508728    0.0572198    0.0841216   -0.0461475    0.0431699  -0.00123284     0.104946   -0.0850478    0.0728968   -0.0216299    -0.158312   -0.0967694   -0.0184506    -0.053618   -0.0497278   -0.0997904    0.0973692 -0.000588382    -0.126657    0.0988606    -0.101387    0.0616754    0.0962501    0.0791192    0.0525326    0.0675349    0.0416869    -0.090155   -0.0409775   -0.0776389   -0.0395493   0.00557239   -0.0512285    0.0083288    0.0562062    0.0323025   -0.0577933    -0.141871    0.0492132   0.00335333    0.0489197   -0.0502985    0.0758776      -0.1034     0.117162    -0.031619   -0.0339727    0.0175568    0.0334556   -0.0969384    0.0205511   -0.0208812 -0.000456234   0.00740881    0.0221045   -0.0295828   -0.0103795   -0.0473328     0.019172   -0.0450193    0.0929977   -0.0095484   -0.0318068    0.0591627    0.0105406   0.00268081    0.0509097   -0.0111502   -0.0502591   -0.0307299   -0.0670427   -0.0189966   -0.0266298    -0.113732    0.0365689     0.003876   -0.0496356   -0.0631275   -0.0390432    0.0452768   -0.0399537   -0.0752969    0.0884171   -0.0340861    0.0290579    0.0508441    0.0141729   -0.0485661   -0.0421525    0.0125351   -0.0371799   0.00798253    0.0797942   -0.0103708    0.0113623    0.0827419    -0.110647   -0.0211936   -0.0425319   -0.0164013    -0.049431   -0.0491873    0.0852705  -0.00203084   -0.0200057   -0.0056433    0.0306906    -0.106673    0.0676633   -0.0446019   -0.0269273    0.0238371    0.0796428   -0.0221638    0.0391616    0.0731816    0.0531586   -0.0488801    0.0780574    -0.108624   -0.0121105   -0.0344548    0.0446466    0.0258777     -0.12883    0.0418855    -0.168636    0.0392692    0.0221306    0.0257845    0.0144495   -0.0661261   0.00395787    0.0389671    0.0637915     0.057267    0.0243479    -0.051678    0.0256844     0.126874    0.0119399   -0.0522678    0.0441195    0.0359911    0.0187808   -0.0286889    0.0405157    0.0477417   -0.0537158  -0.00675169    0.0324945   -0.0418207   -0.0609762    0.0177942   0.00823276    -0.122978   -0.0768681   -0.0385857   0.00434463    0.0665853   -0.0302377  -0.00130737    0.0106778    0.0821963   -0.0915354    0.0551613    0.0553387    0.0290564     0.043765   -0.0355143
   0.0101997   -0.0323551     0.057164     0.100169   -0.0537124   -0.0388322    0.0142801    0.0466922   -0.0078745    0.0111092     -0.12665     0.059817   -0.0759632   -0.0887465    0.0250457    0.0128872   -0.0106544    0.0774559   -0.0486553   -0.0334562   -0.0109425   -0.0889915   -0.0404588   -0.0172677     0.036126   -0.0110273  0.000128601   0.00304059   -0.0602672    0.0479488    0.0592965    0.0797785    0.0511486   -0.0122356     0.142857   -0.0919888    -0.074876      0.10465   -0.0055256    -0.052485    0.0227065    0.0115211   -0.0363564    0.0410032    0.0820814   -0.0489613   -0.0346066   -0.0545568    0.0390422    0.0227311    0.0416375    -0.021486   -0.0189199   -0.0430301   -0.0417154    0.0577049   -0.0219412    0.0291267   -0.0473256    0.0298204    -0.141776  -0.00849476   0.00270321    0.0136189    0.0997448    -0.103196   -0.0454497    0.0746535   -0.0826945    0.0196729    0.0553808    -0.011029   -0.0899438    0.0314414   -0.0840074    0.0848826    -0.116494   -0.0441692  0.000211082   -0.0105497    -0.042539    0.0174554    0.0236511    0.0699432   -0.0175796    0.0188129   -0.0211729   -0.0279359   -0.0166826   -0.0367017     -0.02053   -0.0664611   -0.0140209  -0.00779642    -0.109868     -0.13943   -0.0203291   -0.0116893    0.0678991   -0.0751522    0.0314261   -0.0461349   -0.0206305   -0.0705462   -0.0525037   -0.0892824   -0.0594276   -0.0160586   -0.0657261     0.145667     0.119803   -0.0524517     0.108907   0.00179262   -0.0589775    0.0154846   -0.0380544   -0.0162577     0.124719   -0.0679822   -0.0742632   -0.0357883   -0.0166355   -0.0759764   -0.0462825    -0.081441    -0.046266     0.063903    0.0363297    -0.107718   -0.0995384   -0.0289692    0.0653686     0.027079   -0.0595166   -0.0104601   -0.0721684   0.00228233    0.0680063    0.0142073   0.00153314  -0.00314555   -0.0435962   -0.0967957   -0.0840934   -0.0971301   -0.0632771    0.0291464   0.00925824    0.0154564    0.0100002   -0.0569385    -0.056376    0.0133342 -0.000875684     -0.04355    -0.090258   -0.0240108     0.115331   0.00107398   -0.0645557    0.0038033    0.0317287    -0.133171    0.0724725   -0.0503355    0.0283613    0.0202288   -0.0691365   0.00161882   -0.0223423  -0.00120129   -0.0798075    0.0272409    -0.020204  -0.00615739   -0.0262318    0.0459094    0.0170502 -0.000748157   -0.0842932    -0.154517     0.122033 -0.000877859   -0.0409003    -0.039245   -0.0531423    0.0892632   -0.0920774   -0.0212352   -0.0199432    0.0148649    0.0168395     0.113414      0.04326   -0.0545467    0.0207676    0.0140946  -0.00674865    0.0465647     -0.10192    0.0437877    0.0510789     0.114089    0.0183409    0.0429929    0.0315019    -0.038069  -0.00738151    0.0699645   -0.0191935   -0.0400439    0.0422409   -0.0246163   -0.0558332   -0.0824148   -0.0157142   -0.0717087    0.0390331   -0.0180362    -0.028343    0.0728581    0.0707215    0.0794557     0.047033   -0.0504841    0.0331052   -0.0699447    -0.055161    -0.032533   -0.0283126    0.0315663   -0.0601457  -0.00216646   -0.0405904  -0.00947211   -0.0165202     0.026878   -0.0116308    -0.069261    0.0719624   -0.0446042  -0.00989622  -0.00270254   -0.0193963    0.0130416    0.0270383    -0.151619    0.0719136    0.0184928    0.0901935    0.0440529   -0.0881376   -0.0239357    0.0240273    0.0631804   -0.0371355   -0.0643256   -0.0156417    0.0540567    0.0729367    0.0495175    0.0593618     0.157841    -0.021047    0.0262295  -0.00679696    0.0523833   0.00365178  -0.00710289   -0.0102017   -0.0407075   -0.0410408    -0.176186   -0.0567994    0.0528122  -0.00101229    0.0147647    0.0404204   -0.0899023    0.0886392   -0.0781758     -0.01904   -0.0272778    0.0872919    0.0716056   -0.0235634    -0.121065    0.0128568    0.0716593    0.0622724    0.0332877    -0.136325   -0.0555657   -0.0764018     0.096656  -0.00485782    0.0690585   -0.0737986    0.0170124    0.0523871    0.0468238  -0.00876216     0.130487    0.0157239    -0.104758    0.0261199   -0.0846386  -0.00645553    -0.064392   0.00332278    -0.102843    0.0192363   -0.0711313    0.0143142   -0.0230502    0.0995407   -0.0106541    -0.037049     0.112276     0.080807 -0.000457336    -0.108514    0.0775226   -0.0850898   -0.0920465    0.0164379    0.0266205  -0.00610855   0.00889857   -0.0130082   -0.0170652    0.0623816   -0.0787449    -0.112766   -0.0547908    0.0487825   -0.0907627    -0.158885    0.0441054    0.0272023   -0.0116722   0.00823241   -0.0316506   -0.0971142    0.0106588   -0.0204514    0.0151433   -0.0576006    0.0861973   -0.0326166   -0.0854537   -0.0148502   -0.0796871    0.0873212    0.0366687    0.0236774    0.0622349    0.0368845    0.0310233   -0.0611734     0.113577     0.014516   -0.0474379   -0.0675726   -0.0590879    0.0625389   -0.0657943   -0.0531508   -0.0573466    0.0123408   -0.0880933     0.040321   -0.0744337   -0.0251342   -0.0207107     0.105032     0.036187   -0.0081298   -0.0326741    0.0152484   0.00701764    0.0950115    -0.146481     0.089895   0.00662751   -0.0471212   -0.0868481    0.0156933   -0.0915172    0.0655854     0.107957   -0.0758577    0.0235697    0.0767447   -0.0820359    0.0536587  -0.00695088     0.104081    0.0925933    -0.086446    0.0297758   -0.0940052   -0.0754703   -0.0618009   -0.0812741   -0.0940057   0.00342035   -0.0120524   -0.0885089    0.0481442    0.0428683    -0.178532    0.0142781    -0.010285   -0.0412865   -0.0299077   -0.0462952   -0.0638049   -0.0388885    0.0471921    0.0339114    0.0271426   -0.0943844     0.101178   0.00545959   -0.0210394    -0.136283    0.0966558    0.0462291   -0.0111282    0.0671698     0.153897  -0.00248978   -0.0123832    0.0138176    0.0316607   -0.0909316    -0.045878   -0.0155155  -0.00583128   -0.0211611   -0.0401139     -0.10183    0.0416895   -0.0614273   -0.0410935   -0.0116172     0.051299 -0.000730768    -0.104256     0.129701    -0.145005    0.0177481    -0.067755   -0.0130071     0.126758   -0.0359207    0.0489284    0.0259732   -0.0240688   -0.0473253    0.0322823   -0.0378973   -0.0504996     0.114462   -0.0239708   -0.0557095    0.0248717   -0.0490833 -0.000371781   0.00723987    0.0133691   -0.0365964   -0.0633155    -0.212113      0.13392   -0.0375619    0.0537778   -0.0219081   -0.0621505   -0.0718377   -0.0606958    -0.087643   0.00989112    -0.024741    0.0670766    0.0233959   -0.0730592    0.0229656   0.00526379   -0.0230217    -0.117763    0.0547656     0.134643    0.0563192    0.0594227   0.00925693   -0.0603451   -0.0215347  -0.00490002     0.109892    -0.112833   0.00121516   -0.0266845   -0.0314063       0.1479   -0.0179009   0.00696655    0.0483298  -0.00729189    -0.158274
    -0.05528   -0.0200777  -3.9935e-05  2.91641e-05  -0.00340954     0.102789    0.0474107    0.0438027    0.0151566    -0.155189   -0.0130117   -0.0625844   0.00370626    0.0482564    -0.115734    0.0991563    0.0585902     0.097307    0.0146305   -0.0842708    0.0160817   -0.0763742     0.104175    0.0138348    0.0591594   -0.0524002    0.0235566   -0.0303031   -0.0169487    0.0840105    0.0349681    0.0421189    0.0174522    0.0753998  -0.00443667    -0.080103   0.00442749    0.0696741     0.136356    0.0455554    0.0135693  -0.00752131    0.0420941  -0.00727404    0.0228087    0.0124083   -0.0148517   -0.0504339    -0.116256   0.00347635    0.0166863     -0.14236    0.0171925   0.00495789    -0.113446   -0.0114206    -0.081961    -0.017748     -0.10315    0.0229516    0.0409361   -0.0190141    0.0819081  0.000129494   -0.0633444   -0.0107013   -0.0573005    0.0698949   -0.0565533   -0.0697914  -0.00637599    0.0568664    -0.014521    0.0644424    0.0252386   -0.0420144    -0.026626   -0.0252016   0.00435841    0.0508474    -0.099712    0.0126991      0.11698   -0.0038525    0.0936578  -0.00431617    0.0186358     0.054073    0.0173496     0.131216   -0.0796933  -0.00129363    0.0151046   -0.0855162   -0.0480316    0.0124238   -0.0320244  -0.00939606   -0.0326746   -0.0579253   0.00998094   0.00399786   -0.0440111    -0.030444   -0.0090492   -0.0897915    0.0730705   -0.0259348  0.000954968    0.0219125    0.0571301     0.063757  -0.00273693    0.0149648    -0.070548  -0.00236414    -0.016867    0.0434849    0.0657882   -0.0226974   -0.0399128   -0.0989492     0.126475   -0.0211465   -0.0352856    -0.022226    -0.180546    0.0305567   -0.0379783    -0.136786   0.00920891   -0.0320008     -0.08395   -0.0626233   -0.0112976   -0.0354963   -0.0433531   -0.0555359   -0.0121301    0.0650505   -0.0460752   -0.0893735   -0.0485711    0.0720473   -0.0638524     0.019568    -0.102504    0.0288346     0.175067    0.0433129    0.0673661    0.0669904    0.0602266    0.0772732   -0.0366366   -0.0612903    0.0612108   -0.0868361   0.00359004   -0.0427659   -0.0208272   -0.0404943   -0.0763532  -0.00896812   -0.0138878    0.0405936     0.043614    0.0333611    0.0388877    0.0183542    -0.127597   -0.0760685     0.128888   -0.0333992    0.0359509    0.0282322    0.0536509   -0.0616185    0.0099032   -0.0580926   -0.0124704   -0.0109447    -0.023589   -0.0139323   -0.0461417   -0.0429805    0.0252206   -0.0331163    0.0974721    0.0687261   -0.0445674   -0.0604696     0.037094   -0.0226357   -0.0251192     0.040045   -0.0101152    0.0202146     0.126526     0.069291   -0.0513903    0.0539898  -0.00386463   -0.0272553    0.0333388    0.0360333    0.0480555    0.0388898     0.022128     0.138257    0.0384277    0.0425249    0.0760718    -0.152429    0.0111864   -0.0249979   -0.0652431   -0.0975642    -0.092206   -0.0190998  -0.00376313    -0.087485    0.0360254    -0.128209   -0.0452782    0.0423752   -0.0778164    0.0476021  0.000915078     0.017693   -0.0668269   -0.0966497    0.0822493   -0.0250206   -0.0155549   -0.0254143   0.00775879   -0.0304692   0.00330026    0.0209798    0.0551336   -0.0216861    0.0306229    0.0434578    0.0355037    0.0107075    0.0506045   -0.0520324    0.0514053   -0.0340434    0.0688186    -0.152853   -0.0017582   -0.0494687   -0.0268179    0.0861473    0.0303247   -0.0230105    0.0049343   0.00688172   -0.0331238   -0.0351711   -0.0233889   -0.0704259   -0.0682697   -0.0605568     0.108207     0.030757    0.0285878    0.0957581   -0.0178989    0.0466293    0.0205607  -0.00199671   -0.0641865     0.100262   -0.0741108     0.015487     0.055235   -0.0170831    0.0144521   -0.0323256   -0.0687458 -0.000413128    0.0605127   -0.0896184    0.0409039    0.0550932   -0.0556415     0.122268     0.069027   -0.0612538   -0.0788766     -0.10488   -0.0396532    0.0676498    0.0155578    0.0789574  -0.00533484   -0.0272595   0.00258074   -0.0878728   -0.0245104    0.0298851   -0.0452753   -0.0485456    0.0681226    0.0903174    0.0220978   -0.0656892    0.0149277    0.0504775    0.0748878   0.00211334   -0.0776262  0.000220662   0.00252647    0.0042423    0.0120491     0.172447   -0.0339071   -0.0620604     0.017706    -0.066381  -0.00317697    0.0387284   -0.0854681  -0.00737115   -0.0724738   0.00134795    -0.044789   0.00900504    -0.017726   0.00277627    0.0362101   -0.0417979   -0.0905871    0.0357077    -0.137159   0.00513536   -0.0126867    -0.042898   -0.0612747    0.0208095     0.068304    0.0753549    0.0142463      0.10286   -0.0493702    -0.112255    0.0909036    0.0425771    0.0289125   -0.0913506   -0.0633315   0.00521239    0.0084583   -0.0345717    0.0089617    0.0502185    -0.107535 -0.000332438   0.00746686   -0.0389754   -0.0371786   -0.0531494     0.128184   0.00863342   -0.0352873   -0.0832618   -0.0375409     0.051888   0.00989039   -0.0345696   -0.0726743    0.0872842   -0.0286072   -0.0528034   -0.0429404    -0.105245    0.0718191   -0.0181466   -0.0057655   -0.0437766    0.0795042   -0.0335918   -0.0624725    -0.190551    -0.082214   -0.0607274     0.078307    -0.027611    0.0486031   -0.0644698   -0.0506801    0.0504353       -0.108    0.0475118   0.00190432   -0.0314614    0.0231646    0.0518203  -0.00537341    0.0104959   -0.0171682    -0.019478  0.000233926    -0.023257   0.00221951   -0.0762823     0.144108   -0.0899911    -0.073353   -0.0078896    0.0683636    0.0199318    0.0527511    -0.123706  -0.00592735   0.00961103   -0.0224018   -0.0152272    0.0754073   -0.0587053    0.0233604    0.0419952   -0.0297271    -0.024265   -0.0392325     -0.01437    0.0426265     0.113433    0.0366865   -0.0720934   -0.0443526    0.0831508    0.0577257   -0.0270724  0.000784908   0.00458445   -0.0554536    0.0102246   -0.0100311    -0.104856    0.0131014  -0.00776742   0.00655995   -0.0391335    0.0467553   -0.0135074     0.089762   -0.0199647   -0.0178711       0.1148    0.0993777   -0.0184876    0.0422607    0.0579063   -0.0706988  -0.00791695     0.180556   0.00893377    0.0420566    0.0115856   0.00260296   -0.0860095    -0.016671    0.0159833   -0.0159937  -0.00212861     0.111218    -0.145975   -0.0989424   -0.0224918    0.0501377    0.0520011    0.0454974   0.00391999    -0.023576   -0.0559881   -0.0888578   -0.0070211    0.0349649   -0.0725735    0.0409149   -0.0169768    0.0860348    0.0240921    -0.013304    0.0556981   -0.0530296    -0.101657  -0.00414062    0.0520594   -0.0557197    -0.102872    0.0531693   -0.0581187     -0.05791   -0.0331449    0.0664586    -0.148398   -0.0759749    0.0254049    -0.014821    -0.105885    0.0943402   -0.0322424   0.00543053    0.0519406    0.0693573    0.0127707
  -0.0918292   -0.0174327   -0.0187527     0.162226   -0.0439193    0.0504773   -0.0324052    0.0465087   -0.0343553    0.0580235     0.106422   -0.0139874    0.0221976   -0.0160342   -0.0450457    -0.026326   -0.0821609  -0.00120957     0.137957    0.0319842    -0.154715   -0.0299891    0.0674925    -0.078719   -0.0161918   -0.0353601   -0.0574151   -0.0771359    -0.116652   0.00820873    0.0131155     0.155183    -0.060491    0.0915132   -0.0306056    -0.017004    0.0878819   -0.0172602    0.0851666   -0.0572994   -0.0572789   -0.0356728   -0.0355037   -0.0263592   -0.0096896  -0.00764297     0.111147     0.121118    0.0175659  -0.00285988   -0.0606129    0.0179004   -0.0644545  -0.00288031   -0.0583628  -0.00856006    0.0217288   -0.0494116    0.0342451    0.0596912   -0.0215599   -0.0522565   -0.0499085   -0.0984752 -0.000717138   -0.0472678    0.0709967    -0.053095  -0.00248654    0.0338868   -0.0325275   -0.0162518   -0.0400657    0.0148451   -0.0490824   0.00324953   -0.0899351    0.0296658   -0.0145825    -0.131475  0.000924984  -0.00987577  -0.00964165     0.117809    0.0259715     0.022933   -0.0161833    0.0157644    0.0768477   -0.0237852     0.125333    0.0224098    0.0174558     0.171055    0.0174148    0.0231614   -0.0483254    0.0456148    0.0212097   0.00124304     0.081016    -0.095501    0.0263115     -0.15263   -0.0143065    0.0144427    -0.128792    0.0570149  -0.00828869    0.0786155    -0.131438  -0.00898862   -0.0201354    0.0671761   -0.0638475   0.00375974     0.068598    0.0295441   -0.0136746   -0.0474062     0.105293    0.0393447    0.0405888   -0.0145397    0.0437306   -0.0777053   -0.0956605  -0.00759155   -0.0633638  -0.00207611    0.0503358   -0.0408063   -0.0558858     0.055701   -0.0803748   -0.0637144    0.0236664     0.110406    0.0256104    0.0123531    0.0353416   -0.0399697    0.0721046   -0.0242944   -0.0191652   -0.0474979   -0.0142642   -0.0788634   0.00549797   -0.0392156   -0.0510987    0.0619642   -0.0212618   -0.0786216    0.0584761    0.0343249 -0.000423329   -0.0984505    0.0668865   -0.0416362    -0.113561   -0.0254678    0.0737185   -0.0186281    0.0314154   -0.0074391    -0.128157   -0.0631323   -0.0304152    0.0158632    0.0374794   -0.0196246   -0.0504083   0.00375448    0.0772804      0.06942     0.056426    0.0317833   -0.0251622    0.0234738   -0.0561162    0.0695513   -0.0789103    0.0180355    0.0587108    0.0197679    -0.059989    0.0387494    -0.138745     0.115244     0.125585   -0.0839646   -0.0438764    0.0488318   -0.0591678   0.00676373     0.044924   -0.0256996   0.00949159   -0.0711433   -0.0638563    0.0186706   -0.0449185     0.020274   -0.0698089    0.0520706     0.049917   -0.0420417    0.0367409   -0.0751375   0.00336989    0.0360884    0.0443961  -0.00190598   -0.0699066    -0.122545   -0.0297355   -0.0644778   -0.0850137    -0.113299    0.0581344   -0.0544427    0.0384852   0.00753882    0.0776161   0.00841747    -0.036003   -0.0417346   -0.0111281    0.0159427   -0.0178201   -0.0598598    -0.016591 -0.000949439   -0.0592874   0.00342272    -0.111488    0.0330742   -0.0807524   -0.0994867    0.0446291   -0.0300174    0.0186678   -0.0426998    0.0468285    0.0660888    0.0768185     0.101587    0.0450153   -0.0109594    0.0744446    0.0576235    -0.189881    0.0676025   -0.0421713    0.0222256   0.00046515    -0.107049   -0.0398484    0.0859729    0.0518148   -0.0525957    0.0676379    -0.113815   -0.0718385    0.0451005    0.0623717   -0.0418071    0.0514013    0.0135663    0.0439015    0.0671556  -0.00952216   -0.0406854    0.0684659   -0.0990481   -0.0136209    -0.107743    0.0612505   0.00402749   -0.0158825   -0.0399462   -0.0818469    0.0342569  -0.00182252     0.138136   -0.0349321  -0.00569224   0.00800406   -0.0822518    0.0728495    0.0185279    0.0627454   -0.0162637  -0.00561902    0.0515587   -0.0606344   -0.0468706   -0.0431246    0.0266316    0.0960349   -0.0837895   -0.0435433  -0.00319508    0.0280995    0.0422275   -0.0415662   -0.0660578    0.0723833    0.0477145    0.0348384   -0.0768869   -0.0479074   -0.0962303    0.0534342   -0.0482968    -0.112639    0.0249704   -0.0290892    0.0847297  -0.00298474    -0.125107   -0.0619475   -0.0787283   0.00885424     0.102525   -0.0818707    -0.184649   -0.0551695   -0.0174469    -0.110345  -0.00566025   -0.0286498   -0.0806254   -0.0292797   0.00625763    -0.038246   -0.0644951   -0.0260532    0.0364534   0.00105427    0.0886144     0.048983   -0.0126445   -0.0605728    -0.134073  1.33873e-05      0.03129  -0.00681293    0.0259795    0.0705928    0.0295995   -0.0905582   -0.0407091   0.00262221   -0.0755197   -0.0122248    0.0827579   -0.0578375   -0.0623377   -0.0540785   -0.0177534 -0.000369274    0.0629975     0.112302    0.0274895   0.00681471   -0.0210371    0.0122373     0.184739   -0.0461306    0.0584578   -0.0945771     0.029149   -0.0233899    0.0700332   -0.0163739    0.0299094  -0.00322635   -0.0517954   -0.0809675    -0.125903   -0.0457963       0.1083   -0.0363358   -0.0139206   -0.0381674   -0.0193959   -0.0120681     0.030416    0.0162817  -0.00760989     0.154024    0.0218208   -0.0175255     0.043636    0.0181272    0.0335713    0.0278549    0.0300523   -0.0704141    -0.106425   0.00619549    -0.174163   -0.0461662    0.0121546   -0.0693469    -0.147547   -0.0592432    0.0596376    0.0409791   -0.0595402    0.0562232   -0.0778771    0.0385351   -0.0493683   -0.0627575   -0.0714896    0.0477083   -0.0414094    -0.057447   -0.0374069  -0.00099646    0.0555138   -0.0162262    0.0517296   -0.0296657   -0.0542266    0.0539153    -0.107278    -0.046973   -0.0569431    0.0512341    0.0827549   -0.0431553   -0.0257416   -0.0138788    0.0500474     -0.12431   0.00631373   -0.0265738   -0.0625655    0.0496442     -0.16004    0.0223694   -0.0567278    0.0211526    0.0443845    0.0323848   -0.0552066   0.00614717    0.0681674    -0.106468  -0.00386225     0.110298   -0.0214608   0.00976992  -0.00280172     0.111553    0.0172199   0.00698289    0.0288713    0.0607853    0.0410114    0.0209537   -0.0937099     0.010413    0.0217324    0.0194013   -0.0489311   -0.0440828    0.0170872    0.0801204    0.0231879    -0.113662  -0.00939036   -0.0662251    -0.026567  -0.00840296   0.00725986    0.0390326   -0.0532602    0.0725075    0.0613006    -0.070947   -0.0105001   -0.0815158    0.0310722   -0.0141981   -0.0978171    0.0429012   -0.0388914  -0.00662593    0.0397112    0.0105793    0.0758598   -0.0289982    0.0194186   -0.0169836    0.0298295    0.0253792    -0.038703    0.0733178   -0.0848169   -0.0198165    0.0578833   -0.0964773   -0.0509789    0.0825504   -0.0281129   -0.0118443    0.0356229
    -0.11321    0.0209162     0.122066  0.000811741   -0.0651001    0.0233957   -0.0567998   0.00111727  -0.00673746   -0.0310014   -0.0202942     0.123564    0.0790653    0.0153904    0.0530967   -0.0961499    0.0351558     0.067048   -0.0893309  -0.00578211   -0.0987633   -0.0351134   -0.0105701   -0.0319338    -0.174117   -0.0332787   -0.0398947     0.040415   -0.0536487    0.0363967   -0.0231072   -0.0660871    0.0870136   -0.0498182    -0.151854  -0.00139462   -0.0189014    0.0175003    0.0137911    0.0339174   -0.0944882   -0.0262331    0.0451395     0.124417    0.0440554    0.0511897    0.0581218   -0.0751662     0.105795    -0.140788   -0.0120655   -0.0315291     0.140032   -0.0395676     0.126158    0.0254021     0.129553   -0.0298109    0.0455926    -0.133404    0.0873871   -0.0840692   -0.0546422  -0.00643693    0.0382213   -0.0294435    -0.093957   -0.0596798   -0.0366897   -0.0975729   -0.0167781    0.0674647   -0.0585491   0.00772272  -0.00171118    0.0950256    0.0467665   -0.0534439    0.0306308    0.0112384    -0.137131   -0.0366495   -0.0330819   0.00840002   0.00295345    -0.101964   0.00180225    -0.231694    0.0351774   -0.0166952   -0.0076951   -0.0434127   -0.0473631     0.117259   -0.0305148   -0.0317539    0.0850193   -0.0903423    -0.075926   -0.0846775   -0.0658245     0.115947    0.0926634      0.01552    -0.114866    0.0463517    0.0959892    0.0713918    0.0582031   0.00258432    0.0201724    0.0387022    0.0177252    0.0162446    0.0167998    0.0552627    0.0175622    0.0938339    0.0692217   -0.0601195    0.0193162  0.000599375   -0.0592227   -0.0365137    0.0100926    0.0109329   -0.0152695    0.0217887   -0.0519474   -0.0778149   -0.0797077    0.0868857   -0.0753435   -0.0240967    0.0155312    0.0067625    0.0298923     0.125899    0.0945028  -0.00390929   -0.0697069   0.00435539   -0.0646391    0.0389315   -0.0261988    0.0752639   -0.0406395   -0.0484691   -0.0018325    -0.045998     0.036537    0.0324836   -0.0178192   -0.0780667  -0.00943153    -0.070239   -0.0848761   -0.0712462     -0.11284   -0.0141747    -0.028396   -0.0484806    0.0676039    0.0455148   -0.0964379    -0.145604    0.0481274   -0.0157588   -0.0730826   0.00149993   -0.0167283    0.0242879     0.122685    0.0365483   -0.0142017    -0.119493   -0.0934247   -0.0206526   -0.0464815    -0.100529   -0.0984079   -0.0528696   -0.0145094    0.0100963    0.0188962  -0.00917929  -0.00263311    0.0580487   -0.0609071    0.0235563    0.0111846    0.0787527     0.047869   -0.0968108   -0.0373282   -0.0385846   0.00832595  -0.00541505   -0.0262103   -0.0955241    0.0370829    0.0339682   -0.0141205   0.00939036   -0.0153322    -0.132526   -0.0514873      -0.1277  -0.00364008    0.0172252     0.197881  -0.00119545    0.0851407   -0.0798531   -0.0221303  -0.00929721   -0.0118989    0.0717776   -0.0723903     0.103185   -0.0234004  0.000135859    0.0201703    0.0325856    0.0258794    -0.127137     0.163162    0.0346527   -0.0548988 -0.000169435   -0.0367042    0.0277851    0.0911689     0.048682    0.0851268   -0.0939292     0.105694   -0.0824421    -0.164173   -0.0416987    0.0354125    0.0517917   -0.0362065   -0.0140529   -0.0805275   0.00158813   -0.0824106   -0.0313845    -0.145234   -0.0374401    -0.021067   -0.0489982   -0.0544904    0.0161778  -0.00148414  -0.00829646    0.0191887   0.00228515  0.000347764    0.0473643    0.0320112   -0.0174411    0.0391105    0.0130718   -0.0862238   -0.0350592   0.00527584   -0.0360687    0.0802632    -0.070155   -0.0753724    0.0718317     0.100697  -0.00343519   0.00526919     0.117675    0.0682483    0.0396155   -0.0277653    -0.063588    0.0184429     0.026979   -0.0231786   -0.0994892    0.0498312    0.0242607    -0.127944   -0.0460137     0.040786    -0.114759   -0.0900523   0.00144237    -0.049102  -0.00516244   -0.0548517    -0.075799    0.0515517   -0.0273497    -0.023384      0.05336   0.00311439   0.00780796    0.0948637   -0.0609097    0.0258968  -0.00834198    -0.130868   4.4283e-05   -0.0344105    0.0562566  -0.00340242  -0.00845495    0.0959605   -0.0469375   -0.0973095    0.0589469    0.0346734    -0.116152     0.103781    0.0113122    0.0474919    0.0174882   -0.0558898   -0.0154729     0.003489   0.00584555   0.00808464    -0.070043    0.0289165   -0.0455984   -0.0340428   0.00836417   -0.0772379   -0.0334014    0.0466954   -0.0651824  -0.00826842   -0.0692148   -0.0478118   0.00950271     0.028367    -0.122598  -0.00423718   -0.0298837    0.0460371   -0.0662391     0.100712    0.0509591   -0.0485126    0.0154984   -0.0510926   0.00994733   -0.0927315   -0.0414028    0.0238658   -0.0800445  -0.00782869  -0.00502616    0.0133119    0.0156451      0.04075  -0.00220363    0.0273279    0.0139677    0.0414034   -0.0365503   -0.0231789   -0.0152836    0.0282304   0.00646024    0.0608491   -0.0778074    0.0882851  0.000615169   -0.0166384    0.0214431    0.0204025    0.0723841  -0.00334618     -0.07428   -0.0314979     -0.05231   -0.0248111   -0.0374579   -0.0883729   -0.0611757    -0.101531    -0.127166   -0.0877817   0.00110687    0.0402197   0.00329879   -0.0499895     0.100898   -0.0592486     0.106138   -0.0323404    0.0355328    0.0597173   -0.0135082    0.0387694     0.034435    0.0219392    -0.104508    0.0442127   -0.0166628   -0.0377544    0.0187021    -0.121199   -0.0802859    0.0588956    0.0275264    0.0791738   -0.0125586    -0.121607    0.0039698   -0.0888219    0.0458533    0.0708439   -0.0527854   -0.0677011    0.0410538    0.0210188    -0.153423    0.0736338    0.0624996    0.0392456    0.0406124   -0.0615552    0.0306685    0.0331205    0.0578805   -0.0282561   -0.0330806    0.0591804    -0.170159    0.0271796     0.196703  -0.00814017   -0.0359487   -0.0983833  -0.00552549    0.0501075     0.128648    0.0014873  -0.00519071   -0.0515294   -0.0228007   -0.0412419     -0.12265    0.0117836    0.0774856     0.111375     0.100642   -0.0684652   0.00335029    0.0245808   -0.0027421   0.00842067    0.0522746   -0.0179862     0.080949    0.0207382   -0.0231799    -0.069654   -0.0598612   -0.0475547   -0.0237629     0.061475   -0.0695652    0.0961848    -0.087175   -0.0298237    0.0471119   -0.0423056   -0.0102233    0.0140643     0.010537    0.0664929   0.00224835   -0.0269607     0.047014     0.150213     0.047026    0.0032641    -0.049648   -0.0129503     0.062083   -0.0235622   -0.0218249     0.084107   -0.0184896    0.0533783    0.0224694  -0.00886347   -0.0620291   -0.0194655    0.0162052    -0.011063   0.00709499   -0.0927648   -0.0460676    -0.044704    0.0108657  -0.00725008   -0.0235941    0.0295977    0.0462654    0.0521124   -0.0292927   0.00411478    0.0192382
  -0.0473463     0.111824    0.0410114   -0.0472652    0.0643457   -0.0404968    0.0525799   -0.0792202    -0.104734    0.0282079   -0.0287616   0.00803645    0.0522873   -0.0814498     0.113728   -0.0334392      0.14059  -0.00240509    0.0324355  -0.00547485   -0.0702887   0.00386891   -0.0745222  -0.00943771    -0.113027    0.0855779  -0.00664913    0.0616953   0.00614329   -0.0526503  -0.00446456    0.0587904   -0.0353031   -0.0127195    0.0409413     0.033492    0.0365652   -0.0125926   -0.0458627   -0.0413784    0.0110608   0.00287116  0.000857676    -0.115787   -0.0212663  -0.00683618    0.0769777   -0.0844058    0.0205457   -0.0883876   -0.0648478    -0.044493   -0.0466335    0.0488109    0.0363939    0.0781356   -0.0125736    -0.112728    0.0129147   -0.0317944   -0.0771943    0.0893027   -0.0490149    -0.115405   -0.0251473    0.0258276    0.0717042   -0.0149401    0.0648528    0.0640558    0.0763901    0.0500473    -0.102361   -0.0220326   0.00677863    0.0620699    0.0418602    0.0104237    0.0996894    0.0495663    0.0143906   0.00963817    0.0226643    0.0306485    0.0459584    0.0928277    -0.031401   -0.0137431   -0.0118865   -0.0124946    -0.111373   -0.0839072   -0.0343298    0.0922648    0.0735277  -0.00109941   -0.0645295   0.00918864     0.062946    0.0212374    0.0579618   -0.0299712   -0.0229615   -0.0457478     0.117899    0.0500838    0.0304501     0.059563    0.0154145   0.00170442   -0.0297385    0.0223462     0.141353   -0.0546867 -0.000583541   -0.0385669   -0.0537848    -0.102999   -0.0242122   -0.0172356    0.0717103     0.049055   -0.0456948    0.0356314    -0.041544   -0.0372087   -0.0641105    0.0559885   -0.0625438    0.0184015   -0.0730008   -0.0315057    0.0413539   0.00735368   0.00588351   -0.0267122   -0.0357222   0.00177023    0.0841124    0.0244484   -0.0119584   -0.0772799   -0.0498858    0.0755743   -0.0697753   -0.0879505   -0.0166932    0.0517101    -0.105447   -0.0313273     -0.10425   0.00825461     -0.03053    -0.017729    0.0729606    0.0635765    0.0783991    0.0583246   -0.0305029    0.0379782    0.0697795    0.0242623    0.0473972    0.0251827   -0.0780193   -0.0631107   -0.0183065   -0.0353423   -0.0384426    -0.057965      0.03527   -0.0588863   -0.0658253  -0.00694428    0.0338428   -0.0154628   -0.0478373    0.0109736   -0.0657749   -0.0376803    0.0206071   0.00440183     0.147974    0.0577307   -0.0223288   -0.0568259    0.0208521    -0.106361   -0.0395916   -0.0320643    -0.013403   -0.0277181   -0.0585119   -0.0018943    -0.075514    0.0686459   -0.0653365    -0.114499   -0.0084895     0.053808    0.0526431    0.0534301   -0.0799947    -0.122312   -0.0559187    0.0648581   -0.0223905    0.0287758    0.0893722   -0.0300211    -0.108234    -0.106256   0.00674864   -0.0040192   -0.0338276   -0.0462836   -0.0287623   -0.0399931    0.0671674     0.030429   -0.0715281     0.011032     0.110778     0.036912    0.0196528   -0.0117986    0.0280732   -0.0681116   -0.0512131    0.0301875  -0.00591163    0.0373728    -0.139777 -0.000168282    -0.075028  0.000381207    0.0323516    0.0870183 -0.000222683   -0.0029761   -0.0477572   -0.0128202    0.0451064   -0.0664451    0.0638568   -0.0209674     0.051137     0.025132   -0.0325347    0.0367572    0.0954122    0.0154938   -0.0958422   0.00657885   -0.0157077   -0.0232552   -0.0265056    0.0228611     0.042468   -0.0413959  -0.00435309   -0.0123289    -0.144809   -0.0578871     0.157326    0.0247089    0.0186474   -0.0486556     0.132764  0.000970873   0.00339629   -0.0166459    0.0311237    0.0228719  0.000189771     0.243787      0.13385    0.0707157    -0.135945    0.0136033    0.0526826  -0.00404494   -0.0159345   -0.0232086    0.0527379    0.0480822    -0.137658   -0.0547595    0.0745247   0.00886161    0.0376772    0.0405724    0.0290515   -0.0248819     0.017061    0.0348022    -0.139511    0.0309053    -0.047006    0.0752172    0.0547722   -0.0122331    0.0551948    -0.176208    0.0748363    0.0460642   -0.0439963   0.00921012   -0.0457179   -0.0692742    0.0160762    0.0900938    0.0399368  -0.00756203    -0.108243     0.102832    -0.018807    -0.122043   -0.0163604    0.0169295  -0.00342733    0.0415106    -0.143352   -0.0284188    0.0141585    0.0403817    0.0100504   -0.0553394    0.0868958    0.0141352    0.0204318  -0.00759613   -0.0162188   -0.0105881   -0.0746208     0.157216  -0.00113813    0.0359691   0.00111215    0.0367681   -0.0478603   -0.0316655    -0.033924    0.0496932    0.0167001    -0.109663   0.00305084     0.072291   -0.0328439   -0.0844165    0.0938782   -0.0473529    0.0543285    0.0717074   0.00484147    0.0302535  -0.00788507      0.12956    -0.052626    0.0621791     0.127754    -0.031183      0.03355   -0.0925303    0.0229732    0.0137571   -0.0680296    -0.091014    0.0108064   -0.0434847    0.0718535    0.0245046    0.0357355    -0.105043   0.00838567 -0.000306691    0.0461295   -0.0643203   -0.0220713   -0.0109899    0.0544086   -0.0115093    -0.027788    0.0324656   -0.0304754   -0.0574413     0.136676  -0.00189733   -0.0476917   0.00229007   0.00996926   0.00818786    0.0240073   -0.0422713     0.113075   -0.0278154   -0.0275473     0.157705    0.0264057    0.0295005   -0.0201447    0.0262025    0.0526369   -0.0276172   -0.0849591   -0.0490651    0.0275055    0.0393739   -0.0451931   -0.0234567   -0.0223234   -0.0283806  0.000762728   -0.0197802   -0.0303981   -0.0148363  -0.00318868    0.0599849    -0.109846    0.0579042   -0.0675366   -0.0811486   -0.0520592   -0.0107887     -0.10224   -0.0943056     0.113489   -0.0638528    0.0184788  -0.00806118   -0.0358472   -0.0693997   -0.0112659     0.115401    0.0218116   -0.0133166     -0.07718   -0.0035677   -0.0300288   -0.0642833     0.110911     0.031148   -0.0543125    0.0238839    -0.131541    -0.054019   -0.0355331    0.0296362    0.0905167    0.0452147   -0.0128703   0.00862267     0.070556   0.00272287    0.0684143    0.0307656    0.0545355    0.0223615    0.0134463    0.0532378   -0.0591774   -0.0586779    -0.101464   -0.0694249   -0.0945639     0.068734   -0.0361267    0.0809672   -0.0553274     0.054579     0.112815     0.072113    0.0488577  -0.00141798    0.0282182    0.0128545   -0.0484117    0.0222172    0.0249552    -0.068092    -0.105226     -0.14432    0.0179491   -0.0492429   0.00974895   -0.0751208   -0.0979996    0.0733773    -0.095332   -0.0546825     -0.10665    0.0132778    0.0297528    0.0985077   -0.0342684   -0.0254563    0.0275097    0.0400625   -0.0312667   -0.0635469   -0.0123365    0.0316531    -0.027771   0.00816348   0.00547704  0.000536509    0.0712735    0.0169712   -0.0951039   -0.0110575    -0.104403   0.00168971
    0.122186    -0.142172    -0.104547   -0.0821548    0.0122529    0.0528311    0.0253534    0.0531914    0.0839899    0.0688845   -0.0396756    0.0036801   -0.0384532     0.111649     0.015573    0.0898125      0.10135    0.0493398    -0.139785    0.0301422   -0.0360726    0.0475525    0.0665135    0.0519099    0.0122077   -0.0168539   -0.0560717     0.059188   0.00393336   -0.0293962  -0.00134411   -0.0279722    0.0351884   -0.0531919    0.0745573    -0.134709    0.0961858    0.0650192     0.065904   0.00818012   -0.0724939   -0.0780534   -0.0605976   -0.0375924    0.0103331    -0.033206    0.0677482    0.0253253   -0.0671657   -0.0717663   0.00399322    0.0306448     0.118056   -0.0163377     0.150851   -0.0098646   -0.0304785  -0.00207167    0.0358819      0.13415    0.0154604    0.0254802    0.0929485    0.0843827    0.0792249   -0.0601606   0.00389066    0.0194191    0.0415244   -0.0297187    0.0899816   0.00492461   -0.0340882   -0.0470289   -0.0706938     0.065966  -0.00972663    0.0653614    0.0969086  -0.00381823    0.0553804    0.0526508    0.0253036   -0.0461441   -0.0543322   -0.0162209   -0.0601683   -0.0916647    0.0458195  -0.00124593   -0.0502554    0.0175462     0.142726   -0.0400338   -0.0052726   -0.0901659  -0.00204369   -0.0216743   -0.0299633   0.00590088  0.000465619    0.0952232    -0.065125    0.0517202    -0.113203   -0.0581387  -0.00528288   -0.0280248   -0.0471113     0.134063    0.0526759   -0.0303288    0.0735378    0.0915843    -0.101105   -0.0147496   -0.0167176    0.0345406    -0.123044   -0.0399275   -0.0835479    0.0142321    0.0950147    -0.117363    0.0159431    0.0786126     0.100509   -0.0645808   -0.0392921     -0.14201  -0.00896352     0.104291    0.0308226     -0.11987    0.0371911   -0.0682432   -0.0017676    0.0150066    -0.059767   -0.0575001   -0.0380176    -0.069862    0.0385886   -0.0249238    0.0576063   -0.0146651   -0.0381848     0.016545   -0.0701387   -0.0211102     -0.02641   0.00353511    0.0270247   -0.0596968   -0.0491229     0.104495    -0.073078   -0.0668487    0.0989303  -0.00329007    0.0588078    -0.133596   0.00716384    0.0741691   -0.0629049   -0.0509359 -0.000162628    -0.148578    0.0354342   -0.0348846  -0.00279723   -0.0755908   -0.0186482   -0.0804311    0.0294866   -0.0846346   -0.0374467   -0.0961037  -0.00938945   -0.0383129    0.0171297    0.0177044    0.0490302   -0.0834533    0.0601571   -0.0345711   -0.0189763    0.0936493   0.00281913    0.0410356   -0.0161521    0.0247169   0.00602124  -0.00214628     0.022826   -0.0598955    0.0373359    0.0311206    0.0248706   -0.0288053    0.0555068    0.0108093   -0.0942729    -0.111454   -0.0462308    0.0800796    0.0271289   -0.0648627     -0.03159   -0.0490169    0.0457223   -0.0207969    0.0287523   -0.0545804   -0.0637274    0.0144989    0.0119117   0.00377646     0.094749   -0.0620352  -0.00311263  -0.00318795     0.103462    0.0290272   -0.0343897     0.100552   -0.0598982    0.0585973    0.0862616     -0.14052   -0.0741732    0.0203121    0.0825233   -0.0361508    0.0084031    0.0669587    0.0663599     0.101849   -0.0288115    0.0176482   -0.0590586    0.0498887   -0.0888622    0.0267697   -0.0423587    0.0698694   -0.0494138   -0.0347251    -0.109504     0.102361     0.104814   0.00917842    0.0513252   -0.0443225   -0.0155251    0.0088706    0.0401985   -0.0814419   0.00303702   -0.0976605   -0.0987571   -0.0103266   -0.0102035    -0.073946    0.0408883    0.0198518    0.0469622   -0.0554469   0.00715854    0.0414378    0.0302319  0.000677507    -0.027943    0.0128168   -0.0486496    0.0188177    -0.048354     0.140135   -0.0367351   -0.0741724   -0.0477594    -0.035642   -0.0874984    0.0510278    0.0281795    0.0186471   0.00222135   -0.0151755    0.0457652   -0.0106789    0.0893247    -0.051879   -0.0998148   -0.0542187    0.0443419   -0.0354904    0.0707856    0.0577723    0.0678941   -0.0274179    0.0153647    -0.105354   -0.0523071     0.100901    -0.062916   -0.0534912   -0.0333361   -0.0693974    0.0596351    0.0227399   -0.0903109   -0.0967766  -0.00799057    0.0231715   0.00487646    0.0978155   -0.0823678     0.043543   -0.0300623    0.0957368    -0.126397     0.084484   -0.0343293    0.0119433    0.0735554    0.0334297   -0.0608448    0.0458109    0.0244776  -0.00653984   -0.0487679    0.0384906   -0.0475034    0.0113553    0.0903716    0.0139638    0.0804585   -0.0266729    0.0638505    0.0840258   -0.0308748   -0.0639661   -0.0379663    0.0164303    0.0131898    0.0386252   0.00105576   -0.0062224   -0.0860978   -0.0228194    0.0104441     0.023609    -0.061899   -0.0263515    -0.118668    0.0859873   0.00292593   -0.0405399   -0.0990239   -0.0200085    0.0364394     0.135868    0.0488175   -0.0435896   -0.0152341    0.0149442    -0.107847   0.00747062    0.0120725     0.049381    0.0229079    0.0326706    0.0166309   -0.0126478     -0.11857   0.00695498   0.00493115   -0.0531431   -0.0173151    -0.027064    -0.125076    0.0108256    0.0335165   -0.0142522   -0.0786292  -0.00427079   -0.0370642    0.0942907    0.0952778   -0.0093325    0.0171999   -0.0364727    0.0656896    0.0320597    0.0260627   0.00888873   -0.0183499   0.00938929    0.0652747   -0.0689314    0.0845358  0.000536623   -0.0486381   -0.0314282    -0.040197    0.0494555   -0.0137354   -0.0871535   -0.0485367   -0.0163335    0.0385789    0.0331407    0.0592489   0.00244422    -0.022033    -0.020244    0.0622148    0.0878846   -0.0836081   -0.0160218  -0.00827884     0.090285    -0.113597  -0.00919804    -0.018685    0.0829358     0.039549    0.0502504    0.0138235     0.106512    0.0540086    0.0911308    0.0303603   -0.0259797    0.0644962    -0.124707   -0.0374719    0.0118593   -0.0235669    0.0352076    0.0568157     0.047889    0.0273767   -0.0224338    0.0905767  -0.00204444   -0.0835518    0.0399801    0.0642186    0.0708088   -0.0773646   -0.0128939    0.0506611   -0.0457451   -0.0353134     0.077789    0.0790015    0.0486503    0.0657481   -0.0572265     0.077437   -0.0829527   -0.0435197   -0.0153692   -0.0322082   -0.0115826     0.102261    0.0111466    -0.098612   0.00986578   -0.0151912  -0.00228396   -0.0401752   0.00856927    0.0637073   -0.0533602   0.00934214   -0.0109139    0.0413239    0.0465927   -0.0908545    0.0553111  -0.00815935    -0.100885   -0.0304691     0.093977     0.162563   -0.0581891   -0.0652557    0.0510973    -0.103924   0.00536154   -0.0523973   0.00920668    0.0277349   -0.0120415   0.00537027    0.0118447    0.0231065   0.00213852  -0.00415814   -0.0871309   0.00312506    0.0793001   -0.0450524   -0.0826387    0.0524384   -0.0163186   -0.0498542     0.035395    0.0363186  0.000565164
  -0.0852379   -0.0229316   -0.0538734    0.0421974   -0.0269261   -0.0374617   -0.0803112    0.0230368    0.0993892   -0.0157667   -0.0490405   0.00164505   -0.0599045      -0.0391     0.125465   -0.0279858    0.0425314   -0.0182166    0.0403448    0.0190777  -0.00735724   -0.0534059    0.0289809   -0.0539381    0.0350587   -0.0264565   0.00256495    0.0525982   -0.0238852    0.0026134   -0.0208131   -0.0965228     0.164132    0.0053592    0.0767514  -0.00905606     0.047792   -0.0074264    0.0525563    0.0489794    0.0252005    0.0474703  -0.00947129   -0.0247401   0.00656358   -0.0215138   -0.0441107   -0.0409615    -0.104457   0.00127257   -0.0353412   -0.0713451   -0.0275876     0.082016    0.0311037    0.0215767   -0.0758694   -0.0525141    0.0212701    -0.126506    0.0789209  -0.00414388   -0.0284677    0.0442187    0.0622138   -0.0646106 -0.000482489   -0.0109476   -0.0761751   -0.0685959   -0.0888804   -0.0207617     0.134952    0.0258648   -0.0608867    0.0553526    0.0323392      0.12427   -0.0243202    0.0504178    0.0295049    0.0169407    -0.024373    -0.037554   -0.0665821    0.0421649   -0.0518985   -0.0653132    0.0571447  -0.00452557  -0.00415311   -0.0949604     0.039253   -0.0403356   -0.0168275   -0.0233243    0.0526226     0.112484    -0.155371   -0.0362651    0.0402824   -0.0638334   -0.0488184   -0.0329564   -0.0365283      0.02071   0.00525246   -0.0221249   -0.0304634     0.103611   -0.0472558  -0.00151721    0.0157987   -0.0766922    0.0375317    0.0902979    -0.111747     0.020159   -0.0607343  -0.00273061    -0.124537   -0.0130071    0.0504929    0.0428573  -0.00855449    0.0119295   -0.0852301    0.0231439   -0.0471291   -0.0511521    0.0600665  -0.00428467   -0.0291597    0.0280081    0.0341641   -0.0757868    -0.103986   -0.0365365  -0.00324009   -0.0383412  -0.00908475    -0.061961  -0.00960578   -0.0853784   -0.0289326     0.164606    0.0519639   -0.0449354    0.0610464    -0.112865     0.046907    0.0179964    -0.119769    -0.111991  -0.00720839  -0.00710506    0.0677408    -0.124281   -0.0690374   -0.0168405     0.151513    -0.036729     0.035098   -0.0396636   -0.0949455     0.112411    -0.146672   0.00571358    0.0106971   -0.0522823    0.0744504   0.00245736    0.0613684    0.0213831  -0.00930647   -0.0681645   -0.0313556   -0.0688456   -0.0790552   -0.0527705   0.00441212   -0.0289944  -0.00934275   -0.0348823    0.0669112   -0.0883396     -0.10424    -0.088691   0.00775725    0.0506958   -0.0396892   0.00714963    0.0568953    0.0452686   -0.0526912    0.0790454    0.0153437   -0.0208447    0.0267817    0.0575765    0.0766617    0.0454044    0.0459151    -0.112788    0.0169355   -0.0165845    0.0387475    -0.090803    0.0472766   -0.0365813     0.106892    0.0334214    0.0136433   -0.0640006    0.0469624    0.0336182   -0.0880378     0.146723   -0.0901999    0.0427248    0.0528133   -0.0616364    0.0410391   0.00343399     0.117757     0.176437   -0.0450716    -0.107863    0.0574392   -0.0951023    0.0183916    -0.035285  -0.00494352    0.0415475   -0.0572124   0.00660681     0.136876    0.0661365    0.0214108  -0.00238278    0.0911233   -0.0188819    -0.012555    0.0618483    0.0126876    0.0629087  -0.00964525    -0.133236     0.114121   0.00608965   -0.0640155    -0.086102   -0.0577875   -0.0582821    0.0723806    0.0176408    0.0304555    0.0525469    0.0370905    0.0220187    0.0761697   -0.0307125     0.102892    0.0256214      0.02218    0.0411392    -0.046863    0.0606833    -0.149588   -0.0831698    0.0590511   -0.0316608    0.0690689    0.0972725   -0.0679285     0.031357    0.0644055    0.0860132   -0.0395306   -0.0646704     0.130816    -0.121483   0.00192437    0.0340007   -0.0256219   -0.0503226   -0.0794492   0.00726249    0.0915075     0.132734    0.0804974   0.00477292   -0.0236772  -0.00444283       0.0665    0.0279415    0.0146379   -0.0271432    0.0638787   0.00123674    0.0258133   -0.0471744    0.0529862    0.0406306   -0.0270051    -0.132329    0.0914917    0.0521729    0.0339976   -0.0842709  -0.00787792    0.0313204   -0.0644867    0.0579259   -0.0471199    0.0502646    0.0369289   -0.0921147   -0.0127555    -0.142322   -0.0478474     0.128928   0.00188069   -0.0161945      0.02958    0.0211811    0.0360104    -0.031569   -0.0102657   -0.0568104   -0.0140906    -0.038888    -0.025358    0.0175329    0.0478826    0.0215119   -0.0323525   -0.0203509    0.0488709   0.00488165    0.0350964  -0.00194723    -0.102573  -0.00382914   -0.0281693    -0.102814   0.00979275   -0.0280092    0.0234794   0.00432096    0.0434649      0.11662    0.0715931   -0.0669496   -0.0424474    0.0569749    -0.050814   -0.0311278     0.156198    -0.101503    -0.138655     0.016033   -0.0602728    0.0199016    0.0851338    0.0515354     -0.12309     0.046096    0.0931807    -0.113972   -0.0107062    0.0419295    -0.108041  -0.00522698   -0.0633699     0.045833    0.0854851    0.0372263    -0.119838   -0.0073696    0.0442345    -0.142358    -0.144513    -0.124604     0.153333    0.0402107   -0.0528407  -0.00521759    -0.106582   -0.0355899   -0.0197068    0.0606334    0.0289898     0.164836   -0.0349858   -0.0668047   -0.0889494  -0.00928786   0.00913383   -0.0942174  -0.00776207    0.0168084   0.00715622  -0.00768187    -0.053957   -0.0880056   -0.0259662  -0.00276135   -0.0551443   -0.0356865     0.152897    0.0514097  -0.00962833     0.119379    0.0183932   -0.0755917   -0.0261726    0.0823252    -0.116524   -0.0416107   -0.0850735   -0.0235642     -0.14678    0.0366875     0.150343     0.059601      0.03532    0.0247723     0.060696    0.0514587      0.04659   -0.0801388    0.0201561    -0.038548    0.0278292   -0.0528106     0.137712    0.0251429   -0.0433444   -0.0294418    0.0626445  -0.00279223   -0.0567342    0.0641875   -0.0127805     0.014788   0.00462616   -0.0153099  -0.00243286   -0.0444422    0.0957409   -0.0552691   0.00988505    0.0414191    -0.131395   -0.0379311    0.0245296     0.178717    0.0109326   -0.0276461    -0.094494  -0.00108965    0.0150537   -0.0190207    0.0219124   -0.0294708    0.0404406    0.0376113    0.0246564    0.0502595    0.0268138    0.0264721    0.0680642   -0.0127864    0.0859932    0.0480477    0.0308504   -0.0899896     -0.00998    0.0317162    0.0362022   -0.0113274  -0.00832865  -0.00470915     0.100222    0.0658038   -0.0200427    0.0301776     0.053947    -0.109726    0.0727912    -0.112495   -0.0475021   -0.0317831   -0.0832521    0.0528887    -0.150459   -0.0144619   -0.0851864   -0.0301537    0.0174503      0.04589   -0.0370383  -0.00439571   -0.0647098     0.052775  0.000394797   -0.0616116    0.0597836    0.0398415   0.00233579   -0.0880675
  0.00137622    0.0549385   0.00782261   0.00269922    0.0507956   -0.0831726     0.103855    0.0703003  -0.00767907    0.0351066    0.0466204    0.0728861   -0.0393455    -0.110624    0.0958181    0.0917957    0.0501454   -0.0660814    0.0865287   -0.0314724 -0.000194193   -0.0316279    0.0294434  -0.00569853   -0.0361365    0.0603902    0.0206432    -0.125621   -0.0826337 -0.000408848    0.0676104    0.0077447   -0.0130528   -0.0452541    0.0857891  0.000319891  -0.00941881   -0.0476095   -0.0753241     0.025613   -0.0439693    -0.041331    0.0916385   0.00292694    0.0197504   -0.0740002  -0.00624377      -0.1016   -0.0171785   0.00105299    0.0140375   -0.0412576    -0.148378   -0.0102014   -0.0617981    -0.112618     0.112904    0.0474555   -0.0604079    0.0870723    0.0142897    0.0715469   -0.0341835   -0.0677871   -0.0769996  -0.00965075    -0.111714    0.0921471    -0.103252  -0.00736038    0.0360921     -0.04867   -0.0168509     0.175656   -0.0515132   -0.0866981    0.0156264  -0.00226571      0.11091     0.108582    -0.101703    -0.054142    0.0196372 -0.000597707    0.0506018   -0.0180776    0.0629393   -0.0420656    0.0196778   -0.0645988    -0.121873   -0.0505727   -0.0779966   -0.0465398   -0.0789097    0.0285566    0.0135623   -0.0192233    0.0239301     -0.02699    -0.118793   -0.0710519   -0.0470463   -0.0530142  -0.00736211   -0.0460547    0.0368616    0.0137941   -0.0517132    -0.037206    -0.085913   -0.0509954   -0.0660416     0.063464    -0.224681   -0.0429966   -0.0464099   -0.0351231    0.0180514   0.00417936    0.0710633    0.0267713   -0.0331983     0.007522   -0.0263922   -0.0621374   -0.0486481   -0.0113016    0.0973266   -0.0321772     0.057366  -0.00709809    -0.131654    -0.111152   -0.0253151   -0.0699223   -0.0276522    0.0423843   0.00328074     0.010981   -0.0332477    0.0743622  -0.00781999   -0.0149993    0.0659425   0.00233584   -0.0372111   -0.0443448    0.0913439   0.00244212    0.0361932   -0.0944948    -0.144194 -0.000712645    0.0898008    0.0433178   -0.0460066    0.0348214     0.044084   -0.0573645    -0.157865  -0.00985542    0.0093657    0.0685292   -0.0473063   -0.0226521    0.0259437   -0.0591721    0.0244113    0.0496132   -0.0555474   -0.0227205     0.103483     0.117454     0.127502   -0.0140413    0.0154425    0.0347046   -0.0646989   -0.0749018   -0.0105307    0.0371305 -0.000105063    0.0578843     0.032938   -0.0756493    -0.056193   -0.0838715    0.0232338    -0.085522    -0.137603   0.00925321   -0.0157515   -0.0696547   -0.0552045   -0.0140111   -0.0885958    -0.074915   -0.0258483   -0.0171181   -0.0429651    0.0885652    0.0496033    0.0856169   -0.0729873    0.0408474   -0.0494674     -0.10773   -0.0359965    0.0373083   -0.0181984   -0.0234513    -0.228584  -0.00854238    0.0502627   -0.0296211   -0.0779365   -0.0824665    0.0298291     0.010495   -0.0219378     0.031401    0.0378672     0.019326   -0.0737604   -0.0734764     0.011568    0.0297558  -0.00233874  -0.00393936    0.0313465    0.0512541      -0.0135    0.0188669   -0.0471912    0.0363814   -0.0128647  -0.00904418    0.0904641   -0.0430968    0.0238401   -0.0516364    0.0411351   -0.0063297    0.0428114    0.0131936    0.0348412  -0.00482567    0.0842838    -0.044532   0.00185568   -0.0844302    0.0247456     -0.06579   -0.0811561    0.0198494   -0.0479389    0.0608712  -0.00265117     0.104712  -0.00823135    0.0901064   0.00491803   -0.0995713    0.0752581    0.0121038    -0.153148  -0.00553044   -0.0733644     0.013386    0.0408958   -0.0341461     -0.11939    0.0856103    0.0237867    0.0189471   -0.0672302   -0.0126744    -0.127111    -0.107096   -0.0107603   -0.0160212  -0.00478966   -0.0928527   -0.0538173   -0.0809891   -0.0205357    0.0212872    0.0758137   0.00410712   -0.0828281   -0.0489102   -0.0407087    -0.054484  -0.00294392    0.0312579   -0.0430254    0.0744818    -0.100325    -0.022846   -0.0202472    0.0431936   -0.0548382     0.097017    0.0159541   -0.0371232   -0.0124799   -0.0754352    -0.101918   0.00115188   -0.0161258     0.067919   -0.0621893    0.0731582   -0.0083604    0.0744029  -0.00241548   -0.0149957    0.0087589   -0.0287764   -0.0405593   -0.0276409    0.0363519    0.0507606    0.0400674    -0.103501      0.10216   -0.0420574   -0.0692038    0.0335089  -0.00957068    0.0135409    0.0881831  -0.00888862    0.0708158   -0.0734562   -0.0324418    0.0652376  -0.00923767  -0.00826262     0.125333     -0.15521    -0.010669   -0.0765572   0.00293864   -0.0821004   -0.0872857    0.0253797   -0.0170577     -0.10482   -0.0246862     0.140579     -0.12304     0.126242    0.0128535    0.0217772    0.0794014    -0.157278   -0.0893829    0.0110721     0.100127    0.0088748   0.00370247    0.0437909   -0.0114364    0.0781378  -0.00472925   -0.0421131     0.110527     0.139563    0.0811499    0.0733132    0.0568226   -0.0823053    -0.093334   -0.0557514   -0.0922965    0.0114161    0.0183608   -0.0610659   -0.0393642    -0.136729    -0.089397   -0.0554035    0.0364208     0.102848  -0.00752512    0.0120977   -0.0128283   -0.0186212   -0.0464103    0.0263761   -0.0389292   -0.0769794    0.0103137   -0.0911304  -0.00463088   -0.0012799   -0.0145213    0.0836054    -0.037714     0.107371    0.0338396    0.0687631    0.0457401    0.0415074    0.0448464   -0.0137826    0.0171641    0.0278431   -0.0713796    0.0492643    0.0990868   -0.0637287   -0.0375232    0.0276236    -0.115242   -0.0418941  -0.00302399   -0.0999756   -0.0199695    0.0109666      0.05012   -0.0417575    0.0711707   -0.0247576   -0.0506849    0.0566562   -0.0043674    0.0814976    -0.104147    0.0637853   -0.0123491    0.0407114   -0.0783405  -0.00479522    0.0850257    0.0398045   -0.0224447   -0.0316554     0.023549    0.0203845   -0.0694343   -0.0543759   -0.0302284    0.0529042    0.0325885    0.0665442    0.0914594    0.0319643   -0.0656597    0.0466729    0.0282235    -0.040324   -0.0456584    0.0101456     0.061256    0.0437406    0.0112268   -0.0326799    0.0817857   0.00168841   0.00215456    0.0316747    -0.034613   -0.0297862   -0.0667295    -0.015557     -0.19883    0.0258132   -0.0129163     -0.12054   -0.0994449    -0.091898   0.00521024    0.0144159   -0.0750388   -0.0442202    -0.035371   -0.0200137     0.012901   -0.0295093   -0.0827765    0.0792389     0.118749   -0.0156288   -0.0251026    -0.073154   0.00303753   -0.0273664   -0.0418861  -0.00832331   -0.0738643    -0.018953    0.0337888   -0.0413072    0.0931264   -0.0048598  -0.00343758   -0.0499472    0.0295789   -0.0932723   -0.0213199     0.013396    0.0750524    0.0274539   -0.0116897    0.0674415     0.124932   -0.0168884    0.0519828     0.062748
   0.0389117   -0.0621968  0.000425684   -0.0271896    0.0768156   -0.0573405    0.0641604     0.012256   -0.0231308    0.0595482   -0.0893683    0.0426858   -0.0785225    0.0416494    0.0357473    0.0396261   -0.0782685     0.104323  -0.00211247   -0.0151298    -0.109306    0.0461876   -0.0380408     -0.11653     0.108953   -0.0583436    0.0654945   -0.0571732     0.019336   -0.0240987   -0.0220633     0.014257   -0.0290646   -0.0321145    0.0225351    -0.059736    0.0344715     -0.08198   -0.0782355  -0.00920283     0.138475    0.0063846     0.127715    0.0215208    -0.042037   -0.0421765    0.0105104   -0.0170598   -0.0333672    0.0274002   -0.0274251    0.0549955    0.0648669   -0.0128419   -0.0958565     0.050137    0.0170312    0.0409432   -0.0712929   -0.0504651     0.063015    0.0238061   -0.0909779    0.0693201   -0.0130019     0.104956    -0.064203     0.110813    0.0239138   -0.0583235    0.0633629   -0.0125036   -0.0402484  0.000526702     0.107456    0.0639721   -0.0624545     0.090377  -0.00178169  -0.00213448    0.0550471   -0.0730786   -0.0286079   -0.0196637    0.0287476     -0.05376   -0.0175082    0.0275685   -0.0519238   -0.0100785    0.0971615    0.0451883    0.0653533    0.0400612    -0.016367   -0.0502253    0.0616181    0.0160123   0.00151392  -0.00945842   -0.0494953     0.106257    -0.093564    -0.115028    -0.102684    -0.047273    0.0430902    -0.159124    -0.105492   -0.0471439    0.0298589   -0.0249487     0.066334     0.129685   -0.0111847   -0.0140265   -0.0964842     0.102301    0.0627277   -0.0280915   -0.0318043     -0.10651    -0.017706   -0.0310232   -0.0036079   -0.0154874  -0.00544566   -0.0298006    0.0606599   -0.0349398   -0.0206522    -0.016437   -0.0767795    0.0910354   -0.0224148    0.0563854   -0.0397491   0.00389066    0.0133517   -0.0266171     0.033322     0.109841   -0.0356182   -0.0346591   -0.0958261   -0.0758077   -0.0104517   -0.0836219   -0.0653134   -0.0177334   -0.0879048     0.021115    -0.111963   -0.0819885   -0.0717677   0.00572196   -0.0486816    -0.023184   -0.0331978    0.0282018   -0.0925681   -0.0582016    -0.102339     0.109437    0.0591377    0.0251798   -0.0256008    0.0566851    -0.104055   0.00841838   -0.0185482    0.0300153    0.0425599   -0.0908107    -0.117047    0.0291625   -0.0269472   -0.0323094    -0.053792    -0.082274   0.00533406    -0.102234    -0.129585   -0.0713263   -0.0426174    0.0134361    0.0176009   -0.0887927    0.0220066   -0.0193468   -0.0820577    0.0249928    0.0164794     0.111281    0.0188939     0.184267   -0.0616269   -0.0153333   0.00164274    0.0716612     0.027591   -0.0371192    -0.134801    -0.067259   -0.0227754   -0.0121125   -0.0969178     0.124965  -0.00377346    -0.119884    0.0847064      0.11025    0.0280439   -0.0572488    0.0282026   -0.0178823     0.117123    0.0242474  -0.00389291   -0.0340722     0.027943    0.0490088    0.0189766   -0.0120741   0.00139272    0.0254931    0.0187104     0.139354   -0.0921165   -0.0540254   -0.0237524   -0.0426721    -0.124698   -0.0824341   0.00254878    0.0300155    0.0406847    -0.111518   -0.0313843    -0.101749    0.0596965  0.000770328     0.025135    -0.030753    -0.128175  -0.00961116  -0.00375133    0.0813814  -0.00565773   -0.0253712    -0.033987   -0.0139766   0.00128579    0.0226518   -0.0927877    0.0595048    0.0777722   -0.0294283   -0.0518664   -0.0265968   -0.0293153   -0.0358948    -0.022077   -0.0304076   -0.0887589   -0.0182441     0.024887   -0.0913142   -0.0321205    0.0252615     0.048922   0.00355791   -0.0368346   -0.0406483    0.0052003    -0.114479    0.0361676   -0.0481761   -0.0155117    0.0666865   -0.0255504     0.106842    -0.163625     0.143934   -0.0739524    0.0410416  -0.00427803    -0.130996    -0.123154    0.0580916   0.00562919   -0.0110835    0.0271902    0.0366395   -0.0288619    -0.020712    0.0515109     0.102394  -0.00833191   -0.0808752    0.0453411     0.081471   -0.0944677     0.015266    0.0352891   -0.0128967   -0.0297189   -0.0704156    0.0540364  0.000854365   -0.0646669    0.0635784   -0.0537374    0.0814946   -0.0340678    0.0656536  -0.00440101    -0.116347   0.00913908   -0.0429269   -0.0429039   -0.0793591   -0.0286443   -0.0101803    0.0277137   -0.0316694   0.00225555     0.101706   -0.0542795    -0.101434   -0.0226277   -0.0663847    -0.147965    0.0294717   -0.0978463  -0.00443406    0.0130753    0.0842585   -0.0607603   -0.0281849   -0.0061731    0.0368051    0.0208476     0.127711    0.0227315    -0.123807   -0.0703343   -0.0156204   -0.0883729     0.184627    0.0446993    -0.047815  -0.00843429    -0.152488   0.00352655   -0.0834698       -0.042  -0.00078369    0.0192765    0.0240891   -0.0477415   -0.0283722   0.00389263    -0.118249     0.045227   -0.0149361   -0.0695482   -0.0696319    0.0682939   -0.0850151   -0.0254031     0.154938   -0.0618063    0.0024809  -0.00990593    0.0136807    -0.138317    0.0849313    0.0327339     0.167883   -0.0788632   -0.0135857    0.0362844    0.0843648   -0.0651882    0.0461593    0.0172859    -0.012532    0.0156343    0.0438451    0.0511796   0.00883431    -0.114278    0.0227466    0.0160675   0.00451618    -0.075064   -0.0512375   -0.0493663   -0.0777068   -0.0182342     0.121987    -0.158052   -0.0344122   -0.0228836     0.028849   -0.0538995   -0.0289692     -0.03477    0.0311962   -0.0684133    0.0225994    0.0197465   -0.0471353     0.020896  -0.00732863    0.0294097    0.0920023    -0.155593    0.0654309    0.0197339     0.073773    0.0019539    -0.132025   -0.0312053   -0.0733757   -0.0568245   -0.0189057  -0.00163248   -0.0601176     0.015687   -0.0467117    0.0466914     -0.14872   -0.0368973   -0.0419496   -0.0550842    0.0686866   -0.0474504    0.0710109   -0.0908025    0.0370311      -0.0321     0.130181  -0.00820604  -0.00306621    0.0166198   0.00723349   0.00346614     0.138342     0.029361    0.0327889    0.0294163   -0.0245085   -0.0281525    -0.144054  -0.00678154   -0.0456881    0.0241841    0.0919116    -0.017042    0.0123948    0.0578764   -0.0516631   -0.0784718    0.0733619   -0.0117679    0.0378289   -0.0870871   -0.0906129    0.0607394   -0.0051733    0.0443838    -0.037014   0.00761826    0.0164491    0.0303934    0.0721741    -0.067053   -0.0892388   0.00943925    0.0881907     0.053631   -0.0621159     0.023615    0.0367696    -0.140841    0.0191966   -0.0509211    0.0852098  -0.00347897   -0.0141188    0.0510992    0.0154871  -0.00801019   -0.0364849   -0.0109771    0.0526265     0.016276   -0.0304106    0.0391858    0.0244278  -0.00623247   -0.0750551     0.033025    0.0294676    0.0484028    0.0590894    0.0883664   -0.0642662     0.104069   0.00123791
  -0.0416674   -0.0673653   -0.0280455   -0.0101732    0.0598911   -0.0425646   0.00973767   -0.0129723    0.0154484    0.0226372    0.0433663   -0.0274323     -0.15655   -0.0679289  -0.00885986    0.0432668    0.0309779    0.0908591    -0.012514   -0.0396062    0.0557095   -0.0368983    -0.149164    0.0820684   -0.0409062   -0.0295037   -0.0374964    0.0671274    -0.067657     0.022967    0.0643282   -0.0607893   -0.0690826    -0.042756  -0.00537543    0.0071899   -0.0539111   -0.0366331    0.0102882    0.0215498   -0.0262933   -0.0283931    -0.111317    -0.119711   -0.0503903   -0.0606379    0.0559575    0.0631522    0.0644882    0.0428199    -0.078194   -0.0725266    0.0267129    0.0436668   -0.0422438    0.0744229   -0.0345331   -0.0312541  0.000504023  -0.00465449  -0.00798279    0.0783558    0.0650551   -0.0266826   -0.0618227    0.0159644   -0.0364291    -0.038767   -0.0572728    0.0658162    0.0339324     0.107003   -0.0527579    -0.115103    0.0142076   0.00331807   -0.0441339    -0.119229   -0.0293511   0.00811567  -0.00638172    0.0199147    0.0485514   -0.0209052   -0.0472719   -0.0393239   -0.0239815   -0.0828473   -0.0358151    -0.017937    0.0318016   -0.0438026   -0.0693116     0.135537    0.0166793    0.0562519   -0.0342495   -0.0508814  -0.00271998    0.0368359   -0.0487748   -0.0284289   -0.0523927   -0.0122782   -0.0807066   -0.0250662    0.0513788     0.017927    0.0812355   0.00226366    -0.106598     0.167687    0.0308148    -0.078867   -0.0589134   -0.0144078    0.0322339    -0.139963   -0.0579687    0.0144488    0.0154114   -0.0674096    0.0846417    0.0200905   -0.0129285  -0.00830945    0.0351023     -0.10483   -0.0136246     0.043516   -0.0258079    0.0543817   -0.0681137    -0.119951    0.0353623   -0.0113927   -0.0747083    0.0497951   0.00369164   0.00681334    0.0513021   -0.0353545   -0.0305712    0.0601816    -0.172682    0.0597252  -0.00302066    0.0985919    0.0452932   -0.0391215   -0.0462794   -0.0435996   -0.0832548    0.0657751   -0.0129352   -0.0189143    0.0543953   -0.0259201     0.104851    0.0437759   -0.0349436    0.0596918  -0.00285259   -0.0688244      0.13253    -0.016452    0.0275948    0.0683815    0.0955439   -0.0142687   -0.0406097   -0.0531497   -0.0128368    -0.142751   -0.0769404    0.0891833    0.0665593     0.124849    0.0547774     0.020874    0.0373494    0.0443559   -0.0810528   -0.0343732   -0.0335547   -0.0271727   -0.0652247   -0.0179741    0.0319094    0.0554167    0.0993937    0.0772693   -0.0866273   -0.0470716   -0.0625174    0.0875534    0.0132761   -0.0724322    -0.121494    0.0604875   -0.0975727    0.0077161     0.031883    -0.114554    0.0545198     0.114832    -0.115406   -0.0178608   -0.0399826  -0.00918236   -0.0887553   -0.0642703   -0.0308131   -0.0552972   -0.0406665    0.0241913    0.0704117   -0.0740589     -0.03988  -0.00405928     0.019493    0.0733562    -0.131557    0.0831319   -0.0173756    0.0504452     0.100154   -0.0257009   -0.0313361     0.153124    -0.158095    -0.139952   -0.0580229    0.0550956   -0.0372025    0.0989054    0.0331114   -0.0213012   -0.0199426   0.00993965    0.0174526  -0.00450064    0.0136231     0.116986   -0.0454545   -0.0492987   -0.0840294    0.0154616   -0.0630816    0.0228659   -0.0963801   -0.0789933    0.0165445    -0.103079   -0.0438127    0.0193113   -0.0703239    0.0551028   -0.0734378    0.0608594   -0.0277704  -0.00632918    0.0126347   -0.0438777   -0.0273939    0.0752252   -0.0742294   0.00746296    0.0875318   -0.0507782   -0.0559437     -0.17171  -0.00744631    0.0337896   -0.0688169   -0.0560734    0.0338691    0.0104482   0.00463512   -0.0386201     -0.10503    0.0333153    -0.110006    0.0289793    0.0190387    0.0332238   -0.0545459   -0.0952528    0.0165893    -0.115294    0.0830009     0.091092    0.0248799    -0.042607   -0.0609585    0.0586602    0.0378651   -0.0422617      0.14088    0.0210503    0.0275224    0.0613893   -0.0540715   0.00399561   -0.0266071   -0.0573358   0.00119607  -0.00927053    0.0110554    0.0202001   -0.0670592    -0.020604    0.0610236   -0.0234903   -0.0207046    0.0210928    0.0758174   -0.0482913    0.0931775  -0.00042472   -0.0517884   -0.0404884  -0.00524344    0.0196003    0.0305084    0.0811737   -0.0535519    0.0466162    -0.113114    0.0111593    -0.190861    0.0273448   -0.0563131   -0.0284508    -0.035076    0.0241677    0.0402428    0.0213219    0.0142491   -0.0112193   -0.0562874    0.0626182   -0.0388537   -0.0122427   -0.0441254      0.13212   -0.0819774   -0.0672072    -0.208604   0.00865186    0.0186667   -0.0660257    0.0557903    -0.076038   -0.0774754   -0.0600503     0.012197   -0.0995985   -0.0565167   -0.0160113   -0.0659537   -0.0103681   -0.0626433   -0.0229278   -0.0690624  -0.00926058   -0.0691844     0.104272    -0.109111   -0.0197271    -0.108899    -0.203434    0.0544915    -0.108997   -0.0165381    0.0379043     0.134214    0.0231995   -0.0567116   -0.0202174     -0.10488  6.75091e-06   -0.0429525    0.0328265   -0.0701501   -0.0396009    -0.120306    -0.144899    0.0658255   -0.0690286    0.0511426    -0.122069   -0.0398465  -0.00811006   -0.0363505     0.114407   -0.0688465    0.0218471     0.136388    0.0561767    -0.148569    0.0190239   -0.0656273   0.00773411  -0.00647247    0.0465266     0.101337    -0.145266    0.0450193    -0.134604    0.0889162    0.0360458   -0.0352259     0.135436    0.0055228    0.0532775   -0.0273866     0.103927    0.0115041   -0.0362478   -0.0331124    0.0192128   -0.0276152   -0.0880734   -0.0137456   -0.0358879   -0.0537529    -0.100328   -0.0322876   -0.0605944   -0.0213013    0.0693419    0.0370347     0.100713    0.0386971     0.043555   0.00767108   0.00788335    0.0559919   -0.0231133   -0.0974103   0.00474863   -0.0653456    -0.049524   -0.0703003   -0.0177415    0.0602939   -0.0576458    0.0635131    0.0332576   -0.0310533   -0.0397809  -0.00507153   -0.0259036    -0.013921     0.123756    -0.021794   0.00658466    0.0102629   -0.0574278    0.0097222   -0.0143628   -0.0243168    -0.059344   -0.0712395    0.0133968     0.114335   -0.0536305    0.0396618    0.0475258   0.00412756    -0.120905     0.168315    -0.047524    -0.135591   -0.0510226   -0.0285783    0.0112724    0.0488206   -0.0125697     0.024898     0.124891   -0.0756931    0.0412898    0.0550055    -0.198555   -0.0292939    0.0116537    -0.108695   -0.0582959    0.0303743   -0.0135675   -0.0321263      0.03041    0.0703339    0.0659912     0.116276    -0.141762   -0.0178259    0.0367286     0.104918    0.0562692    -0.105697   -0.0782631    0.0194203     -0.14436   -0.0311542    0.0669274    0.0772108   -0.0840378   0.00173351    0.0222343
  -0.0056638    0.0103601   -0.0462775    0.0873262   -0.0247843   -0.0583076    0.0698572   -0.0505402    -0.193526     0.046816    0.0623169   0.00441893    -0.105286   0.00366326   -0.0738304     0.004065    0.0470719   -0.0122853   -0.0304021   -0.0342039   -0.0456053   -0.0269684   -0.0546044    0.0345181     0.030401    0.0281621    -0.031419   -0.0223372   -0.0318084    -0.046102   -0.0862994  -0.00533861     0.159315   -0.0954343    0.0700145    0.0623189   -0.0896208    0.0251326    0.0407776   -0.0579621   -0.0616055   -0.0541195   -0.0401779    -0.062894   -0.0257176   -0.0990765    0.0578254   -0.0667319   -0.0163547    0.0196487    -0.323391    0.0842761    0.0304344   0.00165747   -0.0446975   -0.0217201    0.0119871    -0.070204   0.00165494    0.0156794    0.0429736    0.0285771   -0.0566915    0.0080601     0.063139   0.00827006    0.0581515     0.114545   0.00590977    0.0251973   -0.0336641    -0.132152   -0.0225099   -0.0363866     0.109267    0.0129627     0.066255    0.0644374    0.0186527    0.0119268  -0.00827775    0.0220727    -0.044844    0.0590999     0.033955   -0.0537217 -0.000161782    -0.041837  -0.00138336    0.0371261    0.0251712    0.0759424   -0.0169202   -0.0457004    0.0936401   -0.0132865  -0.00943375   -0.0268572    0.0227221  -0.00192888      0.10174    0.0238924   -0.0283883   -0.0302415    0.0762808  -0.00386981    0.0239671    0.0202167   0.00512586   -0.0209707     0.207386   -0.0485518    0.0416833    0.0781999   -0.0481228  -0.00407373   -0.0593429    0.0915297    -0.111846   -0.0176471   -0.0595329  0.000582914    0.0200834    0.0108066     0.044062   -0.0465927   -0.0408598    0.0990246    0.0303569    0.0259894   -0.0509183   -0.0406939    0.0171515    0.0219842      0.09418   -0.0887749   -0.0115907  -0.00866393    -0.022655    -0.018897   -0.0148168     0.086988     0.104226   -0.0387365    0.0444805    0.0700087    0.0136106   -0.0360298    -0.053039  -0.00217962   -0.0829737   -0.0130159    -0.159507  -0.00114052    0.0639209     0.084108    0.0134375    0.0610462   -0.0228663  -0.00149726    0.0802224     0.046992    -0.113224     0.046934   -0.0210321     0.138222    0.0169059     0.135471    -0.184557   -0.0469564    0.0247095   -0.0945209   -0.0520875    0.0913987   -0.0233966    0.0618352   -0.0712228     0.046556   -0.0136422     -0.14495   -0.0981503   -0.0552574    -0.037463     0.058589   -0.0143274   -0.0366591  -0.00230837   0.00569398   0.00355284     0.014649    0.0816051   -0.0761374   -0.0586988     0.145601   0.00630033    0.0731749     -0.05456   -0.0129487     0.079827   0.00489363   -0.0528507    0.0580607     0.118058   -0.0288223    0.0395388     0.015452    -0.108515    0.0367692   -0.0374909   -0.0140281   -0.0160103  -0.00807608   -0.0325224   -0.0701334   -0.0182899    0.0143515    -0.085587   0.00762996    0.0609282    0.0118129   -0.0790972   -0.0596149   0.00164199     0.175015    0.0487463   -0.0837613  -0.00401177   0.00818927    -0.099444   -0.0436028     0.117947  -0.00530065   -0.0647441     -0.12286    0.0380416   -0.0172987   -0.0111917    0.0615708    0.0249891    -0.097096     0.101536    0.0195641    0.0156648  -0.00355038      0.12958    -0.148482    0.0114367   -0.0684929    0.0391598    0.0565225   -0.0107864     0.111418     0.144354   -0.0412357   -0.0343832    0.0362627    -0.018018   -0.0183414  0.000862533    0.0889134    0.0148741   -0.0619593    0.0149206   -0.0564805     -0.18558    -0.105582    -0.181034      0.13899    0.0277382     0.183643    -0.113185   -0.0125632   -0.0341466   -0.0447261   -0.0408355     -0.10097   -0.0773913    0.0431238   0.00289579   0.00696787   -0.0489153  -0.00680939    -0.109258    0.0422108   -0.0813076    0.0555231   0.00217902   -0.0779844    0.0989276    -0.011308   -0.0466836     0.130443    0.0338519   -0.0753388  -0.00615341   -0.0938326     0.117763    0.0471198   -0.0658021  -0.00173939     -0.13061    0.0185736   -0.0209107    0.0110911   0.00287966    0.0512066    0.0181976     0.122738    0.0574908    -0.060636     0.152321    0.0118006   0.00198424   -0.0734794    -0.125257    -0.041523    -0.020017   -0.0261769   -0.0349985    0.0014707    0.0921003    0.0911871    0.0481283    0.0905448   -0.0375253   0.00522263    0.0423585   -0.0532979    0.0203381   -0.0979669   -0.0833863   -0.0550437    0.0742519   -0.0452963   -0.0597629   -0.0562258    0.0147328   -0.0930291     0.124623    0.0373452   -0.0550089    -0.047204    -0.109739    -0.012725    0.0110327     0.102625    -0.104949    0.0452658    0.0605157    0.0944591    0.0432269   -0.0285191   -0.0550237     0.011213    0.0661875   -0.0342398   -0.0811895    0.0432455    0.0424624    0.0499184    0.0301573    0.0640275   -0.0471575   -0.0484045     0.024762   -0.0477635   -0.0479045     0.126742    0.0481676    0.0662253   -0.0177746   -0.0410463    0.0179277     0.057595    0.0969293    -0.016719   -0.0723797   -0.0313784    -0.108983    0.0107626    0.0486506  -0.00793648     0.123505   -0.0369863    -0.014765    0.0211904   -0.0305174   0.00969867    -0.168395   -0.0763109   -0.0177035    0.0686194  -0.00417677    -0.051795  -0.00543744  -0.00146579   -0.0394021   -0.0111768   -0.0703037   -0.0439906  -0.00843081   -0.0753974    -0.102807    0.0407026     0.124235    0.0574432   -0.0160546    0.0339729   -0.0658353   -0.0718703   -0.0779307    0.0475608   -0.0604909    -0.136115 -0.000799704   -0.0225367   -0.0582539    -0.185572   -0.0449283    0.0768667     0.066132   -0.0746342    -0.106771    0.0882081   -0.0841033  -0.00122719   -0.0816463   -0.0778025   -0.0274444     0.014408    0.0666135   -0.0775143    -0.081405  -0.00821446   -0.0617448    0.0393937    0.0618428     0.120283    0.0126628   -0.0210984   -0.0222016    0.0996795   -0.0636101   -0.0032852    0.0298279   -0.0540288    0.0331541    0.0629098   -0.0822788    0.0819483   -0.0163018    0.0376774   0.00321982    0.0667456    0.0863228   -0.0548101    0.0276609    -0.189464    -0.052906    0.0996888   -0.0240092   -0.0840234    -0.003907   -0.0191511    0.0566123  -0.00264708   -0.0675358   -0.0916233   -0.0392396   -0.0134327   -0.0833299   -0.0694664    0.0197497    0.0113638   -0.0564598    0.0150797    0.0424461    0.0779034    0.0351036    0.0191345     0.049533   -0.0208178   -0.0962761    -0.039436    0.0198932   -0.0943907    0.0155656   -0.0145416     0.070566    0.0129899   -0.0589782   0.00537593     0.031448  -0.00904246   -0.0181026   -0.0384417     0.137686   -0.0646879   -0.0510538   -0.0704725    0.0885376   -0.0571221   0.00395518    0.0332474   -0.0125968     0.115046   0.00290083   -0.0167537    0.0178094    0.0114611   -0.0316582    0.0143433
    0.040157    0.0317133   -0.0547027    0.0296391   -0.0375524   -0.0775932    -0.102885    0.0773655    0.0994674   -0.0530591    0.0325707   -0.0530686    0.0708119   0.00554149    0.0881268   -0.0837363    0.0567654    0.0406307     0.146265    0.0612672    0.0181751   0.00944824    0.0947593    0.0305007  -0.00131449   -0.0765952   -0.0274322    0.0811935    0.0171128    0.0659491     0.050967   -0.0347241    0.0694637   -0.0955806   -0.0425053   -0.0700652   -0.0237298   -0.0437441   0.00130616   -0.0239816     0.111363   -0.0535175    -0.129135    0.0607954    0.0267218   -0.0313955  -0.00839337     -0.01029    0.0568559   -0.0107457   -0.0645881    0.0720843    0.0558046   -0.0249442   -0.0267587   -0.0642413   -0.0284432    0.0810784     0.052111    0.0149149  -0.00135235   -0.0534586   -0.0599011   -0.0123605     0.028468   -0.0229796   -0.0316818    0.0921911    0.0101286    0.0113882   -0.0110973   -0.0189102   -0.0352826    -0.105578     0.110376   0.00741891   -0.0438532    0.0536224   0.00727129    -0.019039    0.0850626   0.00787646    0.0050544   -0.0748507   0.00155336    -0.103688   -0.0396795    0.0345838   -0.0586125    0.0286093   -0.0248697    0.0759423  0.000917042  -0.00801321   -0.0524844    0.0157411   -0.0401755    0.0163886   -0.0300079   -0.0257466    -0.070725     0.118614   -0.0270738     0.124287    -0.066832     0.012949    0.0215719  -0.00316531   -0.0532926   -0.0439784   -0.0330471   -0.0777847   -0.0434426   -0.0542938   -0.0732599    0.0537721   -0.0646739   -0.0179412     0.044951   -0.0113938    0.0205946  -0.00781227  -0.00823172    0.0208667    -0.030912    0.0814702   -0.0339253    -0.072036   -0.0689865   -0.0137502    0.0418633    0.0160756   -0.0304741    0.0573561    -0.037196    -0.120457   -0.0973248    0.0163888   0.00746876   0.00781831    0.0690062    0.0311809   -0.0973115   -0.0335569   -0.0197464     -0.12057   -0.0686155   -0.0556719    0.0363254    0.0511988 -0.000699348    0.0479975    0.0329997   -0.0196424    0.0331376    0.0255636    0.0594865   0.00508177    0.0503108    0.0297806    0.0394613   -0.0897895    -0.113718    -0.107158   -0.0104593    0.0702526   -0.0364039    -0.108351  -0.00385004  -0.00869563    -0.128402   -0.0681313   -0.0391897     0.089845   0.00228731    -0.054924   -0.0263869   -0.0138012   -0.0149433    -0.090882    0.0135475    -0.099103  0.000394684   -0.0164774   -0.0452309   -0.0139561    0.0566262  -0.00637092    -0.047572    0.0166317    0.0440508  -0.00710179    0.0874019   0.00822973   0.00645128   -0.0098174   -0.0682612   -0.0177199   -0.0108181    0.0156887     0.102359   -0.0218307     0.091038   -0.0250446    0.0593743   -0.0180473    0.0810736    -0.042132     0.042952  -0.00381944    0.0369051    0.0491158   -0.0714622   -0.0553529    0.0301396   -0.0619473 -3.03552e-05   -0.0344062      0.12599     0.048783    0.0607022    -0.145453    -0.079503     0.059132    0.0332351   -0.0785758   -0.0722766    0.0369021   -0.0139566     0.165455    0.0193153   -0.0054895    -0.071765    0.0141405    -0.003196   -0.0128409   -0.0445105     -0.13867   -0.0610706   -0.0406269   0.00113054   -0.0542762    0.0513209  -0.00183109   -0.0477384   -0.0186775   -0.0604823  -0.00986398   -0.0113998    0.0567013    0.0266051     0.111281   -0.0262397   -0.0362429   -0.0306633     0.124778    -0.139887    0.0520107    -0.195275    0.0736119    0.0829033    0.0587758    0.0500742    0.0169427    0.0160261    -0.104191    0.0774368    0.0990712    0.0364129   -0.0319606    0.0947551    0.0615728   -0.0285461   -0.0499092   -0.0287681     0.029467     0.116273  0.000159379   -0.0758309   -0.0446373   -0.0242562    0.0472159    0.0241059  -0.00462749   -0.0561653   -0.0239756    0.0615746   -0.0314677    0.0365579   -0.0187954   -0.0449348    -0.081596   -0.0983409    0.0444883   0.00122354    0.0128262   -0.0230146      0.01537   -0.0308332    -0.039515   -0.0631366    0.0452347   0.00174228   -0.0443528   -0.0925328     0.117187   -0.0268565   -0.0164261    -0.107503   -0.0451379   -0.0592029    -0.105612   -0.0527575   -0.0191623   -0.0395347   0.00132949   -0.0416618    0.0557138    0.0807051    0.0638814 -0.000538231   -0.0251705   0.00213474   -0.0190501   0.00746983    0.0910932   -0.0195171    -0.011161    -0.118963   -0.0195668   0.00393184    -0.056469    0.0147355   0.00314047    0.0262115    0.0858329    0.0683385   -0.0115966   -0.0514851   -0.0599077   -0.0793621   -0.0675623   -0.0267099   -0.0497227 -0.000245776    -0.126089    -0.084026    -0.103247    0.0770411   -0.0140957    0.0571168     0.119614    -0.051728   -0.0237217    0.0859147   -0.0228152    0.0468635   0.00913993    -0.120819   -0.0771362  -0.00808635   -0.0658241   -0.0375326   -0.0240311    0.0641317   -0.0683739   -0.0124516   -0.0208286   -0.0893416    -0.124271    0.0534974   -0.0579157     0.020698  -0.00521968  -0.00026573    0.0488691   -0.0219351    0.0441204   -0.0137897    -0.047682   -0.0575372    0.0284869  -0.00653057   -0.0626516  -0.00467586    0.0386623    -0.030104 -0.000511578   -0.0751624   -0.0145726    0.0499889   -0.0825036   -0.0877534     0.062578    0.0132116  -0.00588701   0.00905689    0.0166809    0.0825256   -0.0414069   -0.0256833   -0.0451313     0.102435    0.0627346    0.0891966    0.0137788    0.0744119    -0.102576     0.029389    -0.045924    0.0492803   -0.0355283    0.0770161   -0.0757084   -0.0827063     0.100363    0.0768973   -0.0383495    -0.119379     0.105604    0.0802095    0.0342674    -0.028214   0.00934961    0.0998561   -0.0332522    0.0391912   -0.0275787   -0.0243085  -0.00719751     0.060356   -0.0928091   -0.0711606    0.0127823   -0.0490522    0.0324473    -0.121854    0.0119898   0.00871205    0.0223784  -0.00263301   -0.0506872   -0.0311255  -0.00417892     0.143273    0.0257489    0.0589016   -0.0131885    0.0832097    0.0192245     0.112988    0.0135104    0.0985057    0.0352491    0.0942767    -0.139043  -0.00775651   -0.0787516    0.0238406    0.0893842    0.0688358    -0.125435    -0.025481   -0.0158798    -0.095675   -0.0706748   -0.0218133   0.00853202     0.110068  -0.00757201    0.0570671    0.0202093    0.0259716   -0.0781814     0.010924   -0.0521201   -0.0977269    0.0725705   -0.0861387     0.120797  -0.00358368    0.0483995   -0.0162171    -0.029966    0.0298008     0.127225    0.0137383   -0.0278406   -0.0899414   -0.0228813    0.0204463    -0.058302    0.0804898    0.0112175  -0.00412641    -0.110583    -0.115273   -0.0036086    0.0575456    0.0432896     0.143305    0.0589854   -0.0799482     0.117513    0.0132965   -0.0770499   -0.0796534   -0.0212839  -0.00672314   0.00218952     0.100488    0.0267845
    0.087367   -0.0110988    0.0145315   -0.0126002   -0.0459941    -0.131672  -0.00715275    -0.129463   0.00861098    -0.110365    -0.113538     0.145079     0.049769    -0.112105 -0.000663548     0.115649   -0.0106868    0.0396449    0.0819592    0.0187942 -0.000814971   -0.0437157    -0.073033    0.0234798     0.133421   -0.0521139    0.0350706   0.00810673    0.0802606   -0.0725173   -0.0503918     0.076932    0.0150234    0.0865608    0.0237991    0.0312639    0.0392044     0.063549    0.0928399   -0.0297287    0.0214971     0.154959   -0.0153577    -0.108421   -0.0513942    0.0235309    0.0236514    -0.039643    0.0957171    0.0536769    -0.114823    0.0370249   -0.0191378    -0.021407    -0.131456    0.0518045    0.0641025   -0.0202426  -0.00167681   -0.0238107    0.0885059   -0.0109003   -0.0556884    -0.079602   -0.0448704   -0.0233468    0.0633111    0.0316424   -0.0582555   -0.0476812   -0.0156432   -0.0832108    0.0937511  -0.00562909    0.0508336   -0.0778663    -0.153944   -0.0475804   -0.0449135    0.0943783     0.038144    0.0708151   -0.0101804   -0.0336475    0.0572999    0.0269833   -0.0410963   -0.0422642   -0.0100577     0.109357    -0.123709    0.0171594    0.0329882   -0.0155696    0.0657113    -0.019807   -0.0706777   -0.0571665    -0.018236   -0.0205188    0.0280268   -0.0960686   -0.0189274    0.0638067    0.0117014    0.0346788   -0.0853998   -0.0458159    0.0886541    -0.116192   -0.0473827     0.108107     0.042914   -0.0154402   -0.0323203  -0.00681414   0.00769363    -0.049324     0.100824   -0.0222146     0.145304    0.0632881    0.0143017   -0.0316791   0.00956442    0.0618745   -0.0532423   -0.0191654    -0.104101   -0.0650168    0.0407455   0.00962704    0.0541567   -0.0306594    0.0497159  -0.00736476    0.0268107   -0.0354954    0.0658685   -0.0200043   -0.0211728   -0.0715885    0.0472884     0.123675    -0.139738   -0.0679657   0.00878116   -0.0879663   -0.0232892   -0.0758841    0.0331468    0.0635161     0.038793   -0.0483605   -0.0202543   -0.0384568     0.051996   -0.0725278    0.0396057   0.00156046  -0.00320225    0.0145037    0.0282135    0.0277472   -0.0521801      0.13568   -0.0727646    0.0233134     0.123186   -0.0368629   -0.0304301   -0.0758364    0.0753675   0.00656856    0.0189717   -0.0360124    0.0336048    0.0999248   0.00901223   -0.0632952     0.101301   -0.0682115    0.0635873   -0.0394103    -0.054054   -0.0994051    0.0660025    0.0631103   -0.0230561   -0.0432979   0.00759611    0.0436033   0.00305673     0.019493   -0.0216451  -0.00130797    -0.039667    -0.106117    -0.026113    0.0207753   -0.0432558    -0.187052   -0.0110418   -0.0806549   -0.0865739   -0.0225389    -0.100168     -0.07955    0.0477592   -0.0240975   -0.0411212   -0.0811371    0.0485579    0.0188198   -0.0795636    -0.028822   -0.0537777   -0.0632379  0.000416239     0.066171   -0.0194809   0.00221443    0.0336066   -0.0256665   -0.0860754   -0.0639729  -0.00208936   -0.0524679   -0.0550024    0.0914939     0.046892     0.109992  -0.00500304   -0.0457326   -0.0411368   -0.0991203    0.0276579   -0.0656425    0.0217865    0.0865462    0.0322308    -0.018517   -0.0440668    0.0123235    0.0169758      0.06415  -0.00819165   0.00655749    -0.032725   -0.0250794     0.085709    -0.235525    0.0334016    0.0937582     0.133959   0.00664026  -0.00846669   -0.0800191   -0.0568335    0.0296338   -0.0477979  -0.00512949     0.122556    0.0224407   -0.0951309   -0.0404571   -0.0229326   -0.0203432    0.0367958    0.0796027    0.0280083   -0.0846745   -0.0612145   -0.0575009    0.0159248    0.0397883  -0.00693841    0.0103456  -0.00361429    0.0563163    0.0300334     0.116239     0.000378    0.0928702    0.0455912   -0.0223205    0.0279431    0.0865629    -0.119109   -0.0788617   -0.0549992    0.0338392   -0.0695637   -0.0395239   -0.0183308   -0.0811142    0.0378078   -0.0507738    0.0145495   -0.0367379    -0.222376    0.0577186   0.00786225   -0.0172773     0.128842   -0.0200289    0.0038235    0.0164146   -0.0467703    0.0852584   -0.0512841   -0.0251397   -0.0526611    -0.035947    -0.034661   -0.0301567   -0.0223082    0.0329571   -0.0161311   -0.0182244   -0.0260995    0.0868931   -0.0342136    0.0148578   -0.0798139    0.0282603   -0.0696603   -0.0589519   -0.0123154   -0.0947355   -0.0133579   -0.0273845   -0.0629807    -0.124781   -0.0805755   -0.0608468   -0.0976542    0.0714097    0.0327802   -0.0220136   -0.0938074   -0.0443996   -0.0432093    0.0986644   -0.0102771    -0.122632    -0.135706    -0.130461   -0.0521274    0.0436935    0.0320552   -0.0244545   -0.0260534  -0.00538513    0.0226991    0.0228394   -0.0185566    0.0188104    0.0547035    0.0382454     0.060111    0.0126327  -0.00941711   -0.0153421   -0.0250233    0.0530788   -0.0646654     0.145881   -0.0755934    0.0152089  -0.00530482   -0.0317929  -0.00874372    0.0402361    0.0205326   -0.0348186    0.0452841    -0.105318   -0.0599807   -0.0285803    0.0241453    -0.101189   -0.0538732   -0.0581411    0.0505495  -0.00471907   -0.0797358    0.0453062   -0.0254122    0.0304091   -0.0734189      0.00403    0.0133146     0.031385     -0.10348  -0.00590327    0.0417712   -0.0210176   -0.0233724  -0.00988195   -0.0256052    0.0468222   -0.0363288   0.00839963    0.0172942   -0.0780711   -0.0333209   -0.0290349     -0.09563    -0.013383    0.0230203  -0.00484706    -0.139771    0.0118544   0.00547383   0.00454702   -0.0460289    -0.105016   -0.0593714   0.00301497   -0.0524794   -0.0130633   -0.0483915   -0.0248563    -0.113068   -0.0342766   -0.0554939     0.151766   -0.0693958    0.0695977    0.0729997   -0.0362238    0.0427356  -0.00177593   -0.0896231    0.0372115    0.0361004    -0.017453   0.00554073     0.135764   -0.0166802    0.0670723   -0.0306367   0.00382128   -0.0308541   -0.0234136    0.0714188      0.01375  -0.00598346     0.106228    0.0205825    0.0580545   -0.0127146    0.0142149    -0.118571     0.032414     0.107637    0.0748152  -0.00082778   -0.0745732    0.0118095   -0.0720249    0.0668483   0.00452953   -0.0447869   -0.0541139    0.0208867   -0.0422295   -0.0347311    0.0444979   -0.0545078   -0.0106578    0.0179468    0.0438677    -0.130173   -0.0727036   -0.0312969    0.0222362   -0.0890326   -0.0070161   -0.0213523    0.0832412    0.0694185    0.0338534     0.016894    0.0292693    -0.112822    -0.103512   -0.0209772   0.00306053   0.00385493   -0.0405246    0.0894868    -0.135249  -0.00691471   -0.0589214   -0.0156876   -0.0188035   -0.0957352     -0.11267   -0.0614426    0.0813459    0.0460241   -0.0741414   -0.0246222    0.0186997    -0.047082    0.0258236    0.0804388    0.0119651   -0.0643531    0.0163105
